tree
version=v3
num_class=1
num_tree_per_iteration=1
label_index=0
max_feature_idx=18
objective=regression
feature_names=Column_0 Column_1 Column_2 Column_3 Column_4 Column_5 Column_6 Column_7 Column_8 Column_9 Column_10 Column_11 Column_12 Column_13 Column_14 Column_15 Column_16 Column_17 Column_18
feature_infos=[111:5292] [109:5276] [111:5452] [109:5292] [110:5616] [111:6360] [110:5280] [110:5280] [111:5616] [110:5276] [110:5616] [111:5616] [111:5284] [111:5452] [110:5280] [111:5292] [110:5280] [110:5280] [111:5224]
tree_sizes=16536 16688 11121 9558 9973 7556 7323 13342 4587 7140 10158 4491 6441 5718 6640 5078 5627 8083 7282 6325 11514 8976 5620 7393 5748 8104 8324 12901 6253 5828 5390 12368 8611 7074 5735 7343 7501 6354 7559 4804 6156 6455 5021 9346 2981 6880 6041 7074 3399 8228

Tree=0
num_leaves=191
num_cat=0
split_feature=9 0 9 8 9 18 10 18 9 0 9 0 18 0 0 0 9 18 9 8 10 1 18 0 8 8 9 9 0 16 8 9 9 0 9 0 11 18 18 0 1 15 18 4 5 1 0 10 14 15 18 17 7 17 1 18 18 18 0 17 0 18 1 0 9 11 17 0 8 18 7 18 16 18 18 14 1 0 11 18 13 6 10 9 8 8 3 18 9 1 0 10 10 9 18 15 16 11 14 1 8 9 5 3 18 0 1 9 6 17 0 18 15 2 18 0 17 9 3 4 2 18 0 18 1 13 0 18 1 1 15 11 10 11 2 0 5 18 18 17 17 10 1 11 6 17 0 18 0 6 0 7 10 14 0 17 1 10 14 10 0 0 1 18 8 6 1 1 8 6 0 5 16 17 6 9 17 1 8 18 17 14 0 5 9 15 5 17 7 8
split_gain=5.66975e+08 7.04228e+07 4.14682e+07 2.00507e+07 2.1039e+07 1.66089e+07 7.58287e+06 7.27587e+06 6.71439e+06 3.70539e+06 3.22522e+06 4.28649e+06 3.65967e+06 3.09963e+06 2.76027e+06 2.12695e+06 1.97085e+06 1.81044e+06 2.39865e+06 1.60995e+06 1.5871e+06 2.13302e+06 1.5012e+06 1.48651e+06 1.48031e+06 1.35433e+06 1.28807e+06 1.23454e+06 1.16965e+06 1.10983e+06 1.08627e+06 1.03826e+06 1.02472e+06 987053 931614 948364 850544 824879 788309 746252 727346 766459 699142 696236 690261 644513 639001 1.50009e+06 630602 597604 584107 569564 557900 553542 551812 536690 535140 1.46346e+06 544048 501855 495059 492811 476756 456192 451950 444068 437164 432346 425213 410294 409733 406424 405879 393622 388576 356699 331426 322316 760387 429096 319286 280157 275489 629603 270465 245661 241664 234804 207241 204369 203187 219396 191676 191359 188634 187965 187162 300683 184614 180189 175919 171347 170536 169358 168682 168296 158286 146119 143054 141554 140108 135663 130177 121164 109506 108912 108708 106962 104274 103337 111236 102889 101739 100231 98403.8 83709.5 81422 78892.4 78887.5 75064.4 74315.6 74307.4 72885.7 69919.4 69242.2 68591.8 64625.1 63995.2 62714.1 61385.4 58579.2 58075.2 55085.1 54604.5 52571.4 51117.9 51042.1 50206.7 49496.1 47984 47519.6 95496.8 46903.8 46756.1 46376.1 48413 45963.4 45449.9 44286.4 43975.2 42675.7 38633 38009.2 37875.7 35422.3 48194.2 34443.4 34292.5 31632 31289.1 31020.7 30963.9 28404.3 22937.7 22884.3 18710 15944.5 13752.3 13242.6 10735.3 10430.5 6337.71 5915.32 5518.34 2609.87 2035.08 1764.21 1195.95 501.257 243.714
threshold=167.25000000000003 197.25000000000003 253.25000000000003 149.25000000000003 222.25000000000003 205.25000000000003 171.25000000000003 236.25000000000003 873.25000000000011 169.25000000000003 239.75000000000003 161.25000000000003 195.25000000000003 175.25000000000003 211.25000000000003 232.25000000000003 320.25000000000006 216.25000000000003 247.25000000000003 245.25000000000003 284.25000000000006 249.25000000000003 313.25000000000006 167.25000000000003 175.25000000000003 167.25000000000003 2329.0000000000005 224.25000000000003 304.25000000000006 205.25000000000003 2028.5000000000002 221.25000000000003 192.25000000000003 245.25000000000003 208.25000000000003 327.25000000000006 269.25000000000006 149.25000000000003 311.25000000000006 165.25000000000003 221.25000000000003 218.25000000000003 147.25000000000003 169.25000000000003 249.25000000000003 168.25000000000003 260.25000000000006 343.75000000000006 218.25000000000003 193.25000000000003 409.75000000000006 218.25000000000003 263.25000000000006 185.25000000000003 208.25000000000003 197.25000000000003 250.25000000000003 334.25000000000006 218.25000000000003 261.25000000000006 267.25000000000006 262.25000000000006 253.25000000000003 167.25000000000003 189.25000000000003 208.25000000000003 197.25000000000003 310.25000000000006 1612.5000000000002 156.25000000000003 2173.0000000000005 232.25000000000003 209.25000000000003 270.25000000000006 199.25000000000003 242.75000000000003 286.25000000000006 341.25000000000006 334.25000000000006 369.25000000000006 208.25000000000003 209.25000000000003 177.25000000000003 151.25000000000003 217.25000000000003 243.25000000000003 169.25000000000003 251.75000000000003 2309.0000000000005 219.25000000000003 259.25000000000006 2321.0000000000005 371.25000000000006 145.25000000000003 180.25000000000003 3489.0000000000005 896.50000000000011 980.50000000000011 431.75000000000006 241.75000000000003 169.25000000000003 211.25000000000003 201.25000000000003 226.25000000000003 218.25000000000003 205.25000000000003 369.25000000000006 324.25000000000006 169.25000000000003 299.25000000000006 578.25000000000011 217.25000000000003 490.25000000000006 205.25000000000003 167.25000000000003 214.25000000000003 2121.0000000000005 204.25000000000003 215.25000000000003 175.25000000000003 170.75000000000003 299.25000000000006 262.25000000000006 179.25000000000003 250.25000000000003 215.25000000000003 230.75000000000003 384.25000000000006 168.25000000000003 213.25000000000003 206.25000000000003 2065.0000000000005 241.75000000000003 2325.0000000000005 216.25000000000003 165.25000000000003 205.25000000000003 1519.5000000000002 262.25000000000006 351.25000000000006 215.25000000000003 2297.0000000000005 247.25000000000003 2305.0000000000005 3041.0000000000005 240.25000000000003 319.25000000000006 179.25000000000003 206.25000000000003 219.25000000000003 2233.0000000000005 2273.0000000000005 390.25000000000006 207.25000000000003 213.25000000000003 200.25000000000003 453.75000000000006 268.25000000000006 270.25000000000006 335.25000000000006 283.25000000000006 278.75000000000006 203.25000000000003 199.25000000000003 165.75000000000003 167.25000000000003 215.25000000000003 303.25000000000006 212.25000000000003 181.25000000000003 241.75000000000003 170.25000000000003 259.25000000000006 206.25000000000003 1717.5000000000002 229.25000000000003 2207.0000000000005 243.25000000000003 182.25000000000003 250.25000000000003 2333.0000000000005 132.25000000000003 263.25000000000006 3297.0000000000005 165.25000000000003 194.25000000000003 165.75000000000003 121.75000000000001 165.25000000000003 142.25000000000003
decision_type=2 2 2 2 2 2 2 2 2 2 2 2 2 2 2 2 2 2 2 2 2 2 2 2 2 2 2 2 2 2 2 2 2 2 2 2 2 2 2 2 2 2 2 2 2 2 2 2 2 2 2 2 2 2 2 2 2 2 2 2 2 2 2 2 2 2 2 2 2 2 2 2 2 2 2 2 2 2 2 2 2 2 2 2 2 2 2 2 2 2 2 2 2 2 2 2 2 2 2 2 2 2 2 2 2 2 2 2 2 2 2 2 2 2 2 2 2 2 2 2 2 2 2 2 2 2 2 2 2 2 2 2 2 2 2 2 2 2 2 2 2 2 2 2 2 2 2 2 2 2 2 2 2 2 2 2 2 2 2 2 2 2 2 2 2 2 2 2 2 2 2 2 2 2 2 2 2 2 2 2 2 2 2 2 2 2 2 2 2 2
left_child=25 3 5 4 32 14 9 10 15 63 11 24 13 45 29 16 19 40 56 -4 21 142 28 85 -8 82 30 38 44 55 68 66 -2 145 35 89 102 178 172 -12 41 48 93 108 -23 -13 47 52 51 -15 161 54 -22 -48 -7 64 58 99 104 -21 73 144 71 135 -3 80 -14 -64 87 -36 116 -60 105 75 123 -35 84 79 -79 -55 81 -57 164 185 124 -9 -45 163 150 154 -63 131 159 169 -26 133 112 -98 107 136 -65 139 -29 -76 115 130 -37 -38 -39 -54 -30 -96 -89 117 -115 -19 -32 -66 -50 120 -88 157 147 126 134 -43 -71 -40 184 171 162 -92 -125 -93 -42 -5 -58 -103 -101 -59 -106 -133 158 -90 -28 -20 160 -91 -74 -86 176 -152 -87 173 -16 -156 -70 -61 177 -18 -62 -24 -31 -10 188 186 -127 -52 -53 -27 -147 -130 179 -107 -158 -151 -72 -17 181 -25 -145 187 -126 -97 -44 -84 -166 -11 -1 -190
right_child=1 2 8 6 -6 17 7 23 26 37 39 12 31 49 34 20 92 18 33 59 46 22 50 27 94 42 61 36 110 72 70 -33 -34 60 69 106 98 43 127 -41 76 125 128 86 -46 -47 53 -49 118 -51 167 168 109 77 -56 65 57 101 62 121 146 90 67 100 113 -67 -68 -69 156 74 88 -73 148 -75 103 -77 -78 78 -80 -81 -82 -83 83 -85 149 152 119 96 143 122 91 95 -94 -95 111 183 97 -99 -100 138 -102 137 -104 -105 140 153 -108 -109 -110 -111 -112 -113 -114 114 -116 -117 -118 -119 -120 -121 -122 -123 -124 132 182 166 -128 -129 129 -131 -132 141 -134 -135 -136 -137 -138 -139 -140 -141 -142 -143 -144 180 -146 170 -148 -149 -150 175 151 -153 -154 -155 155 -157 174 -159 -160 -161 -162 -163 -164 -165 165 -167 -168 -169 -170 -171 -172 -173 -174 -175 -176 -177 -178 -179 -180 -181 -182 -183 -184 -185 -186 -187 -188 -189 189 -191
leaf_value=29.544655159000182 134.53267941597269 46.145607382073436 92.400070924304828 29.833507149482053 38.453018725154486 44.316917235985414 92.895174513275421 44.484053954782347 38.239799583962913 62.692942941709198 32.368248074031371 41.21789877084381 53.944217149944578 62.227088645555085 47.829109167830232 35.756635577320033 49.195111733258592 37.33258434225344 34.306348110886063 51.144542870964784 80.054131238283588 40.903667672478157 35.742596451613466 34.292878358999786 60.066314428066292 43.438446642716357 38.824649043465456 71.567597093753719 45.315577519162709 45.917537484846598 32.365395045701604 68.003976416082509 163.41807813413541 38.791901564278035 39.039552995864042 59.064420528127968 48.534379019991 36.926345553276633 55.822203586282825 51.39740097548686 33.419894030793124 33.861088864807904 29.70553464379336 45.199122988985621 53.965264384554743 56.417045532217386 39.478122219714606 45.701049988538948 33.194884853541694 57.80404468982929 51.110646770207225 32.952922415630553 56.912697067832781 55.818710146856731 48.044682394305752 54.91791653153264 36.453289556225378 44.569034703170992 42.885672950836593 63.75934626556257 42.075979524129259 43.829433933814983 34.723252020544948 37.454788874964876 59.658819092693051 43.918677539943019 47.709569914317889 43.503903986816475 52.188202207749391 60.065137366110918 45.381355249532312 40.371595442710529 38.355354446447457 39.400160443925515 40.70643406075633 51.29902009640098 48.661121710139625 49.902291353849968 54.62983353706197 52.00054380830592 43.091174079156083 44.939268222636358 29.717889922229407 48.54111040025618 38.305010741847489 36.585919676727329 51.018616554704245 48.659266734042539 43.518323489216712 40.534441504858663 51.229438640122659 49.051704003407835 56.07586423815097 51.646195549827667 68.964387803967981 45.501462497181741 40.039822352845526 49.170814145284609 43.990329437717399 39.346505485712441 46.589184215439154 44.172283511742187 61.313089955371368 51.737361741139232 33.904294708706246 55.381454128165075 49.475793830602299 59.142840939181347 46.585453694668331 65.809959931744302 51.400504908710417 62.158475755495317 57.150029179004548 58.99602958475019 50.711586742000293 42.148742653940424 39.601590668498638 53.193639199220947 41.063613351357233 49.264061833462542 56.864679785327318 60.885659163053752 43.469392129226904 50.754775721032686 30.596766613754742 36.852308468932726 52.979982701824895 48.768889209780106 34.755452066349953 30.576205366015188 42.593140469799302 41.360004145059897 56.62396451585397 52.748442890528082 40.126328419735614 35.225179856381835 32.224016064779264 39.143981267358427 35.070377034469367 50.693812778871816 37.210184937711098 47.678386333982907 43.351763710471943 50.019496658971342 44.51385007575746 37.472993019461811 44.528430443925963 36.493446285203966 44.187395590373086 42.239294297257715 38.945238731290011 43.132335511256727 31.537802843941208 49.993763950224711 44.863349184961244 39.749052036004514 58.870979783246106 68.522679697227929 41.930790715040473 43.504203073616807 36.073226254671013 40.246644187483817 50.940394995858689 43.745296267455693 29.592264877673177 35.357420270218228 41.845262284462983 46.619402363502395 38.126101313539628 38.718082039513675 41.315826122041216 39.642235881059058 39.93720151237531 51.829192104541221 54.861490526804261 45.647177453590174 42.951885549061068 38.614907295458252 59.933847430736975 37.244180488154036 47.524525019164365 61.261307200698489 32.808408500064985 47.444375642109883 31.149750266197792 30.883481168362987 30.798796189255494 63.84381705648569 29.48031346736682 29.910594908758259
leaf_weight=309096 524 664 504 1133 557 13770 542 667 513 528 923 615 5021 133860 566 894 551 1666 545 512 554 877 1092 546 582 700 547 600 4079 546 938 830 546 516 545 647 545 618 676 844 539 983 724 613 66777 20253 505 974 844 6878 1083 512 526 73939 22195 18777 917 521 32153 528 505 778 3982 847 8254 924 4623 1718 711 1024 1018 24059 710 721 713 8897 748 7936 88335 6888 530 622 908 537 506 746 869 771 520 910 515 1190 657 573 11858 513 1017 3197 621 1533 965 1647 830 511 1442 1104 856 567 699 1421 1010 666 775 637 737 2534 846 588 630 606 3530 567 784 1354 570 533 527 682 528 516 575 602 681 13842 850 918 5064 807 1413 1067 5673 644 563 896 953 887 570 2393 555 910 1933 2938 843 894 1087 623 614 2509 504 614 510 653 787 559 760 525 666 548 505 527 915 589 511 605 615 555 1338 613 516 526 599 509 527 801 543 674 559 588 1141 2640
leaf_count=309096 524 664 504 1133 557 13770 542 667 513 528 923 615 5021 133860 566 894 551 1666 545 512 554 877 1092 546 582 700 547 600 4079 546 938 830 546 516 545 647 545 618 676 844 539 983 724 613 66777 20253 505 974 844 6878 1083 512 526 73939 22195 18777 917 521 32153 528 505 778 3982 847 8254 924 4623 1718 711 1024 1018 24059 710 721 713 8897 748 7936 88335 6888 530 622 908 537 506 746 869 771 520 910 515 1190 657 573 11858 513 1017 3197 621 1533 965 1647 830 511 1442 1104 856 567 699 1421 1010 666 775 637 737 2534 846 588 630 606 3530 567 784 1354 570 533 527 682 528 516 575 602 681 13842 850 918 5064 807 1413 1067 5673 644 563 896 953 887 570 2393 555 910 1933 2938 843 894 1087 623 614 2509 504 614 510 653 787 559 760 525 666 548 505 527 915 589 511 605 615 555 1338 613 516 526 599 509 527 801 543 674 559 588 1141 2640
internal_value=45.8396 53.1066 50.135 60.2132 111.364 44.8957 59.8145 60.5311 53.5009 48.968 61.1265 61.3136 60.6877 61.2308 52.1073 54.3422 62.6457 42.3917 41.2906 67.7268 54.1363 52.4017 52.8446 47.178 69.2053 29.7105 47.9268 50.9282 53.2872 54.1332 45.2691 52.3074 149.308 46.8918 46.3596 43.1556 57.2715 54.0752 44.1055 41.4567 44.8 45.4595 37.5067 51.6242 53.7959 55.969 54.8901 61.1031 45.9381 62.011 43.3085 46.3121 67.1005 54.7685 46.6174 55.2067 40.3765 37.6375 40.8617 64.7017 48.6261 50.508 41.4008 36.9691 57.8408 53.8322 50.9557 37.3694 49.1108 51.0658 42.2128 41.8096 48.2348 49.8152 52.4289 50.6132 39.6514 54.8121 54.2401 55.4934 54.2919 54.598 29.5949 34.8558 38.1393 37.0321 53.8684 47.3943 43.452 40.6868 51.149 51.4636 49.76 44.6687 68.2243 51.9921 48.5643 46.9668 50.379 34.3309 42.3186 44.9407 65.6212 45.3121 37.9121 50.2883 53.6057 53.9462 42.0517 63.4088 46.5236 68.603 52.9173 58.6009 54.5548 40.2378 35.7949 59.2292 36.556 54.9302 55.7104 66.6269 38.7305 54.8579 34.9307 37.026 57.66 52.2817 33.062 35.1925 46.9876 46.5574 52.7205 52.4559 37.5213 32.2444 32.8718 42.518 37.2944 48.6845 36.5396 44.6253 39.305 47.6004 42.438 38.2332 41.0241 37.6061 40.9128 42.1874 42.2953 41.4703 33.9051 52.7072 44.2004 42.9992 55.1544 67.6968 38.1728 46.196 39.0574 37.4265 48.8836 41.109 29.5594 31.5939 39.6236 49.6022 35.518 41.4095 39.4229 37.3294 37.0915 54.1255 56.8679 43.53 44.0014 36.9172 62.012 35.7375 49.0205 62.6686 31.6545 46.686 30.32 30.2109 30.0992 63.3051 29.5475 29.7792
internal_weight=0 713652 503231 210421 1627 196835 208794 195855 306396 12939 187495 185728 172080 161606 50730 266213 6442 146105 100262 4620 259771 78693 76119 8360 13648 321540 40183 6104 72743 37509 19798 10474 1070 14066 13221 7866 3163 9076 2941 1767 45843 40638 4700 6935 67654 20868 181078 3475 38456 140738 3376 36982 2501 177603 35965 31733 86196 12969 73227 4116 11719 20385 61912 3863 10880 20853 9644 5700 8772 5355 11026 56212 5776 10134 4810 9413 5205 177098 96271 80827 19929 19399 316840 2119 4457 2256 5618 6832 9242 6363 18885 18107 1822 1800 13106 16346 5760 4214 1733 8927 1812 4042 1430 1224 11315 4511 1503 1112 1317 1947 5089 12524 1546 10216 1374 4200 1784 8842 1474 5005 4399 3604 4087 3586 2486 2182 1551 1358 2900 1633 1908 1761 2035 15032 1389 2051 5981 2454 2946 1588 7115 1246 2574 2015 1500 2347 1585 3303 1265 1971 7227 4871 1589 2603 2276 1710 1940 3037 2011 1165 1015 1745 1333 1072 314721 1844 1199 1631 1017 1227 1802 1117 1583 1709 1229 1465 2356 1507 2141 1072 1495 1625 1097 1314 1267 1582 1319 1116 312877 3781
internal_count=1035192 713652 503231 210421 1627 196835 208794 195855 306396 12939 187495 185728 172080 161606 50730 266213 6442 146105 100262 4620 259771 78693 76119 8360 13648 321540 40183 6104 72743 37509 19798 10474 1070 14066 13221 7866 3163 9076 2941 1767 45843 40638 4700 6935 67654 20868 181078 3475 38456 140738 3376 36982 2501 177603 35965 31733 86196 12969 73227 4116 11719 20385 61912 3863 10880 20853 9644 5700 8772 5355 11026 56212 5776 10134 4810 9413 5205 177098 96271 80827 19929 19399 316840 2119 4457 2256 5618 6832 9242 6363 18885 18107 1822 1800 13106 16346 5760 4214 1733 8927 1812 4042 1430 1224 11315 4511 1503 1112 1317 1947 5089 12524 1546 10216 1374 4200 1784 8842 1474 5005 4399 3604 4087 3586 2486 2182 1551 1358 2900 1633 1908 1761 2035 15032 1389 2051 5981 2454 2946 1588 7115 1246 2574 2015 1500 2347 1585 3303 1265 1971 7227 4871 1589 2603 2276 1710 1940 3037 2011 1165 1015 1745 1333 1072 314721 1844 1199 1631 1017 1227 1802 1117 1583 1709 1229 1465 2356 1507 2141 1072 1495 1625 1097 1314 1267 1582 1319 1116 312877 3781
shrinkage=1


Tree=1
num_leaves=190
num_cat=0
split_feature=9 0 10 8 9 17 9 18 10 9 9 8 1 2 0 17 1 16 9 0 9 7 9 18 2 0 18 18 10 2 0 9 9 0 9 15 10 7 18 12 18 9 18 15 2 9 0 16 13 0 0 17 12 8 18 1 1 18 1 17 0 1 18 16 0 1 17 17 18 7 0 0 18 17 9 1 1 7 10 1 8 3 17 18 6 3 6 18 10 4 1 18 9 11 18 17 17 4 10 11 16 11 9 18 11 14 11 8 2 16 14 12 7 10 8 14 13 15 12 8 0 11 18 1 16 11 16 12 10 17 7 8 15 13 4 1 0 14 1 2 16 13 0 5 0 10 0 0 18 8 0 2 18 10 8 1 1 0 10 5 18 10 17 6 1 8 5 14 3 5 1 6 0 10 18 9 2 10 9 7 17 0 0 0 8 13 4 8 9
split_gain=1.64381e+08 2.16186e+07 1.20899e+07 6.81636e+06 7.43826e+06 5.42742e+06 2.59644e+06 2.22889e+06 1.96597e+06 1.28558e+06 1.1815e+06 1.08814e+06 1.07046e+06 1.02261e+06 922505 1.08308e+06 1.11042e+06 837918 762992 849216 765374 914514 675409 1.03141e+06 706450 654668 639327 602446 600363 536494 532086 770389 550396 525975 1.08073e+06 494402 450193 446865 446401 424212 389717 388907 379563 460771 346362 338373 326058 324361 373711 398042 444338 433751 359954 315866 309067 480090 331867 303701 299620 345114 288024 277516 274176 268556 264981 263680 257611 254451 249937 248098 234560 223432 218991 204913 203607 193083 179897 167889 161144 157533 154258 147097 146597 143787 142211 139626 138793 130955 152149 126185 124021 121421 165274 114792 110055 125258 108246 107395 98612.2 157967 93772.6 191492 151523 157523 110129 93043.6 89804.1 89600.4 84358.3 80124.8 131778 78477.5 77356.8 74845.2 255651 102217 74792.4 71122.5 70031.2 70005.5 69499.9 69274 66516.5 62569.1 61843 61473.7 56986.3 56346.1 54377.3 52863.3 52056.3 51482.8 50324.8 42912.5 41947.3 40350.2 46103.9 39943.5 108404 39621.5 38861.6 37972.3 37552.7 36698.7 34178.9 34161.1 32620.8 32481.1 32285 27518.1 52744.6 27475.6 25466.2 40394.2 24720.4 23800 23193.7 20785.4 18753.1 18602.1 18447.5 15086.5 14671.5 12286.4 11225.1 11052.2 9803.69 9613.78 9008.91 8160.44 8024.63 6165.91 5866.16 9719.16 4821.81 4692.24 3024.22 2132.73 1614.08 1600.95 5972.48 688.512 458.114 476.302 734.5 402.015 272.719 37.039 24.2849
threshold=169.25000000000003 197.25000000000003 251.75000000000003 158.25000000000003 232.25000000000003 205.25000000000003 189.25000000000003 228.25000000000003 923.25000000000011 175.25000000000003 238.25000000000003 167.25000000000003 210.25000000000003 167.25000000000003 152.75000000000003 194.25000000000003 174.25000000000003 176.25000000000003 249.25000000000003 230.75000000000003 303.25000000000006 232.25000000000003 296.25000000000006 318.25000000000006 250.25000000000003 173.25000000000003 180.25000000000003 217.25000000000003 245.25000000000003 241.75000000000003 157.75000000000003 205.25000000000003 270.25000000000006 277.25000000000006 359.25000000000006 209.25000000000003 2321.0000000000005 203.25000000000003 414.75000000000006 210.25000000000003 126.25000000000001 179.25000000000003 130.25000000000003 167.25000000000003 176.25000000000003 210.25000000000003 1927.5000000000002 217.25000000000003 219.25000000000003 208.25000000000003 221.25000000000003 208.25000000000003 219.25000000000003 207.25000000000003 236.25000000000003 220.25000000000003 239.75000000000003 269.25000000000006 240.25000000000003 348.75000000000006 215.25000000000003 168.25000000000003 210.25000000000003 199.25000000000003 170.75000000000003 204.25000000000003 155.75000000000003 237.25000000000003 264.25000000000006 211.25000000000003 278.75000000000006 1607.0000000000002 209.25000000000003 241.75000000000003 143.25000000000003 607.25000000000011 338.25000000000006 169.25000000000003 212.25000000000003 168.25000000000003 263.25000000000006 212.25000000000003 199.25000000000003 247.25000000000003 243.25000000000003 247.25000000000003 2129.0000000000005 248.75000000000003 240.25000000000003 215.25000000000003 311.25000000000006 281.25000000000006 516.25000000000011 265.25000000000006 222.25000000000003 222.25000000000003 212.25000000000003 214.25000000000003 661.50000000000011 313.25000000000006 2545.0000000000005 3185.0000000000005 2421.0000000000005 2419.0000000000005 2305.0000000000005 1591.5000000000002 2529.0000000000005 230.75000000000003 234.25000000000003 1215.5000000000002 1134.5000000000002 371.25000000000006 215.25000000000003 167.25000000000003 125.25000000000001 207.25000000000003 2449.0000000000005 215.25000000000003 3489.0000000000005 212.25000000000003 2517.0000000000005 241.25000000000003 1519.5000000000002 181.75000000000003 221.25000000000003 2065.0000000000005 245.25000000000003 169.25000000000003 2297.0000000000005 338.25000000000006 135.25000000000003 247.25000000000003 222.25000000000003 181.25000000000003 222.25000000000003 217.25000000000003 262.25000000000006 250.25000000000003 179.25000000000003 207.25000000000003 188.25000000000003 169.25000000000003 3045.0000000000005 2385.0000000000005 225.25000000000003 3295.0000000000005 296.25000000000006 216.25000000000003 240.25000000000003 165.75000000000003 136.25000000000003 239.75000000000003 2249.0000000000005 2269.0000000000005 178.25000000000003 2241.0000000000005 205.25000000000003 2233.0000000000005 275.25000000000006 2301.0000000000005 2073.0000000000005 256.25000000000006 212.25000000000003 2321.0000000000005 243.25000000000003 219.25000000000003 171.25000000000003 262.25000000000006 1449.5000000000002 449.25000000000006 166.25000000000003 239.75000000000003 171.25000000000003 171.25000000000003 240.25000000000003 167.25000000000003 213.25000000000003 171.25000000000003 165.25000000000003 167.25000000000003 123.25000000000001 170.75000000000003 191.25000000000003 167.25000000000003 141.25000000000003 201.25000000000003 169.25000000000003 165.75000000000003 124.25000000000001
decision_type=2 2 2 2 2 2 2 2 2 2 2 2 2 2 2 2 2 2 2 2 2 2 2 2 2 2 2 2 2 2 2 2 2 2 2 2 2 2 2 2 2 2 2 2 2 2 2 2 2 2 2 2 2 2 2 2 2 2 2 2 2 2 2 2 2 2 2 2 2 2 2 2 2 2 2 2 2 2 2 2 2 2 2 2 2 2 2 2 2 2 2 2 2 2 2 2 2 2 2 2 2 2 2 2 2 2 2 2 2 2 2 2 2 2 2 2 2 2 2 2 2 2 2 2 2 2 2 2 2 2 2 2 2 2 2 2 2 2 2 2 2 2 2 2 2 2 2 2 2 2 2 2 2 2 2 2 2 2 2 2 2 2 2 2 2 2 2 2 2 2 2 2 2 2 2 2 2 2 2 2 2 2 2 2 2 2 2 2 2
left_child=11 3 5 4 6 12 -2 9 17 13 14 113 35 -5 112 16 41 -4 81 20 21 -20 23 24 -21 78 42 47 54 151 91 57 37 34 -24 39 46 -33 -25 45 74 -16 172 -44 -18 62 71 48 49 51 52 72 -51 76 55 94 67 148 59 126 117 170 69 -27 -45 77 -55 -57 73 -3 -52 105 -7 174 -13 -35 135 141 -17 -12 -58 -19 108 142 -75 158 160 88 -60 -50 -89 -9 -93 -23 95 -29 -53 -62 99 -34 102 106 104 145 -85 109 -102 119 140 110 -10 134 130 175 -115 149 -105 162 146 -84 -108 -110 -61 -59 144 169 -56 154 152 -125 -11 -87 -126 -132 -22 139 164 138 -39 -14 -68 -63 -38 -106 -99 -104 -103 -96 -32 150 -116 171 155 -154 -79 -88 -37 -120 -83 -130 -48 -133 -49 -161 -137 -91 -129 -70 -111 -107 178 -30 -15 -174 -31 179 -119 -152 -42 181 -181 186 183 -182 -185 -150 187 188 -1
right_child=1 2 8 7 -6 27 -8 30 36 10 79 40 53 26 15 25 44 18 19 22 111 93 33 38 -26 63 -28 28 29 68 31 32 98 75 -36 156 83 137 -40 -41 61 -43 43 64 -46 -47 86 60 89 50 70 96 -54 66 58 56 80 123 87 122 97 65 -64 -65 -66 -67 82 -69 167 -71 -72 -73 -74 84 -76 -77 -78 127 -80 -81 -82 85 107 100 -86 131 128 90 -90 165 -92 92 -94 -95 147 -97 -98 124 -100 -101 101 118 103 116 143 125 120 -109 121 168 -112 -113 -114 114 115 -117 -118 176 157 -121 -122 -123 -124 129 132 -127 -128 166 159 -131 133 161 -134 -135 -136 136 -138 -139 -140 -141 -142 -143 -144 -145 -146 -147 -148 -149 185 -151 177 -153 153 -155 -156 -157 -158 -159 -160 163 -162 -163 -164 -165 -166 -167 -168 -169 -170 -171 -172 -173 173 -175 -176 -177 -178 -179 -180 180 182 -183 -184 184 -186 -187 -188 -189 -190
leaf_value=-8.7685665458024964 28.65502077147147 5.9145285640610243 -12.448671317291263 -9.3244413956574697 -5.7115165178162766 0.94054723233541582 70.723314656828762 -10.53521994733055 -0.91808306216378255 16.080897421277978 -8.4349224579234932 -2.0518735091316884 -4.3580811217390965 12.691996751286871 2.1700435633744113 6.2731194145339808 5.6218724038216434 5.4828458956263386 28.41804955452703 -2.6791501788310672 -2.7168242003822298 4.3534222407226757 14.022760780436871 -6.7697894534587642 4.1891786695014881 4.3203001072207252 -8.1251292399672099 -3.2190639894155626 -9.766032480299895 -5.3398884494386989 -10.344774172537743 23.74081065563399 -3.0826626925249174 5.1569908617621865 -0.43784715079415892 -6.5361506823548163 -5.3756119435232881 11.051930745688171 2.2098869465791831 -4.7535660592803239 -9.2393285101169624 -11.624253465923285 -5.881156731888268 1.5994147883103547 9.0696410200165687 -3.3017745934525453 -4.9227892591593196 -12.423613175104343 -10.930488009378751 2.1558462136796206 -5.068019840342453 -3.7471056363046586 -8.050815644261796 -6.9868746377882314 -5.8741089503306068 -0.7235450616988266 -5.5291098068448647 -2.3598338151970464 -4.046628322230772 2.3379219079546232 -7.3481987960964981 -8.3007472141747005 -4.3715629096490902 -0.9408989832836494 6.4090509256517088 -9.5039922572020963 8.1832460766494233 -6.4674332534828434 -4.1164725495654739 -3.7911207144685255 3.2860919351476232 8.1969749910111176 -6.1279863459645396 -3.2384323124901404 10.56241318653152 3.3753238992407719 3.5751700685482977 -2.6070666238182589 16.183554210655146 0.53386447249089319 1.930973196199024 -7.5306371341679466 0.30874792900856241 -2.6567572416606797 3.0156752570784255 -4.2342924086511271 -0.66383520925463879 -6.3680363629612042 -0.14025767758032137 -4.7545757960076136 -0.4846259069918567 3.2143525180992998 -7.6397997013862353 11.674559425804958 -5.3892238157962433 -8.2305389553696919 -8.1019342057446426 1.6629476538417713 -3.697839427830742 7.0393451158718534 2.6230994000093784 1.2476697855076964 4.3189537811267638 4.7821074630034612 3.4480176485072116 4.1072847012773899 -1.7907115199385166 4.577454946453722 1.1243975950233196 -2.3932590461528656 4.9908666363394927 7.1378344670385294 7.3662350719400997 1.7788547011454938 -4.2684289040054182 -13.36833176045646 10.278877033646165 -4.5318156881445981 2.5761663264469643 -6.760865822345119 -8.385963457199189 6.9228771613204332 -3.3135562081938628 -0.032866815687657369 -6.4776203743550687 0.06516676188294844 -7.8418374511677458 2.0034469213659114 -1.8896874374203771 6.2770192020222018 8.4469844553413598 2.7888069029001534 -0.84055072948533849 12.738823395774604 2.6156223117217214 -6.032823914565256 -1.1045167428076532 10.723598813868371 1.5046144746306995 1.1029196882820174 3.5705417790954006 -2.8516107523971335 -0.027156679419670142 1.3216115222821252 -2.4494317014023728 1.1729204173350103 5.4080318046933851 -7.9836916280432693 -5.5974535387630944 -4.6675578920424963 -9.136235716806798 -4.8941026815515674 -5.3552574882312083 -1.8382577290902649 1.0209712818538614 -3.0645924150950168 -2.395156595545028 -1.2808498815962441 -4.1500949870918094 -0.16536305083982525 -8.453996552292173 -0.24719541668897063 -9.0707482418373466 2.5693199324319731 -4.2470846052062852 -1.764332256304604 4.6956300929834915 -6.834278145249634 -4.9140599863681418 6.589983527040622 -7.9239117630736819 -7.6223096177670513 9.4010640749955385 11.730133570058065 -3.3356281654832336 -10.073434727173934 -6.1404241034910072 -10.415255183760587 -10.351647891225872 -6.9576150650746875 -8.9490160585891161 -8.8680317904976231 -9.0538390287672375 -8.7488899759247101 -7.921000689469591 -6.2245009815476102 -8.3638551806229238 -8.9464567607952326 -8.7453916792209334
leaf_weight=89601 508 33654 619 994 648 7583 825 759 3140 966 787 504 513 654 1844 518 6556 515 743 3320 536 552 3692 2795 92194 8483 693 6800 601 525 543 505 525 140641 1579 616 541 505 2056 912 628 573 731 2745 128490 942 560 540 826 22684 3385 3730 764 613 9430 28933 5619 613 3631 1148 605 589 582 2749 22942 959 1290 1750 594 573 913 939 1070 850 599 14348 844 803 1094 896 663 930 691 894 9161 519 2191 3098 5174 545 1019 516 717 2718 1765 1266 1817 1851 626 887 527 508 2156 841 5358 505 850 503 1734 606 1087 521 586 635 554 690 1436 508 504 529 572 591 728 518 576 719 4738 546 571 629 528 650 823 9944 767 1707 710 735 513 637 562 512 584 2571 564 1124 1962 2503 503 754 658 612 1313 1495 804 1481 547 734 567 684 735 759 594 723 1358 515 618 529 610 654 851 572 552 1347 509 594 508 552 603 517 542 13733 734 550 518 503 573 966 205832
leaf_count=89601 508 33654 619 994 648 7583 825 759 3140 966 787 504 513 654 1844 518 6556 515 743 3320 536 552 3692 2795 92194 8483 693 6800 601 525 543 505 525 140641 1579 616 541 505 2056 912 628 573 731 2745 128490 942 560 540 826 22684 3385 3730 764 613 9430 28933 5619 613 3631 1148 605 589 582 2749 22942 959 1290 1750 594 573 913 939 1070 850 599 14348 844 803 1094 896 663 930 691 894 9161 519 2191 3098 5174 545 1019 516 717 2718 1765 1266 1817 1851 626 887 527 508 2156 841 5358 505 850 503 1734 606 1087 521 586 635 554 690 1436 508 504 529 572 591 728 518 576 719 4738 546 571 629 528 650 823 9944 767 1707 710 735 513 637 562 512 584 2571 564 1124 1962 2503 503 754 658 612 1313 1495 804 1481 547 734 567 684 735 759 594 723 1358 515 618 529 610 654 851 572 552 1347 509 594 508 552 603 517 542 13733 734 550 518 503 573 966 205832
internal_value=0 3.95255 2.31688 7.94099 34.944 -0.56065 54.7037 7.67905 4.1047 8.01834 8.53232 -8.59766 3.58098 5.26857 8.65875 8.34679 8.72638 4.54748 4.5864 4.6809 10.1993 13.7704 4.55729 3.61622 3.95043 4.28409 5.75767 -2.01578 -2.71868 0.0768288 0.796626 2.55956 6.64565 5.14664 9.69116 4.79935 1.04146 11.6196 -2.96405 5.09723 -3.27429 -1.10146 6.08986 5.56917 8.90228 5.34857 -0.658314 -0.729686 -0.275354 0.0110978 1.03057 -1.98086 1.82316 -0.171384 -3.21706 -2.51236 -1.67844 -2.74547 -4.41637 -5.75163 -3.76106 -4.56273 5.5827 3.03265 5.89511 -2.63819 2.03651 -1.05122 1.17557 5.75201 -3.29327 1.48033 0.0662523 1.84415 4.79974 4.99206 -2.66399 -0.936954 13.0011 -3.66103 -4.74171 -1.80398 2.97441 2.48829 2.48456 -2.90014 -2.46956 -2.7584 -1.75127 -6.64499 -4.91201 -5.93308 -3.09783 10.4393 -5.01151 -4.00598 -5.17404 -1.62413 1.13363 3.27603 2.77402 1.17833 3.40171 5.29384 2.20981 0.618473 -2.53379 -0.615879 4.45531 -0.350297 0.601745 2.34129 12.558 -8.73184 -6.70097 -8.3795 8.24978 -8.15216 3.12956 -2.7578 -4.44514 2.5992 0.14459 1.41225 -0.715516 3.42577 -6.53234 0.983289 -1.78653 3.4283 12.8238 -0.297205 -3.16256 12.5227 0.421927 -3.73339 -4.4642 8.12353 6.24305 -1.33378 6.78449 -5.76853 -2.60009 2.75862 0.702313 3.24112 4.55269 -6.91133 -7.46875 -7.01067 -8.01101 -7.41179 -2.43455 -3.48327 -0.792102 -1.63233 -4.58988 0.289674 -6.25157 0.336483 -6.92883 1.15374 -10.6709 1.24019 -5.24223 -3.30289 3.43384 -5.39855 -3.65892 5.50988 -9.0271 -8.7234 11.4762 11.0551 -4.35481 -8.75667 -5.33806 -9.72273 -9.78714 -8.75417 -8.39575 -8.75746 -8.7118 -8.55382 -8.35023 -5.91315 -8.75233 -8.75307 -8.75243
internal_weight=0 709173 502923 206250 1981 192727 1333 204269 310196 194672 164014 326019 50108 30658 162331 150307 137463 271021 270402 266462 5837 4013 260625 100365 95514 12844 29664 142619 92218 13953 9597 7605 4296 160260 5271 37826 39175 2258 4851 36663 8016 2417 28971 26418 135046 35751 18013 50401 43832 41946 27746 14200 23448 12282 78265 49299 36965 3309 28966 16044 6569 6913 34809 11232 25687 4831 6513 30683 12168 34227 4298 8260 8653 11045 1103 154989 5769 3872 1612 1683 6282 3940 5900 21162 10011 3425 9753 12922 8805 1886 4117 1992 1233 3270 12334 8066 5547 4419 2038 1412 20037 5657 14380 5557 8823 7321 1949 1723 4177 5443 4227 1824 12024 318003 3843 3208 2277 2150 3708 1220 1422 2325 1876 1760 3814 1878 14168 2771 8458 1147 11438 1928 1399 10472 1303 4925 3775 1753 1018 1150 1852 1101 1125 7929 2415 3280 2470 4268 1549 2518 1764 1785 6480 2808 1607 3672 1163 1238 1497 1978 1295 1409 1134 1407 3065 1060 1164 1123 1216 1159 2082 1173 2553 1899 1034 314160 1016 1210 1231 313566 2861 310705 2344 1610 1068 1006 296972 296399 295433
internal_count=1035192 709173 502923 206250 1981 192727 1333 204269 310196 194672 164014 326019 50108 30658 162331 150307 137463 271021 270402 266462 5837 4013 260625 100365 95514 12844 29664 142619 92218 13953 9597 7605 4296 160260 5271 37826 39175 2258 4851 36663 8016 2417 28971 26418 135046 35751 18013 50401 43832 41946 27746 14200 23448 12282 78265 49299 36965 3309 28966 16044 6569 6913 34809 11232 25687 4831 6513 30683 12168 34227 4298 8260 8653 11045 1103 154989 5769 3872 1612 1683 6282 3940 5900 21162 10011 3425 9753 12922 8805 1886 4117 1992 1233 3270 12334 8066 5547 4419 2038 1412 20037 5657 14380 5557 8823 7321 1949 1723 4177 5443 4227 1824 12024 318003 3843 3208 2277 2150 3708 1220 1422 2325 1876 1760 3814 1878 14168 2771 8458 1147 11438 1928 1399 10472 1303 4925 3775 1753 1018 1150 1852 1101 1125 7929 2415 3280 2470 4268 1549 2518 1764 1785 6480 2808 1607 3672 1163 1238 1497 1978 1295 1409 1134 1407 3065 1060 1164 1123 1216 1159 2082 1173 2553 1899 1034 314160 1016 1210 1231 313566 2861 310705 2344 1610 1068 1006 296972 296399 295433
shrinkage=0.462607


Tree=2
num_leaves=107
num_cat=0
split_feature=9 0 9 8 18 9 8 15 15 13 8 8 1 0 16 0 8 3 0 18 17 0 15 14 9 0 2 18 0 18 8 0 17 18 18 4 3 12 15 8 2 9 2 17 8 10 0 15 14 14 14 0 8 18 2 4 9 8 1 18 1 17 3 8 15 7 2 0 14 10 15 15 18 5 11 17 0 1 1 4 18 8 16 3 5 7 16 10 10 11 9 14 13 15 5 2 4 3 10 6 6 2 3 17 5 2
split_gain=4.73827e+07 6.26381e+06 3.79065e+06 2.26576e+06 1.63952e+06 1.13709e+06 2.3519e+06 933394 865224 774132 565198 400530 487278 351408 330705 507926 315180 309651 326601 692244 298553 289452 392171 341258 322887 287256 280933 262883 625500 278916 253617 251156 227644 225907 225219 212926 245395 210165 339789 263246 199116 190123 188249 362403 278643 330265 239740 270197 183668 183372 176277 169134 187696 168103 166226 151378 145803 736940 445348 357851 206782 196893 134694 133679 131744 120651 113729 103516 99692.6 159131 97789.9 132120 118551 93862 92636.1 82021.2 76801 74493.7 79085.7 71925.1 71414.1 60017.9 58374.2 56895.1 53029 50086.2 45908.8 42583.2 37418.8 33229.3 32305.5 32276.7 40069 33123.4 19036.1 15339.4 14243.3 7238.74 3494.7 523.49 452.982 280.665 24.3367 35.8876 57.0129 11.1385
threshold=169.25000000000003 197.25000000000003 259.25000000000006 162.25000000000003 207.25000000000003 212.25000000000003 137.25000000000003 177.25000000000003 229.25000000000003 941.25000000000011 170.75000000000003 247.25000000000003 245.25000000000003 173.25000000000003 195.25000000000003 184.25000000000003 198.25000000000003 178.25000000000003 137.25000000000003 181.25000000000003 209.25000000000003 214.25000000000003 211.25000000000003 210.25000000000003 240.25000000000003 217.25000000000003 251.75000000000003 188.25000000000003 191.25000000000003 175.25000000000003 167.25000000000003 274.25000000000006 198.25000000000003 279.75000000000006 257.75000000000006 212.25000000000003 203.25000000000003 252.25000000000003 227.25000000000003 280.75000000000006 304.25000000000006 224.25000000000003 208.25000000000003 217.25000000000003 220.25000000000003 221.25000000000003 220.25000000000003 249.25000000000003 170.25000000000003 2345.0000000000005 202.25000000000003 252.25000000000003 191.25000000000003 137.25000000000003 193.25000000000003 213.25000000000003 296.25000000000006 272.25000000000006 315.25000000000006 326.25000000000006 461.25000000000006 249.25000000000003 247.25000000000003 270.25000000000006 197.25000000000003 212.25000000000003 209.25000000000003 331.25000000000006 1872.5000000000002 2157.0000000000005 1545.5000000000002 1262.0000000000002 1002.2500000000001 219.25000000000003 167.25000000000003 245.25000000000003 259.25000000000006 273.25000000000006 340.75000000000006 238.75000000000003 209.25000000000003 2325.0000000000005 2545.0000000000005 225.25000000000003 170.25000000000003 264.25000000000006 213.25000000000003 260.25000000000006 258.25000000000006 167.25000000000003 224.25000000000003 2301.0000000000005 2225.0000000000005 2309.0000000000005 217.25000000000003 261.25000000000006 245.25000000000003 154.25000000000003 163.25000000000003 171.25000000000003 161.25000000000003 165.25000000000003 117.25000000000001 124.25000000000001 132.25000000000003 120.25000000000001
decision_type=2 2 2 2 2 2 2 2 2 2 2 2 2 2 2 2 2 2 2 2 2 2 2 2 2 2 2 2 2 2 2 2 2 2 2 2 2 2 2 2 2 2 2 2 2 2 2 2 2 2 2 2 2 2 2 2 2 2 2 2 2 2 2 2 2 2 2 2 2 2 2 2 2 2 2 2 2 2 2 2 2 2 2 2 2 2 2 2 2 2 2 2 2 2 2 2 2 2 2 2 2 2 2 2 2 2
left_child=30 3 4 5 20 6 -2 -4 10 25 48 26 96 -10 16 86 17 18 -12 -20 21 22 23 35 32 33 42 29 -29 -19 89 34 51 -9 62 36 -3 38 -27 85 95 -15 55 44 45 -44 83 -48 -5 68 54 52 -23 -32 -17 65 58 -58 59 -39 -60 -59 -14 -43 -56 80 -22 -33 70 -70 71 72 -11 -46 -55 -64 88 -51 -79 -53 -6 -80 -83 -45 -76 -40 97 -78 -36 98 -42 92 -71 -93 -34 -28 -13 -16 99 100 101 102 -1 105 -105 -104
right_child=1 2 7 8 11 -7 -8 9 13 49 14 12 31 41 15 50 -18 27 19 -21 66 24 -24 -25 -26 37 40 28 -30 -31 53 67 94 -35 76 -37 -38 56 39 -41 90 63 43 46 73 -47 47 -49 -50 77 -52 79 -54 74 64 -57 57 61 60 -61 -62 -63 75 -65 -66 -67 -68 -69 69 91 -72 -73 -74 -75 84 -77 87 78 81 -81 -82 82 -84 -85 -86 -87 -88 -89 -90 -91 -92 93 -94 -95 -96 -97 -98 -99 -100 -101 -102 -103 103 104 -106 -107
leaf_value=-4.6694299817268989 45.538939540225527 2.2731260483642459 -10.640805741325631 -3.3944970627295841 -0.35117031957967931 5.8321478364126254 6.3388102705701268 10.094352263323735 -3.7693659742312522 -1.3092081226679628 7.2239697574135535 -5.3486023510431675 -1.3441565068040586 -1.5054397509646491 6.7728065120569934 -3.872595027128078 -0.59789057677879642 3.174352078206657 3.6739982307960131 -5.2911999038755733 -4.8884961826520623 -4.790091525521019 -5.3068427725583547 -4.5987527435388715 5.685266715817991 4.7002152626561884 -4.5604703676236324 1.0724532688995341 5.8210301415317076 5.6672204860011055 1.640462383395453 -4.342580773295861 -3.2051257226318364 2.6403016288371481 -0.84998294071950087 -2.7988997385375169 4.5800136714076434 2.6344261257053359 -4.2277902902710975 1.1546870720444284 -2.1453070251572286 6.8181374378406767 1.1985301298116213 -2.9427772926380142 -7.0070581992378509 -7.3090541723423605 -0.84076572709582287 -4.346299311484187 2.1103871859168262 -2.0734182912572585 -5.1341766469096184 6.4802152324378088 1.1717067413069531 -5.2257058295266186 3.5609759853813401 -7.4978954589559939 14.235852219183007 -1.5361708889377332 -4.1214769860493679 -2.5135564223027549 3.0599963464666184 2.9031018112999507 0.083541665140857216 0.92625013647671472 -0.75783349824439916 -6.0225120673771588 0.23572005480145575 0.46908905273940854 -5.2627453950458216 0.45743129607903654 3.4129562343239574 -4.5421962397405338 3.5555085803184254 -1.5272243964588801 -3.3752487960074231 3.4929810870776268 -0.28683187075164845 5.3992269181245334 -0.87707799960250621 1.356211971325896 -2.7658445707407857 2.4740301202877397 0.33170122349322489 -5.8216960953720731 0.13305622977532064 -8.9776568756441115 3.620226554107195 3.1229027813508758 -3.8809494347092883 -3.6021882941628807 1.4977838193112376 -1.7625646347195263 -2.0351791099683423 1.1610504121618304 -5.4907464384156341 -6.1852504841332339 -3.5507048586782179 5.6153923017471081 -5.054431844568863 -4.8755058544572636 -4.5505046087131777 -4.7955476276580447 -4.7016531554492698 -4.6867969271744574 -4.7074754025978196 -4.726010380994782
leaf_weight=11624.378836631775 717.00057792663574 22615.507848739624 1183.0301494598389 2412.0647878646851 4414.0786752700806 836.01967525482178 603.00648307800293 1976.0525798797607 3713.1023416519165 2311.0469350814819 4971.1615762710571 1985.0510892868042 1630.0310792922974 1973.0452299118042 2466.0755767822266 1291.0231428146362 2435.0581331253052 10740.309102058411 39508.096012115479 1933.0422143936157 1777.0411758422852 1775.040506362915 1295.0287504196167 1272.0235948562622 1877.0453014373779 2022.0405235290527 1914.0467548370361 10718.273199081421 13306.379019737244 90998.737152099609 1948.0531749725342 2277.0481824874878 2069.0440826416016 1555.033805847168 2979.060173034668 1272.0190343856812 17509.332676887512 73872.543951034546 968.01873683929443 1880.0383577346802 1033.0194406509399 1869.0443172454834 24298.370619773865 12608.310924530029 1260.0272054672241 1017.0243530273438 51908.125729560852 5174.1352262496948 2805.0713882446289 1152.0196838378906 1192.0211744308472 1112.021183013916 3109.0718488693237 2868.0851583480835 3892.0871438980103 1352.0337886810303 1224.0181045532227 2167.0402088165283 3368.0363264083862 3007.0573921203613 1151.0208854675293 159053.47688961029 1712.0362176895142 1474.0308446884155 2471.047324180603 1657.041130065918 1937.0419969558716 1650.0314598083496 1869.0508375167847 1980.0376081466675 2179.0471611022949 1199.0278921127319 1999.0346641540527 1426.029860496521 1957.0525341033936 12798.257163047791 1704.0352878570557 1194.0256261825562 1992.0393419265747 1240.0242986679077 6453.1525554656982 9307.1861810684204 3847.0763635635376 1663.0450210571289 1743.0429267883301 935.01412200927734 2098.0572576522827 1451.0333652496338 1232.0229539871216 5885.1831741333008 1050.019214630127 1139.0222215652466 4554.0944681167603 3047.0540590286255 1254.0262756347656 3584.1043558120728 1804.040732383728 2215.055775642395 6331.2045202255249 4092.1339273452759 4456.1457834243774 8137.2652082443237 29440.962104797363 78074.543618202209 122174.98480701447 45561.481881141663
leaf_count=1453 703 8853 357 697 2321 297 421 590 976 1016 666 606 769 790 394 668 902 2487 10079 848 713 669 532 663 659 874 640 3368 3247 17608 506 1010 893 603 1355 761 8556 32361 485 851 508 679 14351 4236 497 373 21730 1499 901 592 625 524 1198 593 1519 442 748 1089 2409 1467 591 65663 739 627 1204 565 824 838 546 965 891 436 1047 607 543 5903 766 515 935 589 2379 4302 1810 431 595 543 607 597 651 957 518 530 2041 1542 526 819 705 710 836 515 571 1018 3680 9759 15274 5695
internal_value=0 2.12317 1.24417 4.26829 -0.244172 19.1852 27.6383 2.32501 4.11097 2.37774 4.3155 -1.05283 0.424157 -0.316372 4.44578 2.40674 4.62824 4.70215 3.68085 3.25577 1.80101 2.06557 2.62295 2.86367 0.0951261 2.6692 -1.43455 5.07904 3.70257 5.40407 -4.62455 1.10336 -0.898761 6.81233 1.67548 3.09301 3.27982 2.61059 -0.140325 -2.72779 -4.16078 2.0955 -1.252 -1.02908 0.381278 0.856643 -1.58255 -1.15855 -0.434774 0.424062 0.0977822 0.556862 -0.995197 -2.13327 0.912791 -2.84806 2.67608 2.9293 2.17071 2.43306 -2.29223 2.84343 2.64282 4.22067 1.88387 -2.34589 -2.21626 -2.32102 -0.522663 -1.32423 0.789895 -0.247778 0.94718 -4.09842 -3.25255 3.09072 -0.444118 1.52151 1.775 3.77942 -1.78509 1.48916 1.84751 -3.2784 -1.72271 -6.56283 5.41953 1.28151 -1.73701 -4.69173 -0.308956 -0.637399 -1.27986 0.365456 -4.06816 -5.61997 -4.49303 6.22562 -4.71242 -4.70528 -4.70295 -4.70524 -4.70268 -4.70407 -4.69942 -4.71647
internal_weight=0 710920 504282 206639 212149 2156.03 1320.01 292132 204483 290949 195454 152035 31222.6 9029.22 190236 15625.4 174611 172176 46412.3 41441.1 60114.3 56400.2 43963.9 42668.9 12436.3 253179 120813 125764 24024.7 101739 324295 27433.6 10559.2 3531.09 23506.5 41396.9 40124.8 249648 5805.11 3783.07 7581.19 5316.12 113231 99355.1 28001.5 25315.4 71353.6 57082.3 5217.14 37769.8 8846.18 7236.16 4884.11 8516.23 7654.16 13876.3 243843 162445 81398.7 76879.6 4519.06 161221 16140.3 3343.08 6363.13 12524.3 3714.08 3927.08 20277.4 12589.3 7688.16 5509.11 4310.08 2686.06 6568.18 14510.3 7366.15 17492.3 16340.3 2352.05 10867.2 15146.3 13154.3 14271.4 3700.1 1903.03 6779.19 3155.07 4211.08 315778 2083.04 10720.2 6534.13 4186.08 3323.07 5498.15 3789.09 4681.13 309893 303562 299470 295014 286876 275252 200250 75002.4
internal_count=310632 268637 217614 51023 91815 1421 1124 125799 49602 125442 46530 65855 13939 3072 44932 5727 39205 38303 11593 10927 25960 24423 19365 18833 5058 108274 51916 26710 6615 20095 41995 12628 4399 1193 10780 18170 17409 107081 2753 1879 2485 2096 49431 43724 15828 14724 27896 23229 1598 17168 4016 2980 1867 2237 3391 5707 104328 67500 36828 33828 3000 66752 7411 1306 2723 5265 1537 1848 9014 5624 3390 2499 2063 1104 1731 6642 3369 8154 7562 1113 4700 7047 6112 4667 1138 1028 1711 1363 2006 39758 1026 5078 3006 2072 1419 1459 1311 1104 38801 37965 37450 36879 35861 34408 25033 9375
shrinkage=0.462607


Tree=3
num_leaves=92
num_cat=0
split_feature=10 18 7 7 10 7 3 0 9 3 10 1 3 5 9 9 18 9 8 13 1 0 2 9 3 10 17 17 0 18 0 11 18 8 15 9 17 18 3 18 17 18 2 15 0 7 3 14 1 16 9 8 11 5 18 18 0 17 9 4 9 5 6 9 18 18 6 9 12 8 7 1 6 9 4 6 2 11 0 16 0 8 11 7 2 18 0 9 14 13 0
split_gain=1.3837e+07 2.11464e+06 1.47349e+06 574296 735818 678114 365877 567868 608968 343893 285918 275781 245972 234033 277275 726796 212885 292666 220711 203832 203056 188252 350286 177371 281229 177510 166584 373290 183102 163537 158875 213221 158456 178578 154921 151106 192175 131613 116065 113901 177252 111604 97056.3 93880 138194 99998 206636 180008 91459.3 76111.8 74617.1 73511 77380.1 71124.8 69045.1 74609.5 66404.1 63062.9 60336.1 69548.1 94942.1 83513.2 57874.5 57668.6 48671.2 46655.9 49753.3 46400.7 44305.2 32813.5 30911.8 30815.5 36394.3 28196.2 27308.2 24492.2 24424.6 22642.5 18175.8 14516.3 14136.9 12582.4 1604.75 775.36 152.068 106.884 42.2314 310.11 45.0223 35.8062 18.4525
threshold=167.25000000000003 200.25000000000003 254.75000000000003 137.25000000000003 188.25000000000003 167.25000000000003 142.25000000000003 167.25000000000003 206.25000000000003 205.25000000000003 205.25000000000003 2059.0000000000005 256.25000000000006 259.75000000000006 268.25000000000006 330.25000000000006 267.25000000000006 344.25000000000006 250.25000000000003 254.75000000000003 261.25000000000006 141.25000000000003 169.25000000000003 309.25000000000006 302.25000000000006 380.75000000000006 326.25000000000006 418.75000000000006 325.25000000000006 229.25000000000003 2325.0000000000005 582.75000000000011 151.25000000000003 201.25000000000003 339.25000000000006 199.25000000000003 211.25000000000003 330.25000000000006 228.25000000000003 156.25000000000003 169.25000000000003 283.25000000000006 167.25000000000003 363.25000000000006 226.25000000000003 284.75000000000006 249.25000000000003 261.25000000000006 239.75000000000003 229.25000000000003 181.75000000000003 173.25000000000003 140.25000000000003 258.75000000000006 262.25000000000006 441.25000000000006 206.25000000000003 256.25000000000006 2329.0000000000005 2527.0000000000005 3185.0000000000005 2453.0000000000005 300.25000000000006 254.75000000000003 187.25000000000003 2325.0000000000005 2295.0000000000005 216.25000000000003 204.25000000000003 2303.0000000000005 2325.0000000000005 2241.0000000000005 2265.0000000000005 165.25000000000003 171.25000000000003 401.25000000000006 2421.0000000000005 2189.0000000000005 217.25000000000003 2309.0000000000005 2301.0000000000005 280.75000000000006 163.25000000000003 163.25000000000003 165.25000000000003 182.25000000000003 154.25000000000003 153.75000000000003 133.25000000000003 143.25000000000003 184.75000000000003
decision_type=2 2 2 2 2 2 2 2 2 2 2 2 2 2 2 2 2 2 2 2 2 2 2 2 2 2 2 2 2 2 2 2 2 2 2 2 2 2 2 2 2 2 2 2 2 2 2 2 2 2 2 2 2 2 2 2 2 2 2 2 2 2 2 2 2 2 2 2 2 2 2 2 2 2 2 2 2 2 2 2 2 2 2 2 2 2 2 2 2 2 2
left_child=51 3 6 4 -2 -5 -3 8 -8 10 21 12 43 14 34 -16 17 18 -14 -18 57 74 42 26 25 -25 28 -28 -21 -19 31 -13 -11 38 35 41 -37 -26 -34 50 -41 -9 -23 44 81 46 -46 -48 56 -15 -24 73 -53 -22 -32 69 -35 -20 76 61 -61 -60 64 -51 -50 66 71 -36 -12 -56 -67 77 -73 82 -7 -45 79 -33 -58 -57 -68 -4 83 84 85 86 87 88 -1 -87 -86
right_child=1 2 11 5 -6 9 7 13 -10 32 68 30 16 49 15 -17 19 29 20 23 53 22 39 24 37 -27 27 -29 -30 -31 54 65 33 48 67 36 -38 -39 -40 40 -42 -43 -44 75 45 -47 47 -49 62 63 -52 52 -54 -55 55 58 78 -59 59 60 -62 -63 -64 -65 -66 70 80 -69 -70 -71 -72 72 -74 -75 -76 -77 -78 -79 -80 -81 -82 -83 -84 -85 90 89 -88 -89 -90 -91 -92
leaf_value=-2.524207454813018 15.467044181563033 -7.7647778434448131 3.3130210185344957 -4.6337495183534081 1.5922305467267397 3.8329806735161642 -2.0941586353452437 -3.3612285433165399 8.2430398662785951 -4.8640191448999763 -4.8680534757522427 -7.8097918374426474 -2.8625510411236261 -0.72021776040391006 10.799322783776155 -3.0047181089170789 -4.4720047925062527 2.348496437755708 2.6996895116013477 1.1379434782374578 0.74958904030335172 -5.1355603394150444 4.9435579183353289 7.141090747237933 2.3849104016298357 1.5878694452423225 -5.2672696122875378 2.4891702024601141 -2.0258488584216443 -5.3321620734485666 -2.8413844293524408 -1.2443923161846642 -5.0842739702102939 0.33952477273152376 4.3272170395170404 0.31737255509191198 -0.79987212058270285 1.2741823827862395 -0.013814751613815849 -1.3138764974557446 2.4812429126104316 1.4300700391400678 -0.17850077536764403 -4.5954075338978289 -5.8294140922899205 2.484401372502604 0.97135585097377419 -5.3983447831969276 -2.8819730250097235 -3.1926910228399472 2.6558012453091582 1.1414402931056846 -2.7679301899159721 3.8430669380943971 1.2790215558087383 -3.432026382518838 5.3676448646570964 0.21260021392024278 0.87687116494357664 -4.2993569554677293 1.0490318640572256 4.3638605831026247 2.4301666423265105 -6.9163976801763614 0.85252126227456182 -4.7231027293537329 0.54307585118133206 0.82821855991075843 -0.79032314646111446 4.3151004541748446 -1.1570012020186224 -3.7706644027466241 -0.39484465018960974 -3.6962610173640775 5.554023485302773 -1.6906044064327357 0.42589141922069224 1.3096071372355618 3.2430253966353075 -0.98652054894407148 3.157702739744638 1.5902112159745729 -2.7579399722828652 -2.326696792496767 -2.6108738190911369 -2.4538419280375092 -2.5517979339631669 -2.4156382644456529 -2.5387539672909449 -2.5106340671431324 -2.5581264631067526
leaf_weight=166949.43974304199 1603.0332822799683 1445.0382404327393 1956.0554323196411 3050.0832443237305 1670.0441455841064 3773.1184663772583 1946.0552434921265 6376.1380815505981 3266.0871353149414 1232.0289936065674 1057.0181131362915 1048.0149259567261 1427.0344123840332 1418.0318918228149 1609.0313596725464 1656.0273141860962 1302.0255174636841 963.01723766326904 3483.0771675109863 66292.433878898621 1698.034086227417 1390.032000541687 6574.208683013916 3170.0700693130493 29048.682934761047 2015.0340776443481 2908.0605249404907 2443.0377712249756 4160.0697174072266 1544.0224018096924 1121.0180501937866 1469.0369672775269 1555.03014087677 1323.0283441543579 1699.0300321578979 46722.837169647217 111750.42189884186 106656.30183315277 2550.0568227767944 2673.0623588562012 177829.96688461304 1243.0230255126953 2156.0522909164429 1127.0201902389526 1821.0402002334595 1623.036506652832 5048.1034603118896 1169.0194320678711 1453.0290937423706 2189.0516586303711 5696.1668491363525 2382.0655546188354 1987.0535640716553 25178.583611488342 1368.0255174636841 1070.0219326019287 1553.0362091064453 5839.119327545166 6975.1303510665894 1136.0236034393311 1894.0339775085449 1862.0443172454834 1680.0321264266968 1501.0236034393311 1536.0325241088867 959.01690292358398 905.01480865478516 1552.0341234207153 1238.0257434844971 1720.0330305099487 1137.017128944397 1385.0327501296997 1349.0285701751709 4507.1332578659058 4147.1352548599243 1385.0302495956421 1131.021635055542 1502.0288591384888 1942.0457620620728 1010.0153322219849 866.01324653625488 1694.0396223068237 6551.212682723999 4189.136456489563 5392.1784534454346 6168.2006464004517 19568.637968063354 5448.1779012680054 85890.804134368896 6160.1991558074951 4040.1306486129761
leaf_count=20868 672 423 451 838 480 504 483 2715 914 434 560 649 531 529 762 907 609 508 1439 27672 760 515 974 1273 10687 1098 1263 1449 2284 914 638 482 750 574 880 24238 46683 44851 1003 1021 44601 627 777 588 764 643 2234 665 690 817 1230 611 573 9589 675 468 601 2703 3468 506 942 672 777 871 640 483 513 663 552 845 668 496 607 888 542 594 557 753 717 597 516 651 825 584 674 771 2446 681 10736 770 505
internal_value=0 1.14108 0.598139 2.30533 8.38859 2.21659 -0.433572 -0.375643 4.38357 2.31099 2.46547 1.22415 1.36977 -0.515232 -0.423904 3.79841 1.4783 2.45743 2.7799 1.29804 3.00237 2.52317 2.43395 1.33272 1.63971 4.98327 0.762119 -1.72615 0.951119 -2.38192 -0.109688 -1.54654 0.158779 0.614174 -0.505321 -0.567228 -0.470474 1.51195 -1.93482 2.51776 2.42504 -2.57952 -2.12195 -0.400683 0.0888457 -0.827346 -1.49613 -0.226603 1.71715 -3.60106 3.88165 -2.52118 -0.636606 3.64764 0.681498 0.898943 3.13102 1.14193 0.47464 0.956003 -0.956456 1.61175 0.25802 -4.70794 -0.963006 -0.860525 -0.319692 2.65711 -2.66887 2.97042 -2.78918 -0.984604 -2.10526 -2.54733 4.73436 -2.99432 -1.30426 0.04679 4.18757 -2.24493 1.82199 2.51369 -2.53064 -2.52574 -2.52852 -2.52657 -2.52853 -2.52676 -2.52915 -2.48229 -2.58838
internal_weight=0 715916 488233 227682 3273.08 224409 184374 182929 5212.14 221359 206535 303860 273952 177717 172609 3265.06 258129 40132.9 37625.8 217996 36198.8 204240 196319 216694 140890 5185.1 75803.6 5351.1 70452.5 2507.04 29907.6 10620.2 14824.3 13592.3 169343 166092 158473 135705 4105.09 192773 180503 7619.16 3546.08 15823.3 13311.3 9661.2 8038.16 6217.12 9487.2 5108.11 12270.4 319234 4369.12 26876.6 19287.4 18166.3 4818.11 9322.2 15078.3 11867.2 3030.06 8837.17 4669.09 3690.08 2989.06 9572.19 7476.16 3251.06 2295.04 3088.06 2096.03 5705.13 2734.06 314865 7920.25 2512.05 3211.06 2971.07 3495.08 2080.04 1771.03 3650.1 310358 303807 299618 290185 277857 258288 252840 12328.4 9432.31
internal_count=310651 269719 210267 59452 1152 58300 81512 81089 1397 57462 51276 128755 114220 79692 77475 1669 107630 16444 15022 91186 14491 50164 49118 90577 57909 2371 32668 2712 29956 1422 14535 5167 6186 5752 75806 74263 70921 55538 1753 47826 45622 3342 1292 6590 5408 4306 3663 2899 3999 2217 2204 40932 1184 10349 9368 8730 1892 4142 7210 5588 1448 4140 2107 1688 1330 4518 3367 1543 1112 1520 1151 2338 1103 39748 1046 1182 1622 1235 1318 1065 1029 1102 38860 38035 37451 36272 34731 32285 31604 1541 1179
shrinkage=0.462607


Tree=4
num_leaves=96
num_cat=0
split_feature=9 7 8 9 9 9 17 18 18 11 0 2 16 1 9 1 8 0 0 0 9 3 17 3 18 3 0 17 18 3 6 16 0 14 1 16 8 11 0 5 18 6 16 18 18 7 18 0 2 16 17 3 8 9 18 2 1 7 7 0 15 0 10 8 2 2 2 17 17 15 18 3 1 0 3 3 17 0 0 15 8 13 14 18 8 12 0 7 10 18 8 9 10 0 15
split_gain=4.12443e+06 503337 591258 1.03234e+06 1.53794e+06 403246 330759 309719 229317 262663 181951 175200 172768 158258 326498 208705 192895 152012 378532 145313 132590 130406 146749 469731 234012 207062 182067 363691 305055 212147 148622 161137 159728 137334 169549 131684 126832 128940 136901 360594 331950 246855 171670 126395 119650 119340 165192 115027 90834.5 90337.7 90278.9 111199 86025.1 82892.7 100770 234606 137779 79212.3 69106.3 192063 68093.4 64596.2 62039.4 91143.8 67785.1 82889.4 61724 58944.6 52461.7 44190.4 41122.1 39724.9 56642.6 44905.7 35781.7 34697.5 31025.9 44093.5 98058 30657.1 29444.7 22558.6 17963 4504.44 4278.11 2161.26 262.434 177.891 70.0246 95.6076 179.064 57.474 43.4608 20.7417 13.4548
threshold=170.75000000000003 197.25000000000003 164.25000000000003 238.25000000000003 188.25000000000003 241.75000000000003 234.25000000000003 167.25000000000003 213.25000000000003 240.25000000000003 203.25000000000003 161.25000000000003 374.75000000000006 344.75000000000006 353.25000000000006 461.25000000000006 236.25000000000003 238.25000000000003 281.75000000000006 834.50000000000011 296.25000000000006 175.25000000000003 188.25000000000003 190.25000000000003 200.25000000000003 186.25000000000003 186.25000000000003 180.25000000000003 184.25000000000003 182.25000000000003 189.25000000000003 196.25000000000003 193.25000000000003 184.25000000000003 183.25000000000003 149.25000000000003 238.25000000000003 238.25000000000003 223.25000000000003 219.25000000000003 221.25000000000003 224.25000000000003 229.25000000000003 190.25000000000003 128.75000000000003 271.25000000000006 198.25000000000003 177.25000000000003 185.75000000000003 184.25000000000003 243.25000000000003 240.25000000000003 230.75000000000003 190.25000000000003 175.25000000000003 134.25000000000003 170.25000000000003 323.25000000000006 178.25000000000003 341.25000000000006 189.25000000000003 216.25000000000003 172.25000000000003 167.25000000000003 169.25000000000003 176.25000000000003 186.25000000000003 196.25000000000003 218.25000000000003 262.25000000000006 1182.5000000000002 207.25000000000003 232.25000000000003 216.25000000000003 170.75000000000003 202.25000000000003 245.25000000000003 248.25000000000003 240.25000000000003 203.25000000000003 214.25000000000003 230.75000000000003 192.25000000000003 250.25000000000003 164.25000000000003 165.25000000000003 165.25000000000003 153.75000000000003 161.25000000000003 152.25000000000003 151.25000000000003 124.25000000000001 157.25000000000003 184.75000000000003 152.25000000000003
decision_type=2 2 2 2 2 2 2 2 2 2 2 2 2 2 2 2 2 2 2 2 2 2 2 2 2 2 2 2 2 2 2 2 2 2 2 2 2 2 2 2 2 2 2 2 2 2 2 2 2 2 2 2 2 2 2 2 2 2 2 2 2 2 2 2 2 2 2 2 2 2 2 2 2 2 2 2 2 2 2 2 2 2 2 2 2 2 2 2 2 2 2 2 2 2 2
left_child=62 2 3 4 -2 6 17 -7 45 50 21 -11 71 16 15 -15 -13 36 52 -16 -18 44 26 24 25 -24 28 35 33 -30 -25 32 -32 49 -35 -28 37 38 40 -40 41 -3 -41 -27 -4 46 -9 53 -29 -23 51 -10 80 54 56 -56 -46 -47 -12 75 -50 -42 63 84 -65 74 -31 -33 79 -59 -14 -8 73 -73 -66 82 77 78 -74 -20 -19 -54 -60 -75 85 86 88 93 89 90 91 -1 94 -88 -91
right_child=1 5 10 -5 -6 7 12 8 9 11 58 13 70 14 19 -17 20 18 68 -21 -22 22 23 30 -26 43 27 48 29 66 31 67 -34 34 -36 -37 -38 -39 39 42 61 -43 -44 -45 47 57 -48 -49 60 -51 -52 -53 81 -55 55 -57 -58 69 59 -61 -62 -63 -64 64 65 -67 -68 -69 -70 -71 -72 72 76 83 -76 -77 -78 -79 -80 -81 -82 -83 -84 -85 -86 -87 87 -89 -90 92 -92 -93 -94 -95 -96
leaf_value=-1.3712551186041591 -3.7271462968612652 0.49336953928702876 3.8254165963485498 -6.5578417901131392 26.768712983198149 -5.5719757462947399 -0.027553883035304885 1.61085802992551 -4.2039699795118128 -4.8636424804973757 -4.6023774150236774 6.4215186811811487 3.960663708779375 -2.3025698609338074 0.98208998482567045 1.6470552838977788 0.65471863490580762 -3.3250143910251513 1.8567838342842378 -0.15694503507834559 1.441528399191577 2.0653103131996584 -7.8285851405805484 -2.0516912840540691 2.1939066180278424 -0.67351254205199151 1.0697393903002905 1.0664410976969942 -4.9773733632519166 -0.65534193172495692 1.0739803066841163 2.0940317871123768 3.9082034523295075 -3.1856680951316956 1.3808556085741797 -4.5621043128522514 -3.6522172800371768 -4.3316919405809813 -3.7626373655452214 2.85637005803801 -0.82877923314370217 -4.0950371951631794 -0.064728905796167732 -5.1670367904295746 -2.5179825711599202 -1.822387028676276 7.7581683220212021 -2.9165174676582799 4.0250480056539875 -0.23836938005564559 -4.968400912280476 0.91370381416743818 -2.5028776460518793 2.6254683820448066 1.4794504751883266 -3.880574177194291 1.2424966295082513 4.4499758126125961 -2.1447860324142369 4.901847927917995 1.7333217112803345 -3.3514191436448022 -3.0902925511016415 -1.6479193059698418 0.57414089132119128 -1.3063786544217306 1.5342328737975726 -0.80059462708004381 0.12972970437524392 0.35220725784184492 -0.096459227065464503 -1.4210548506150054 -1.8964010063311574 -4.3861995235189104 3.4841103375130054 -0.73490674930496347 -2.8897141104601962 -3.3127345219729993 1.3794576705700612 5.2159692987576811 -5.5300977433542444 0.15207153038424975 -5.0337404497960483 -3.523568593253958 -0.9650519187332387 -1.6482157517323486 -1.4095175212418614 -1.5032562051745564 -1.300149916023607 -1.3939130199692062 -1.2717800391349658 -1.3559443473866863 -1.41903519649813 -1.3674895999188785 -1.3686176060563384
leaf_weight=84346.760895729065 562.00375652313232 92217.745409965515 2069.0662412643433 650.01486301422119 955.00150775909424 1684.0442800521851 1905.0472612380981 1661.0374364852905 1504.0370302200317 1200.03431224823 1132.0225648880005 1394.0253372192383 1259.0215177536011 14151.265027999878 77932.722187042236 3589.0665559768677 117806.48991107941 2579.0693283081055 1094.021635055542 34615.665027618408 75025.730292320251 65289.968369483948 1635.0329675674438 2130.0529861450195 2208.0438652038574 4540.1260452270508 1827.0525970458984 3285.0940790176392 2040.0484886169434 7735.2184705734253 7296.2011070251465 2188.0554237365723 10211.291449546814 2568.0669364929199 5394.158314704895 1729.0389442443848 1774.0424661636353 1281.0319919586182 2624.0635404586792 14577.269488334656 3313.0878219604492 2579.0606336593628 6110.1281566619873 1900.0408582687378 2406.0569229125977 1146.0217609405518 2142.0575180053711 2353.0572748184204 18310.564568519592 3858.1105585098267 1976.0465574264526 2294.0504398345947 1430.0292911529541 3308.0950174331665 3337.1076059341431 3668.0860795974731 15614.420418739319 1452.0237293243408 929.01343536376953 1061.0212287902832 3271.0923910140991 6310.1591558456421 4302.1241483688354 2991.0840654373169 1489.0360374450684 2055.0516586303711 4279.1251411437988 4824.0946111679077 1489.0329847335815 920.01516056060791 929.01642513275146 1998.0532751083374 6508.1582431793213 2889.0759201049805 2303.0561819076538 1828.0397567749023 3629.0991544723511 1987.0521907806396 2795.0608510971069 1242.0145282745361 2610.0737628936768 1314.0293827056885 915.01544952392578 2374.0724811553955 5680.1755437850952 5884.1923580169678 7449.2460222244263 4328.1381874084473 4083.133638381958 8384.2758827209473 4976.1618824005127 161358.26488018036 7331.2392845153809 4800.1572418212891 16825.547093391418
leaf_count=10543 471 45281 298 265 906 445 652 646 503 269 523 722 692 7053 31675 1748 50975 675 520 16667 28397 12403 774 730 1004 1208 399 744 724 1848 1892 704 2448 776 1089 665 633 427 881 7346 961 948 2652 773 894 544 574 820 3253 897 765 964 604 711 460 1379 4365 794 537 501 800 2047 991 730 537 683 919 2241 586 507 502 591 2238 817 784 736 990 573 1192 836 636 544 495 456 941 746 932 548 513 1048 622 20170 919 600 2104
internal_value=0 0.638623 1.26591 8.86453 15.4728 0.39561 -0.188978 0.685451 0.716559 0.659997 1.18151 0.714826 -1.69722 0.73546 0.341021 -1.5035 1.00005 0.0890218 -1.5042 0.631766 0.960847 1.26015 1.43581 0.629769 -2.02608 -3.18002 1.68474 2.707 1.36601 -0.616135 1.65459 1.97658 2.7271 1.72728 -0.0920708 -1.66876 0.232263 0.285689 0.33201 1.34562 0.105721 0.368521 1.99362 -1.99946 0.420769 3.27742 5.07369 0.191166 3.33278 1.93678 -2.43271 -1.1131 -3.32674 0.449287 0.161588 -1.32724 0.740364 1.33529 -1.35603 -0.579296 3.67773 -2.48299 -1.34514 -1.32198 0.1432 1.05949 0.124538 0.102701 2.27569 2.86092 2.23833 -2.05477 -2.22888 -3.28855 2.34162 -2.16337 -1.71307 -1.33477 -0.912186 3.64333 -4.43446 -1.23167 -3.57902 -3.99736 -1.36303 -1.37033 -1.36495 -1.42189 -1.36166 -1.36254 -1.35943 -1.3612 -1.38653 -1.39309 -1.37705
internal_weight=0 706621 197309 2167.02 1517.01 509313 168819 340494 338810 331489 195141 325715 26273.7 324515 130289 17740.3 194226 142545 11758.3 112548 192832 189276 156520 36932.9 10283.2 8075.2 119588 28422.8 91164.7 14054.4 26649.7 24519.6 17507.5 77110.3 7962.23 3556.09 130787 129013 127732 23311.5 104420 94796.8 20687.4 6440.17 32755.9 7321.16 3803.09 30686.8 24866.8 69148.1 5774.13 3798.09 7933.2 28333.8 25025.7 7005.19 18020.5 3518.06 5865.11 4733.09 21581.7 9623.25 328588 324286 8838.23 5847.14 12014.3 7012.15 3825.07 2372.04 2188.04 24085.6 22180.6 7261.2 3792.09 3672.07 14919.4 11290.3 9303.22 2336.04 5189.14 2744.06 1844.03 5263.15 315447 309767 303883 16577.5 287305 283222 250681 245705 32541.1 12249.4 25209.8
internal_count=310591 267180 49652 1642 1377 217528 74280 143248 142803 139738 48010 137506 8703 137237 57143 8801 80094 65577 4401 48342 79372 45218 36291 11774 3759 2755 24517 5861 18656 3491 8015 7285 4340 15165 1865 1064 61176 60543 60116 10879 49237 46229 9998 1981 8927 3065 1220 8629 4797 13300 2232 1467 2459 7809 7098 1839 5259 1845 2792 2269 4053 3008 43411 42420 2734 2004 2767 2945 1942 1301 1194 7509 6857 1864 1321 1768 4993 4003 3430 1356 1311 1148 1032 1273 39686 38745 37999 2080 35919 35406 31335 30713 4071 1532 3152
shrinkage=0.462607


Tree=5
num_leaves=72
num_cat=0
split_feature=12 12 6 9 8 12 11 9 8 18 4 14 13 0 4 16 17 1 16 0 18 4 9 8 16 17 2 1 7 2 2 15 1 5 1 3 8 10 12 1 0 15 7 12 1 18 16 5 18 8 4 2 9 12 18 12 14 17 1 17 5 16 8 7 18 17 9 0 2 2 11
split_gain=1.11871e+06 390736 273060 175947 560894 194078 195872 174826 721332 430859 151970 139400 123943 116255 153157 90090 124097 117805 89326.4 199067 333794 252014 181476 346127 139505 124052 164317 123364 88551.1 88531.5 93434.8 92505.2 86498.9 86288.9 85403.1 84222.9 78337.3 70408.2 90376 69904.3 69768.4 478329 276282 244372 165874 165209 64947.8 60462.6 59860.3 94044 57431 49432.5 46614.8 39583.1 35367.8 32732.5 30608.4 21846.4 19524.4 133.155 437.854 235.837 129.522 29.0886 108.414 68.5966 97.6762 29.659 26.6639 25.1471 3.34769
threshold=169.25000000000003 203.25000000000003 144.25000000000003 207.25000000000003 194.25000000000003 208.25000000000003 210.25000000000003 136.25000000000003 146.25000000000003 192.25000000000003 208.25000000000003 274.75000000000006 209.25000000000003 143.25000000000003 169.25000000000003 204.25000000000003 283.25000000000006 206.25000000000003 217.25000000000003 212.25000000000003 211.25000000000003 214.25000000000003 281.25000000000006 260.25000000000006 170.25000000000003 273.75000000000006 243.25000000000003 211.25000000000003 263.25000000000006 211.25000000000003 206.25000000000003 204.25000000000003 210.25000000000003 229.25000000000003 212.25000000000003 175.25000000000003 367.75000000000006 275.25000000000006 257.25000000000006 220.25000000000003 183.75000000000003 183.25000000000003 178.25000000000003 184.25000000000003 181.25000000000003 185.25000000000003 206.25000000000003 169.25000000000003 157.75000000000003 160.25000000000003 167.25000000000003 207.25000000000003 165.25000000000003 167.25000000000003 207.25000000000003 210.25000000000003 133.25000000000003 206.25000000000003 211.25000000000003 165.25000000000003 162.25000000000003 175.25000000000003 158.25000000000003 137.25000000000003 134.25000000000003 138.25000000000003 138.25000000000003 133.25000000000003 144.25000000000003 134.25000000000003 132.25000000000003
decision_type=2 2 2 2 2 2 2 2 2 2 2 2 2 2 2 2 2 2 2 2 2 2 2 2 2 2 2 2 2 2 2 2 2 2 2 2 2 2 2 2 2 2 2 2 2 2 2 2 2 2 2 2 2 2 2 2 2 2 2 2 2 2 2 2 2 2 2 2 2 2 2
left_child=32 7 -3 5 -5 6 12 -2 9 -9 34 51 29 35 50 40 17 57 19 20 21 -12 25 -24 -21 26 -20 -26 -25 30 31 -4 47 -27 36 -10 37 38 -6 -36 41 43 -42 -16 -43 -44 -32 52 49 -49 -15 54 59 -50 -7 -53 -51 -17 -22 60 62 -61 63 64 67 66 -65 -1 -67 -66 -63
right_child=1 2 3 4 10 11 -8 8 13 -11 18 -13 -14 14 15 16 -18 -19 22 24 58 -23 23 28 27 33 -28 -29 -30 -31 46 -33 -34 -35 39 -37 -38 -39 -40 -41 42 44 45 -45 -46 -47 -48 48 53 56 -52 55 -54 -55 -56 -57 -58 -59 -60 61 -62 70 -64 65 69 68 -68 -69 -70 -71 -72
leaf_value=-0.72747053157967745 -2.82973394452641 -4.9760984964513613 1.4761462280094475 9.6772942500756169 -1.1609800858839094 -6.3332902016056627 -6.076009929238082 17.205926970648015 1.2589489436821895 3.1969435603864191 2.3741776738479805 0.62020203163300869 -3.9126479865625057 -4.3711016100692932 0.96852858991528956 -4.0503162116457858 3.2180212943922721 1.2992186642517087 -0.61788774225834464 -3.4778502654246686 -4.6681131436477985 -3.6716755080618211 7.3766726454431204 -2.7648593665378365 -1.0364453354716563 1.0280125381189462 0.39541820655894311 2.2458885241711188 0.36343707839226269 -2.975594032573043 4.3477600660084068 -1.5889354191877232 -2.8981602397410464 -1.4509444544244956 -5.8011630687280293 4.0393973280316864 2.9597899979710038 -4.6030584533520189 3.0512897171500031 -0.94510327120767001 -4.186429915036558 -6.5566741352800264 1.9240620785907605 -3.8917948992460154 -1.6951736869036118 0.74782479854790074 0.7333350791075498 -0.79803635083640379 -2.911126943445669 1.0471954873880047 -0.62726083270405386 -0.23444352660134868 -2.176425925677663 0.04768006593312437 -3.6385241984407082 -3.3530062957715585 3.0864395200049444 -1.9462598920201459 -2.7889144003715844 -0.87090085673791828 -0.59133063519281392 -0.74379670298988165 -0.79078142448262612 -0.73099728757934324 -0.78960111173949754 -0.71626756322736718 -0.63232048224466508 -0.7488915603129358 -0.73462071946960761 -0.75351209123646767 -0.72252226551636412
leaf_weight=164285.3438615799 2811.0907831192017 2292.0662040710449 4999.1102695465088 1319.0237121582031 11858.230172157288 1633.0320463180542 1103.0242986679077 895.0067720413208 6139.1922492980957 989.01951217651367 7016.0966081619263 2100.0435218811035 1363.0267362594604 1604.0425748825073 73682.11238193512 2258.0396223068237 1332.023946762085 1922.0382232666016 63841.450776100159 1094.0284700393677 2308.0491123199463 1868.0347185134888 1504.0192060470581 1953.0377712249756 2773.0421686172485 3427.0852012634277 73878.543951034546 21052.371486663818 222913.85430622101 1274.0222759246826 2504.0460424423218 3642.0682640075684 3909.1177196502686 24383.5119972229 1440.0276489257813 3759.1201114654541 1110.0259780883789 1115.0205965042114 1200.0324983596802 1134.0250482559204 2135.0468721389771 2100.0446519851685 37527.104237556458 2282.0575094223022 5273.1458120346069 80100.052735328674 1850.0288047790527 5013.1590900421143 1882.0493097305298 3939.1123552322388 1934.0463485717773 1134.019323348999 4851.1407079696655 1991.0472068786621 2888.077410697937 1974.0439109802246 2625.0743322372437 1986.0482997894287 2433.0428638458252 3997.1309747695923 4866.1576023101807 4064.1301422119141 7706.252179145813 4456.1449880599976 6728.2186422348022 30104.979565620422 4208.1372318267822 15616.509468078613 41913.368653297424 11904.392040252686 4024.1328172683716
leaf_count=20535 354 472 2045 703 5621 786 452 706 987 429 4447 896 628 477 16903 1215 702 942 24899 317 1006 923 993 959 1660 1047 32367 11084 92828 672 1293 1822 787 10691 712 525 410 562 367 469 854 931 7853 735 1458 25057 1094 631 517 922 674 616 1064 731 809 798 658 712 1299 504 624 508 965 557 841 3763 526 1952 5239 1488 503
internal_value=0 0.298424 0.060638 0.0848907 0.15312 -1.07428 -0.119079 0.795744 0.84086 9.85398 0.125089 -2.71728 0.301379 0.765048 0.693398 0.744109 -0.830572 -1.7053 0.17995 0.851915 -0.569838 1.10284 0.113859 0.383051 1.62928 -0.254274 -0.0743101 1.86385 0.336262 0.704002 1.06481 0.184268 -0.73516 -1.14545 -1.19727 2.315 -0.782043 -1.07517 -0.773804 -3.66222 0.802246 0.47721 1.02842 0.8225 -3.08009 1.12309 2.8122 -0.709074 0.183983 0.71065 -2.32486 -3.63595 -0.753768 -1.39023 -4.61232 -2.21532 1.86283 -3.06596 -3.70404 -0.731053 -0.729075 -0.778799 -0.73141 -0.72977 -0.732827 -0.722246 -0.6831 -0.729332 -0.726952 -0.766559 -0.733246
internal_weight=0 707108 478379 476087 449623 26464.5 16735.3 228729 225918 1884.03 448304 9729.22 15632.3 224034 214136 210598 7498.15 6166.13 430446 38544.7 13625.2 8884.13 391902 226371 24919.4 165531 137720 23825.4 224867 14269.3 12995.3 8641.18 328086 27810.6 17857.4 9898.31 15283.3 14173.3 13058.3 2574.05 203100 83337.4 119762 75964.2 7373.19 117627 4354.07 324176 15450.4 11577.3 3538.09 7629.17 308726 3873.1 4521.11 3108.06 6564.19 4244.09 4741.09 303875 291790 12085.4 286923 279217 198534 80682.6 8664.28 179902 72018.3 18632.6 8088.26
internal_count=310576 267261 205747 205275 193364 11911 8006 61514 61160 1135 192661 3905 7554 60025 58513 57362 3571 2869 184520 20736 7675 5370 163784 94780 13061 69004 57266 12744 93787 6926 6254 3867 43315 11738 8141 1512 6960 6550 5988 1181 53791 20027 33764 17638 2389 32910 2387 42528 3459 2211 1151 3009 39069 1248 1595 1414 1580 1927 2305 38005 36490 1515 35866 34901 24816 10085 1083 22487 9002 2329 1011
shrinkage=0.462607


Tree=6
num_leaves=70
num_cat=0
split_feature=12 13 4 9 3 8 9 14 0 13 9 8 0 12 18 18 10 4 3 1 3 1 16 0 17 13 0 17 6 1 17 6 7 11 5 6 17 10 7 18 1 17 16 9 17 6 8 8 9 3 14 9 2 9 17 18 10 2 7 9 1 12 7 5 8 17 12 0 15
split_gain=410594 91287.4 194325 177864 545125 201568 580064 136417 152676 425669 465677 621801 145998 222450 186214 160763 151793 136617 130371 124139 117459 112375 223955 278183 141837 121621 139598 108115 106596 105395 186916 114136 103739 98597.4 94773.8 90186 87033.5 76442.6 63693.4 115151 62070.7 70287.8 144260 58800.5 230421 58035.6 190399 184284 49424 44775.8 43560.9 42627.3 41758.7 39609.5 35868.9 33463.6 32766.2 15406.1 6673.58 8720.08 2796.99 140.756 314.78 153.068 131.162 61.3875 42.4854 67.3624 43.1663
threshold=167.25000000000003 196.25000000000003 131.25000000000003 204.25000000000003 208.25000000000003 135.25000000000003 126.75000000000001 190.25000000000003 183.25000000000003 238.75000000000003 200.25000000000003 206.25000000000003 201.25000000000003 247.25000000000003 196.25000000000003 203.25000000000003 272.25000000000006 206.25000000000003 210.25000000000003 257.25000000000006 200.25000000000003 191.25000000000003 189.25000000000003 141.25000000000003 190.25000000000003 185.75000000000003 241.75000000000003 196.25000000000003 188.25000000000003 186.25000000000003 184.25000000000003 182.25000000000003 196.25000000000003 309.25000000000006 167.25000000000003 184.25000000000003 204.25000000000003 195.25000000000003 196.25000000000003 193.25000000000003 190.25000000000003 198.25000000000003 192.25000000000003 169.25000000000003 155.75000000000003 1061.0000000000002 474.75000000000006 1159.5000000000002 245.25000000000003 196.25000000000003 190.25000000000003 195.25000000000003 201.25000000000003 181.25000000000003 199.25000000000003 187.25000000000003 300.25000000000006 197.25000000000003 172.25000000000003 163.25000000000003 187.25000000000003 117.25000000000001 161.25000000000003 117.25000000000001 156.25000000000003 157.25000000000003 153.75000000000003 154.25000000000003 123.25000000000001
decision_type=2 2 2 2 2 2 2 2 2 2 2 2 2 2 2 2 2 2 2 2 2 2 2 2 2 2 2 2 2 2 2 2 2 2 2 2 2 2 2 2 2 2 2 2 2 2 2 2 2 2 2 2 2 2 2 2 2 2 2 2 2 2 2 2 2 2 2 2 2
left_child=43 3 -3 5 -5 6 -2 -4 9 10 -9 -12 13 14 32 19 -15 18 36 20 54 22 24 -24 29 26 -23 -16 -27 30 34 -32 -10 -11 -7 -31 -17 -29 39 50 41 42 -25 58 53 46 -19 -47 -6 -41 -30 -40 -22 -45 -14 -37 -21 -53 59 60 61 63 64 -1 66 -66 68 -68 -63
right_child=1 2 7 4 48 21 -8 8 12 33 11 -13 15 16 27 17 -18 45 -20 56 52 25 23 40 -26 28 -28 37 38 35 31 -33 -34 -35 -36 55 -38 -39 51 49 -42 -43 -44 44 -46 47 -48 -49 -50 -51 -52 57 -54 -55 -56 -57 -58 -59 -60 -61 -62 62 -64 -65 65 -67 67 -69 -70
leaf_value=-0.39121510065972326 -1.8845153026539094 -5.7275354435446078 -3.6328903733159392 -10.800309695207444 2.7682088813266685 -2.0620066416523706 9.7430802247186925 -0.3834915044479284 -1.9001585071339018 -3.7387686471639845 13.460009755977755 2.7168643938528825 0.81319763252431621 5.5130666973865443 1.243576313372863 1.0131388915553665 -0.84599906829251192 0.10013093182324012 -5.2006950323910459 -2.7630091134829682 0.69995891893199003 -3.1447288108273468 1.7848837103040569 -2.9826919150338349 -3.1619132219177235 -1.4902455109135622 2.7571130827740862 1.0940290909863126 3.1533472942199143 -1.0521376521067671 -3.6994244750873611 -0.51574877370721683 2.6419426956127281 0.53982962388578581 0.66330461191878642 2.1557221855515012 -1.6406675138535487 -2.9682991913417203 1.6067695889593547 -1.4562247153998935 -0.83630928392970205 -0.69786231539649768 -8.4625441255897424 1.2574187785949977 -5.5112213456270469 -4.096703699243105 1.270269924592234 -0.12032275297607765 -1.1266175834238925 1.3625645892736717 1.4438853627944059 3.0778228762057291 2.7469245806687965 -1.1922172022535684 -2.3127597467155221 0.81136520157880743 0.41323211098318063 4.8483634249005352 -0.97188402610204572 0.12767912777206852 -0.021024521508714006 -0.40265577845251049 -0.51100727895463471 -0.28783960729925179 -0.29696995708445878 -0.36989546237789611 -0.4620709289511809 -0.3817151107038762 -0.38922661732812386
leaf_weight=6648.214035987854 1833.0613660812378 1216.0346012115479 2057.0476131439209 1204.0192060470581 1507.0344839096069 2804.0812759399414 1839.0372648239136 3675.1089248657227 1671.0391702651978 2649.0670080184937 1767.0405607223511 3317.0921564102173 1606.0358114242554 1737.0420141220093 1676.0398483276367 3849.0783233642578 1494.0269536972046 370447.89788246155 1640.0358743667603 1653.0309534072876 2576.0589542388916 2538.0590171813965 3766.1177368164063 3901.0976095199585 2249.0546112060547 2151.0563993453979 1295.0257434844971 1068.0243988037109 5641.1671552658081 2708.0761203765869 2952.0772933959961 13113.373406410217 3021.077075958252 2040.049409866333 103919.99409770966 14637.449890136719 8450.1658020019531 13770.268738746643 2506.0639925003052 3216.080002784729 2210.0571660995483 1359.032506942749 1396.0236663818359 2629.0800285339355 2342.060001373291 2700.0412473678589 32357.705688476563 32666.612567901611 1297.0260953903198 1929.0513525009155 7344.2152948379517 1991.0536270141602 12403.273370742798 3052.0870809555054 1537.0333652496338 5434.154088973999 1199.0249938964844 2237.0566968917847 4054.113410949707 7227.2285928726196 4416.1437149047852 70570.307246208191 4840.1566724777222 5701.1842212677002 4128.1358871459961 6200.2004289627075 4888.1604204177856 4144.1362934112549 191126.23711585999
leaf_count=831 230 278 783 693 576 648 824 791 614 822 668 860 647 582 640 1777 787 158130 667 820 994 942 602 1262 793 660 609 452 1126 706 880 2928 921 710 23606 2541 4026 6553 777 1095 663 505 752 445 718 1601 13345 16230 590 606 1667 563 5053 693 683 1248 527 718 974 1074 552 8821 633 731 516 775 611 518 23890
internal_value=0 0.215556 0.112606 0.481619 -2.56873 0.544331 3.93914 0.126453 0.14159 1.67962 3.58383 6.45146 0.100015 -1.00258 -1.54739 0.156971 2.57291 0.0988864 -1.32684 1.40898 1.85545 0.479158 0.323689 -1.54587 0.483462 1.28777 -1.15069 -2.27808 1.63376 0.539791 0.370245 -1.10083 1.02431 -1.87742 0.591693 1.45368 -0.810147 -2.67588 1.90403 1.45275 -2.96069 -3.66597 -4.42736 -0.413819 -1.65045 0.144243 0.19413 -0.423936 0.966735 -0.399361 2.18659 3.1189 2.39493 -0.0585884 -0.71556 1.79177 -1.42781 4.01494 -0.382214 -0.374498 -0.38649 -0.391901 -0.393992 -0.343501 -0.391976 -0.34076 -0.393929 -0.42522 -0.392849
internal_weight=0 713225 514245 198980 4008.08 194972 3672.1 513029 510972 13448.4 8759.24 5084.13 497524 24437.5 21206.4 473086 3231.07 452112 13939.3 20974.5 18122.4 191299 160451 12632.3 147818 30848.8 3833.08 16514.3 27015.7 145569 122790 16065.5 4692.12 4689.12 106724 22779.7 12299.2 14838.3 24864.7 18130.5 8866.21 6656.15 5297.12 321967 8023.23 438172 402806 35366.7 2804.06 5145.13 12985.4 6734.17 14979.3 5681.17 3143.07 20071.6 2852.06 4228.11 313944 309890 302663 298247 285897 12349.4 281057 10328.3 270729 9032.3 261697
internal_count=310553 268771 219961 48810 1859 46951 1054 219683 218900 3851 2319 1528 215049 10549 9180 204500 1369 195776 6470 8724 7377 45897 37134 3784 33350 8763 1551 7645 7212 32557 28062 3808 1535 1532 24254 4495 5803 7005 6552 4494 3182 2519 2014 41782 1856 189306 171475 17831 1166 1701 2793 2058 6047 1138 1330 3789 1347 1281 39926 38952 37878 37326 35764 1562 35131 1291 33840 1129 32711
shrinkage=0.462607


Tree=7
num_leaves=128
num_cat=0
split_feature=6 11 17 9 8 8 11 1 8 0 2 0 17 12 7 18 6 5 10 0 17 3 1 9 17 8 9 17 7 17 7 18 11 4 3 18 18 9 9 18 7 9 8 18 4 2 0 6 18 17 18 9 18 18 14 16 18 17 0 15 1 18 2 18 18 14 18 18 7 10 5 11 1 9 13 10 17 8 0 12 7 17 2 1 0 5 6 5 10 11 7 17 12 0 5 10 13 9 2 9 10 0 2 8 11 0 1 6 11 8 10 1 14 8 6 16 0 10 3 9 3 17 9 18 12 4 8
split_gain=139452 110855 155084 152072 217053 471186 56125.4 54974.3 261179 147180 116847 165110 112289 125718 188464 121929 109824 103491 104578 96784.6 91934.6 89460.4 89059.5 86051.1 156975 119060 91536.1 122451 87848.4 86263.8 86013.4 85370.8 84823.4 96813.9 80800.8 66117.2 65101.3 304841 422121 236824 169097 152551 291357 237110 176872 233968 147721 162978 167013 145315 385821 145183 142073 510467 124949 102889 98893.7 95920.8 78677.8 70786.5 66239.8 70033 107240 89082.6 66207.2 65220.9 62002.2 80620.9 59163.1 57612.4 56765.3 55526.3 55088.5 52205.8 51230.9 86943.4 56883.9 50853.2 53167.3 49701.2 48852.8 47102.5 62496.9 47003.1 46656.5 44905.1 79612.5 79012.3 52716.6 41501.1 40977.7 72119.4 56184.8 40629 44360.6 39759.7 36385 34261.8 32256.2 31224.4 28130.7 31757.5 25172.9 23933.3 23607.8 22807.6 67204.7 20168.3 18064.5 17975.2 16693.5 16688.8 16336.1 13764.6 14374.1 11927.2 11520.3 12671.8 10472.6 5242.49 4394.06 2812.92 1304.12 1137.44 1623.18 170.486 195.38
threshold=165.25000000000003 206.25000000000003 227.25000000000003 181.75000000000003 172.25000000000003 130.25000000000003 167.25000000000003 366.25000000000006 412.25000000000006 354.25000000000006 2389.0000000000005 423.25000000000006 423.25000000000006 356.25000000000006 292.25000000000006 495.25000000000006 254.75000000000003 601.25000000000011 700.25000000000011 489.25000000000006 383.25000000000006 429.25000000000006 2059.0000000000005 530.25000000000011 503.25000000000006 556.25000000000011 477.75000000000006 428.25000000000006 519.25000000000011 580.25000000000011 337.25000000000006 346.75000000000006 605.25000000000011 639.25000000000011 376.25000000000006 429.75000000000006 344.75000000000006 353.25000000000006 281.25000000000006 435.25000000000006 349.75000000000006 283.25000000000006 269.25000000000006 275.25000000000006 279.25000000000006 230.75000000000003 293.25000000000006 262.25000000000006 265.25000000000006 254.75000000000003 234.25000000000003 485.25000000000006 363.25000000000006 435.25000000000006 344.25000000000006 268.25000000000006 247.25000000000003 379.75000000000006 281.75000000000006 273.25000000000006 342.75000000000006 230.75000000000003 286.25000000000006 255.75000000000003 229.25000000000003 278.75000000000006 435.25000000000006 372.25000000000006 272.25000000000006 405.25000000000006 498.75000000000006 638.50000000000011 249.25000000000003 320.25000000000006 364.25000000000006 377.75000000000006 369.75000000000006 334.25000000000006 383.25000000000006 265.25000000000006 243.25000000000003 601.50000000000011 218.25000000000003 1501.5000000000002 241.75000000000003 1160.0000000000002 893.50000000000011 1482.5000000000002 814.25000000000011 980.50000000000011 442.25000000000006 462.25000000000006 430.25000000000006 3477.0000000000005 2301.0000000000005 2321.0000000000005 266.25000000000006 415.25000000000006 510.25000000000006 256.25000000000006 358.25000000000006 306.25000000000006 282.25000000000006 268.25000000000006 344.75000000000006 343.25000000000006 351.25000000000006 540.75000000000011 387.75000000000006 338.25000000000006 349.75000000000006 288.25000000000006 262.25000000000006 367.75000000000006 360.75000000000006 665.25000000000011 509.75000000000006 593.75000000000011 748.25000000000011 356.25000000000006 485.25000000000006 200.25000000000003 163.25000000000003 189.25000000000003 161.25000000000003 162.25000000000003 158.25000000000003
decision_type=2 2 2 2 2 2 2 2 2 2 2 2 2 2 2 2 2 2 2 2 2 2 2 2 2 2 2 2 2 2 2 2 2 2 2 2 2 2 2 2 2 2 2 2 2 2 2 2 2 2 2 2 2 2 2 2 2 2 2 2 2 2 2 2 2 2 2 2 2 2 2 2 2 2 2 2 2 2 2 2 2 2 2 2 2 2 2 2 2 2 2 2 2 2 2 2 2 2 2 2 2 2 2 2 2 2 2 2 2 2 2 2 2 2 2 2 2 2 2 2 2 2 2 2 2 2 2
left_child=1 3 -3 6 5 -5 121 9 10 36 11 12 13 14 -9 -14 -11 23 32 21 77 -13 83 24 26 107 27 31 29 98 -16 -10 35 -34 -32 -19 41 38 66 40 -39 43 -43 46 45 96 47 48 80 50 -49 -41 54 57 -40 -51 64 -54 65 112 61 62 -44 -63 -48 -46 67 -38 -58 -22 120 -20 -53 -55 -15 76 -76 78 -18 -61 -2 -68 -83 103 -65 86 88 -87 118 -88 92 -92 -29 94 -89 -74 -45 -33 -26 -50 -42 -102 -60 -21 109 -56 -107 -25 -77 -62 -79 -104 -47 114 119 -35 -27 -118 -73 -112 -28 122 123 124 125 126 -1
right_child=7 2 -4 4 -6 -7 -8 8 17 16 -12 19 15 74 30 -17 20 18 71 22 69 -23 -24 25 28 116 70 90 -30 -31 34 97 33 115 -36 -37 37 39 52 51 100 42 60 44 58 59 56 49 99 55 -52 72 53 73 105 -57 68 -59 102 79 104 63 -64 84 -66 -67 81 -69 -70 -71 -72 85 95 -75 75 108 -78 110 -80 -81 -82 82 -84 -85 -86 87 89 93 -90 -91 91 -93 -94 -95 -96 -97 -98 -99 -100 -101 101 -103 111 -105 -106 106 -108 -109 -110 -111 113 -113 -114 -115 -116 -117 117 -119 -120 -121 -122 -123 -124 -125 -126 -127 -128
leaf_value=-0.21162640450365861 0.09083422828506002 0.1027748868569858 -5.6518502192138929 -0.55595190543702933 0.10749870615758922 16.246919964756163 -1.9222537119963925 1.9243624464071987 -1.5249434129416219 5.908318219314725 2.3925424536759796 -3.0679709185415676 -6.8356299111886578 2.5420190809664729 -7.8197563599966147 -0.57235678451585958 -2.6557527500240901 -2.2163190671508861 3.184862275034392 -3.6351614007780322 -4.0267211515893555 -8.2786713104987779 -5.9844554240958336 5.1984648489282712 -6.2849443792554611 -0.49861064271125732 4.2977010349820732 0.70004709561238565 1.2088746928858123 -0.15000355610757921 0.26905183735424226 0.71959226514080499 -6.6084737736543273 -0.4726377483474602 -5.1011326291445229 1.6080212376621683 0.83921814834017816 7.9406908586883027 0.8254351065331661 -5.0988725206406533 0.16254208774729359 7.1842974656603484 1.0451218926421086 -0.82687089431048633 0.99597871436325769 -3.0384713820006439 -2.3991493162944186 1.5600848564678962 -1.4992550710401376 2.3674061219341578 -5.77287576338259 -1.172810232505153 -7.1444131843535219 0.68313080266136095 -1.9808131129388327 0.65047441558042396 -6.094255627730595 -13.289721834685945 0.096957937787086113 -1.2861037885960069 1.7700554361734255 3.2868109286756879 -5.3522293140323258 2.3187616597277461 2.2432672263046971 -3.1611358728177001 -2.50603779700928 6.092328829087756 -1.4374578545710308 0.64642995829097061 0.60371876630348753 -0.23872407630086478 3.7504654623090827 -3.5542695250560397 0.19079320393391974 1.4811729788926915 -3.1211826486388716 0.89686572294749811 2.4165032130486952 -4.6689322437570473 0.63148663313741993 -1.258539145981125 3.2706667138656531 1.338658126022553 0.45789814824391262 4.1577829553244907 -5.791030617418417 -0.57714736871381489 2.3859245573700485 -1.657964473217471 1.3803374765173795 -1.5127489997868773 -3.2051108354497941 -2.4291512051650463 0.66648444732626777 0.071907198122040161 1.8825485977878142 2.8907694585920996 -2.8569243268284068 -3.9313616143751564 0.99128230271010598 4.2209928025444627 3.4971451802407212 -1.0185829797880912 0.82237166251909721 -6.3736936331716985 -1.4384499941582298 2.9560670777515918 0.1799440362922837 3.9594050499612465 2.9347415498960565 1.2782937855890526 -1.0113994571675051 1.4770691911488234 3.9055773238226457 -2.5366884434171171 0.37411630626896136 2.1901699719343379 -2.0696124973577819 1.7514572623334157 3.251803042084219 0.15422048381665032 -0.46940061334842098 -0.43920382015865461 0.067198410019927421 -0.1280226707176349 -0.30646770579794685
leaf_weight=277753.05667686462 361890.05786132813 2102.0581331253052 1915.0531034469604 775.00469493865967 2609.0812301635742 662.00538158416748 4148.1236333847046 1452.0273771286011 1460.0296802520752 1206.0224475860596 1807.0325155258179 1574.0285701751709 1310.0208225250244 1709.0410842895508 1061.0096616744995 1351.0269708633423 979.01232528686523 1874.0359745025635 1231.0226907730103 1265.024001121521 986.01706600189209 1278.0178241729736 1002.0137071609497 1966.0477390289307 1275.0211200714111 1325.0278205871582 1733.0466833114624 1206.0293283462524 1481.034818649292 1426.0287590026855 1037.0214004516602 2110.0467004776001 1272.0183477401733 1071.0209484100342 1421.0221042633057 1999.0420684814453 1545.0351791381836 1408.0288047790527 2117.0490665435791 1244.0199012756348 1202.0277118682861 1486.0205421447754 1180.0245332717896 1928.0488405227661 1512.0327415466309 1303.0334911346436 1471.0280637741089 4861.1270637512207 2323.0639123916626 16089.378590583801 2244.0402088165283 2201.0450124740601 975.01770687103271 1559.029914855957 1202.0252285003662 13942.30702495575 1581.0261497497559 1233.011043548584 1293.0249481201172 1088.0291481018066 1408.0308361053467 2599.0672254562378 1068.0179414749146 3003.0741147994995 1188.0235576629639 1733.0310163497925 1109.0200271606445 1050.0140676498413 926.01642513275146 1320.0245246887207 1854.0446605682373 1403.030421257019 1317.0250024795532 1035.0190887451172 1850.0411386489868 3466.0825576782227 2773.0550804138184 1411.0288133621216 806.01191902160645 6391.1222972869873 39688.820412635803 1256.0233058929443 1355.0207138061523 1184.0225648880005 72169.699012756348 1074.0252285003662 896.0186824798584 9381.1992301940918 1406.029860496521 1239.0134267807007 4071.0948457717896 3370.0761117935181 2276.0452470779419 1281.0164251327515 17754.326482772827 1203.023775100708 2357.0631885528564 5920.1483640670776 1091.0227909088135 2200.0433874130249 1128.0196123123169 1543.0348358154297 1688.0398025512695 1831.0339689254761 1539.0339603424072 1505.0239553451538 972.01938629150391 1527.0384120941162 6689.1542177200317 1869.045581817627 1688.0420513153076 1273.0246591567993 2452.0510807037354 1669.0353050231934 2209.0592889785767 1360.025463104248 2034.0485343933105 1380.0307817459106 1277.0269079208374 1530.0386924743652 1724.0457534790039 4491.1488904953003 4238.1370515823364 4600.1493310928345 4536.1470193862915 5120.1667404174805 4729.1544694900513
leaf_count=34718 118897 569 508 628 425 515 837 689 662 604 932 832 764 589 802 602 643 936 594 642 531 788 645 664 701 597 494 429 571 642 477 829 761 497 819 851 593 652 787 712 460 926 515 591 644 421 708 1417 650 5820 1166 990 492 747 516 5731 881 953 593 332 582 800 571 1008 530 886 549 651 499 676 664 612 624 531 737 1254 1289 634 484 3129 17743 654 795 575 26332 388 406 4089 587 868 1474 1389 1051 854 8976 573 635 1881 489 1045 603 591 624 900 629 854 440 505 2608 665 582 580 1094 689 648 660 746 547 542 522 520 564 577 575 567 640 592
internal_value=0 -0.226236 -2.64086 -0.195309 2.62229 7.18703 -0.232132 0.141914 -0.146991 0.198668 -1.22706 -1.42987 -0.82202 -0.470492 -2.50961 -3.65626 1.69169 0.292276 -0.19046 -3.23217 1.28788 -5.40369 -2.05937 0.840092 0.486997 2.16956 0.958326 0.513191 -1.81226 -2.9922 -4.33916 1.72871 -1.75609 -3.33901 -2.83581 -0.242467 0.16349 -0.522781 -1.76392 1.34378 3.59981 0.198139 0.763526 0.0946111 -1.35341 -2.24479 0.168945 0.197611 0.112782 1.12523 -0.75608 -0.653669 -3.54786 -5.40862 -2.00597 1.57033 -2.2904 -10.5777 0.491311 -3.3541 0.651027 0.550736 -1.99456 0.624319 -0.324965 -1.22424 1.22997 2.96531 -4.37466 -1.35204 2.66906 0.13063 0.517961 -1.00785 0.144361 -0.132973 -1.79591 1.8794 -0.365394 -4.1769 0.144268 0.0192552 1.09206 -1.14003 0.532249 0.0253152 -1.10408 0.263576 0.0922124 -3.39321 -0.542885 0.0700603 -1.85261 0.116339 0.236538 1.99466 0.663503 2.32032 -4.70492 -2.68246 2.02112 2.85737 1.79994 -2.088 2.31719 -3.63517 -4.43755 4.21859 0.624104 3.01903 2.35041 2.54349 -1.71503 2.63937 2.9967 -1.62756 0.659052 1.10835 -1.11129 2.37241 3.77652 -0.209179 -0.214602 -0.210962 -0.207367 -0.211698 -0.213215
internal_weight=0 317679 4017.11 313662 4046.09 1437.01 309616 717519 117809 599709 34060.7 32253.6 24119.5 21458.5 4971.08 2661.05 13804.3 83748.8 44518.9 8134.14 12598.3 2852.05 5282.09 39229.9 30997.7 8232.19 25724.6 20413.5 5273.11 3792.07 3519.05 9490.22 7576.14 3703.06 2458.04 3873.08 585905 28159.5 16913.3 11246.2 5281.11 557745 86322 471423 23018.5 15519.3 448405 443239 406102 37136.9 7105.17 5965.11 10598.2 4802.08 5796.12 30031.7 5166.09 2208.03 7499.15 11234.2 84836 80019.9 2248.04 77771.8 2659.05 3245.06 6315.11 2595.05 2507.04 2306.04 5311.14 36942.7 4721.09 2594.05 16487.4 14778.3 4623.1 10292.2 1785.02 7479.15 401579 3720.06 2611.04 4280.08 75172.8 35711.7 6221.12 29490.6 4086.09 2135.03 10923.2 7441.17 3482.07 28416.5 27135.5 2520.05 4285.11 8030.2 2366.04 4523.11 3873.08 2671.05 4254.09 3096.06 4816.11 3679.07 2477.04 3493.09 10155.2 3277.08 8507.2 2961.06 3755.08 7096.18 5427.14 2431.05 4739.11 3414.08 2680.06 3218.08 3457.09 305468 300977 296739 292139 287602 282482
internal_count=310559 41715 1077 40638 1568 1143 39070 268844 52420 216424 15944 15012 10630 9264 2787 1366 6013 36476 21621 4382 5409 1620 2762 14855 11796 3059 9393 7715 2403 1832 2098 3372 3705 1918 1296 1787 210411 13767 8562 5205 2306 196644 32028 164616 9529 6202 155087 152469 138335 14134 2583 2899 5320 2723 2597 11551 2618 1445 3327 4976 31102 29226 1086 28140 1238 1530 3242 1244 1380 1207 1678 17916 2187 1278 6477 5888 2026 4202 1127 3461 136640 1998 1449 2117 27340 17322 3015 14307 1741 1274 4343 2863 1480 13919 13065 1197 1226 2710 1190 1695 1654 1194 1797 1542 1876 1810 1294 1169 3862 1247 3075 1204 1515 2441 1752 1157 1890 1293 1154 1104 1014 38233 37669 37092 36517 35950 35310
shrinkage=0.462607


Tree=8
num_leaves=43
num_cat=0
split_feature=8 11 9 2 13 9 0 1 17 18 17 12 6 0 18 8 0 4 10 18 16 9 17 6 13 16 6 7 10 11 9 18 9 18 4 1 17 18 12 9 1 4
split_gain=48854.1 118659 303210 747531 53125.1 209367 39958.7 60344.9 60855.2 65884.9 64891.1 55090.1 89330.9 42893.7 41996.7 48996.7 65645.3 77669.8 52657.8 98186.8 34779.9 87580.7 82213.3 45597 45772.6 56963.7 142177 123889 35661.8 27992.6 16920 14668.9 9365.49 8245.58 1179.52 703.691 86.4867 360.971 215.405 42.3727 228.357 90.8888
threshold=160.25000000000003 187.25000000000003 167.25000000000003 140.25000000000003 178.25000000000003 133.25000000000003 3297.0000000000005 2421.0000000000005 266.25000000000006 217.25000000000003 342.25000000000006 2455.0000000000005 2517.0000000000005 3477.0000000000005 157.75000000000003 170.75000000000003 197.25000000000003 206.25000000000003 181.75000000000003 136.25000000000003 167.25000000000003 167.25000000000003 167.25000000000003 144.25000000000003 167.75000000000003 173.25000000000003 175.25000000000003 176.25000000000003 171.25000000000003 2389.0000000000005 159.25000000000003 130.25000000000003 175.25000000000003 870.00000000000011 164.25000000000003 189.25000000000003 192.25000000000003 182.25000000000003 157.75000000000003 144.25000000000003 144.25000000000003 147.25000000000003
decision_type=2 2 2 2 2 2 2 2 2 2 2 2 2 2 2 2 2 2 2 2 2 2 2 2 2 2 2 2 2 2 2 2 2 2 2 2 2 2 2 2 2 2
left_child=1 4 -3 -4 30 -6 7 14 9 -9 -10 29 -13 -8 15 -2 18 -18 31 -20 21 34 -22 -24 -25 27 -27 -26 -23 -12 35 32 -17 -15 -16 36 37 38 39 41 -41 -1
right_child=6 2 3 -5 5 -7 13 8 10 -11 11 12 -14 33 20 16 17 -19 19 -21 22 28 23 24 25 26 -28 -29 -30 -31 -32 -33 -34 -35 -36 -37 -38 -39 -40 40 -42 -43
leaf_value=-0.11549748051165544 2.5841429695117721 0.26477448244464563 -17.621938521953883 2.1389436900781282 -1.3095218925562235 4.5836503825154464 -3.1723056178764457 1.6702175214026931 5.0903763347982771 -3.3225630058156046 1.4668343293539849 5.5660412219954543 0.57925960513235664 1.0410381347486428 -0.070486998886210073 0.41312532241876693 4.0962025361623118 -0.06477361049945729 -3.4294437642837896 0.79302043949006906 -2.5407625748617821 -1.1894516469539425 1.9325349897422675 -2.0702422309873394 1.3199709030035376 -1.2830583946354033 0.093476887006091469 -2.7086896816462618 -3.9440979166094903 -1.3694670387160153 -1.0573268414324009 -0.30049385476216794 1.4931057948354762 -0.88309006722780548 0.2495881822432662 0.076476076025336556 -0.1809664625465994 0.008830403537350616 -0.22013745214367858 0.000594604535151546 -0.11330317610692194 -0.17008563604757973
leaf_weight=230271.50698947906 2646.0777626037598 3086.0992803573608 801.00723266601563 838.0077018737793 2842.0917673110962 2362.0586652755737 1667.025408744812 1119.0181674957275 1145.0249938964844 1143.0215721130371 1335.0248136520386 1313.0352792739868 1854.0358200073242 915.01717472076416 5552.1814861297607 3293.095721244812 2049.0577440261841 1806.0454015731812 2303.0611114501953 2413.072732925415 2567.0717945098877 2145.0624847412109 2837.0874071121216 2123.0588369369507 15765.413692474365 16470.424201011658 639963.71230125427 1822.0431613922119 1894.0458335876465 1683.0326242446899 4112.1313810348511 2670.0755596160889 3594.1146125793457 994.01562118530273 4429.1424961090088 4161.1349830627441 4208.1370601654053 5017.1647005081177 4216.1370058059692 4256.1360473632813 32786.068128585815 6719.2187509536743
leaf_count=28783 546 419 605 614 357 787 960 629 473 583 684 396 874 474 694 654 488 623 623 439 649 465 520 548 4733 5067 245135 660 634 822 605 640 514 574 607 521 526 628 527 532 4099 846
internal_value=0 -0.135867 -2.43602 -7.52024 -0.0997508 1.36541 0.0844377 0.092037 1.24463 -0.852794 1.89189 1.29951 2.64714 -1.45807 0.0766026 0.724727 0.453276 2.14704 -0.00423647 -1.26907 0.0572446 -0.663976 0.0720815 0.0819614 0.0741954 0.0809512 0.0589379 0.902557 -2.48142 -0.114815 -0.125534 0.619933 0.976767 0.0391855 0.0715481 -0.112394 -0.115128 -0.11415 -0.116368 -0.114771 -0.100216 -0.117045
internal_weight=0 305677 4725.11 1639.01 300952 5204.15 729512 725936 9592.19 2262.04 7330.15 6185.13 3167.07 3576.06 716344 20774.6 18128.5 3855.1 14273.4 4716.13 695569 14020.4 681549 678982 676145 674022 656434 17587.5 4039.11 3018.06 295748 9557.29 6887.21 1909.03 9981.32 291636 287474 283266 278249 274033 37042.2 236991
internal_count=310557 39849 1638 1219 38211 1144 270708 268700 4461 1212 3249 2776 1270 2008 264239 4527 3981 1111 2870 1062 259712 2400 257312 256663 256143 255595 250202 5393 1099 1506 37067 1808 1168 1048 1301 36462 35941 35415 34787 34260 4631 29629
shrinkage=0.462607


Tree=9
num_leaves=68
num_cat=0
split_feature=9 7 7 6 6 8 5 9 5 2 9 0 8 7 4 18 14 5 4 9 8 9 4 9 16 7 7 6 9 7 9 8 4 9 0 16 4 1 0 3 9 7 0 3 17 1 10 4 18 15 10 8 10 4 17 3 6 18 17 8 12 13 15 7 16 12 15
split_gain=27750.4 112131 66469.3 63028.9 60368.9 258917 72040.4 41548.1 49472.6 37724.2 32872.6 51638.1 30195.8 52204 30164 59802.2 52975.9 26493.2 242453 120035 99598.7 113595 177235 204446 156875 134494 99182.5 98261.3 89560.8 142115 106299 88426.4 87733 82871.8 78393.2 72825.5 84958.7 71843 59102.6 50519.7 61518.7 40837.5 37702.6 37075.1 55227.1 34746.2 29558.5 28239.5 27728.3 25881.9 24411.9 20685.7 20617.7 28437.6 27892.6 28364.1 25741.7 22524.7 33514.7 21475.2 16101.1 40220.1 23210.3 16084.2 15993 11890.5 9894.48
threshold=1010.2500000000001 260.25000000000006 755.50000000000011 797.50000000000011 1061.0000000000002 1159.5000000000002 435.25000000000006 2281.0000000000005 1941.0000000000002 294.25000000000006 1516.5000000000002 1153.5000000000002 715.50000000000011 576.25000000000011 973.50000000000011 870.00000000000011 431.75000000000006 243.25000000000003 238.75000000000003 249.25000000000003 240.25000000000003 247.25000000000003 251.75000000000003 241.75000000000003 249.25000000000003 247.25000000000003 243.25000000000003 245.25000000000003 305.25000000000006 238.25000000000003 264.25000000000006 238.25000000000003 338.25000000000006 253.25000000000003 250.25000000000003 226.25000000000003 250.25000000000003 250.25000000000003 366.25000000000006 239.25000000000003 224.25000000000003 218.25000000000003 240.25000000000003 241.75000000000003 247.25000000000003 280.25000000000006 219.25000000000003 219.25000000000003 240.25000000000003 243.25000000000003 2269.0000000000005 240.25000000000003 2385.0000000000005 2367.0000000000005 2333.0000000000005 2341.0000000000005 2385.0000000000005 3187.0000000000005 2551.0000000000005 2345.0000000000005 2229.0000000000005 2161.0000000000005 2253.0000000000005 245.25000000000003 239.75000000000003 2325.0000000000005 2205.0000000000005
decision_type=2 2 2 2 2 2 2 2 2 2 2 2 2 2 2 2 2 2 2 2 2 2 2 2 2 2 2 2 2 2 2 2 2 2 2 2 2 2 2 2 2 2 2 2 2 2 2 2 2 2 2 2 2 2 2 2 2 2 2 2 2 2 2 2 2 2 2
left_child=2 -2 12 -4 6 -6 9 8 10 -3 -7 -12 17 -14 15 -5 -16 18 28 35 32 22 23 -22 26 37 -25 -27 30 -30 31 39 41 34 -29 36 -20 -23 -35 40 -1 -19 -43 48 49 -24 -41 -33 64 -45 -9 -49 54 -54 55 65 59 58 -55 -56 61 -10 -62 -44 -37 -52 -63
