tree
version=v3
num_class=1
num_tree_per_iteration=1
label_index=0
max_feature_idx=18
objective=regression
feature_names=Column_0 Column_1 Column_2 Column_3 Column_4 Column_5 Column_6 Column_7 Column_8 Column_9 Column_10 Column_11 Column_12 Column_13 Column_14 Column_15 Column_16 Column_17 Column_18
feature_infos=[111:7128] [111:7000] [112:7164] [111:7160] [112:7100] [112:6852] [111:7472] [112:7380] [112:7460] [71:6832] [112:6912] [111:6920] [111:7448] [111:7644] [111:7000] [111.5:7024] [112:6888] [112:7124] [111:6656]
tree_sizes=35923 33441 41076 37522 33277 31914 22781 15409 21672 25062 23574 25110 16405 19558 22067 12099 13456 17723 14860 24925 14959 13707 23291 14425 12904 22548 10122 20896 11336 15125 20778 23548 21887 15802 20239 22128 17917 12778 26615 13589 18049 13719 18657 17788 13559 31972 21419 37372 17082 15743

Tree=0
num_leaves=399
num_cat=0
split_feature=9 0 18 4 5 3 6 5 6 6 1 2 8 7 8 17 5 16 9 10 7 9 9 18 6 9 9 6 6 4 5 7 9 8 4 2 3 8 10 3 7 4 16 16 13 3 4 8 13 14 7 8 6 18 9 18 11 8 1 11 11 10 6 10 7 7 8 11 7 14 0 8 5 5 5 18 17 4 0 7 8 5 16 6 1 8 3 17 9 18 13 14 3 4 4 5 11 13 8 1 14 15 18 16 3 9 0 14 13 7 7 3 0 8 0 0 7 10 0 8 13 3 14 15 9 12 10 6 15 0 18 0 18 17 6 16 7 9 9 3 18 5 18 2 9 2 18 18 2 18 17 9 1 1 8 1 8 11 0 17 4 16 16 18 16 11 3 4 11 1 18 5 9 18 15 17 14 14 1 9 0 9 6 0 14 11 9 8 2 5 9 18 2 13 4 0 6 7 13 16 14 1 6 3 9 4 4 18 1 3 13 12 9 18 16 14 18 11 0 16 7 4 8 3 2 9 3 4 7 0 15 6 9 4 18 3 18 11 16 1 6 4 10 18 10 5 5 0 2 1 7 6 1 10 15 9 11 9 15 6 9 2 7 18 9 16 1 2 1 11 3 14 10 7 4 18 9 18 11 9 2 9 9 9 18 1 0 4 7 0 1 1 18 4 4 8 0 1 2 4 9 15 5 1 8 6 17 5 6 10 6 4 13 2 11 16 16 10 3 0 1 7 2 8 13 14 15 7 10 2 9 7 6 0 7 9 6 11 4 0 10 13 5 8 16 3 18 12 0 1 3 1 15 16 16 0 8 3 2 16 9 18 16 17 9 15 15 13 6 7 1 4 4 17 3 2 18 10 14 16 7 5 2 7 11 10 3 2 4 10 7 16 9 12 11 0 6 4
split_gain=1.69628e+11 2.00057e+10 1.48719e+10 5.6172e+09 2.10043e+10 1.15185e+10 9.31951e+09 7.6705e+09 4.3342e+09 4.02486e+09 4.0037e+09 4.32708e+09 3.969e+09 3.6289e+09 3.41806e+09 3.38014e+09 2.95162e+09 2.84498e+09 2.45867e+09 2.05985e+09 1.84778e+09 1.66801e+09 1.49834e+09 1.44341e+09 2.02135e+09 1.37023e+09 1.20975e+09 1.0643e+09 1.03367e+09 9.06816e+08 8.87225e+08 8.60108e+08 8.1636e+08 7.45306e+08 6.63609e+08 6.60496e+08 1.53402e+09 5.47364e+08 7.11649e+08 5.42926e+08 4.82931e+08 4.54686e+08 4.29573e+08 9.4871e+08 4.02449e+08 3.95092e+08 4.07487e+08 3.71848e+08 3.64726e+08 3.64084e+08 3.5937e+08 3.57482e+08 3.30123e+08 3.29696e+08 3.19384e+08 2.77663e+08 2.5479e+08 2.30452e+08 2.14964e+08 3.94098e+08 2.12216e+08 1.79012e+08 1.77109e+08 1.67283e+08 1.55361e+08 1.73418e+08 1.54753e+08 1.49396e+08 1.45208e+08 1.40582e+08 4.10088e+08 1.39338e+08 1.37385e+08 1.29119e+08 1.27773e+08 1.27485e+08 1.25229e+08 1.24137e+08 1.20851e+08 1.18257e+08 1.1713e+08 2.56121e+08 2.25578e+08 4.23191e+08 1.14627e+08 1.09323e+08 1.08923e+08 1.05324e+08 1.03927e+08 1.03259e+08 9.86278e+07 9.75511e+07 9.95831e+07 1.52641e+08 9.61048e+07 1.04077e+08 9.37621e+07 9.34141e+07 9.26281e+07 9.30086e+07 9.20387e+07 1.10565e+08 9.03621e+07 8.81158e+07 8.75956e+07 8.58599e+07 8.08538e+07 8.01343e+07 7.96897e+07 7.9018e+07 7.7128e+07 7.70418e+07 7.49241e+07 6.95106e+07 8.42571e+07 6.91213e+07 6.8023e+07 6.46146e+07 1.46332e+08 6.09941e+07 6.07243e+07 5.96526e+07 5.9303e+07 5.55942e+07 5.54326e+07 5.52609e+07 5.41849e+07 5.31447e+07 5.15891e+07 5.12265e+07 5.96354e+07 5.11756e+07 5.01601e+07 4.9594e+07 1.2212e+08 5.67312e+07 4.92828e+07 5.35584e+07 4.69859e+07 4.6748e+07 4.5888e+07 4.34438e+07 4.24206e+07 4.22574e+07 3.89757e+07 5.2416e+07 3.81258e+07 3.75693e+07 3.53343e+07 4.39894e+07 4.1242e+07 3.43915e+07 3.39536e+07 3.3742e+07 3.28355e+07 3.22183e+07 3.18319e+07 3.18246e+07 3.14228e+07 3.09682e+07 2.96382e+07 2.94972e+07 4.06151e+07 2.81364e+07 2.67386e+07 2.64717e+07 2.55833e+07 4.31739e+07 2.30843e+07 2.28066e+07 2.27563e+07 2.21799e+07 6.77846e+07 2.04792e+07 2.043e+07 2.03416e+07 1.96772e+07 1.93229e+07 1.85598e+07 1.85429e+07 1.83756e+07 1.88293e+07 1.81789e+07 1.76457e+07 1.7534e+07 1.6866e+07 1.68484e+07 1.66861e+07 1.63746e+07 1.5556e+07 1.5261e+07 2.31473e+07 1.44769e+07 1.43658e+07 1.43555e+07 3.15122e+07 1.40038e+07 1.37663e+07 1.37433e+07 1.36654e+07 1.34005e+07 1.3361e+07 1.33526e+07 1.33128e+07 1.29987e+07 1.29747e+07 1.28242e+07 1.26664e+07 1.24698e+07 1.21541e+07 1.15471e+07 1.49139e+07 1.34664e+07 1.12037e+07 1.10814e+07 1.10715e+07 1.09571e+07 1.08147e+07 1.68022e+07 1.0626e+07 1.04964e+07 1.04819e+07 1.00325e+07 9.63264e+06 9.55309e+06 9.13104e+06 8.83581e+06 1.61458e+07 1.0954e+07 8.75996e+06 8.53021e+06 8.45952e+06 8.34934e+06 8.28108e+06 8.00484e+06 7.94584e+06 7.67361e+06 7.36756e+06 7.09788e+06 6.88983e+06 6.80461e+06 6.62875e+06 6.62674e+06 6.61071e+06 6.53873e+06 6.15191e+06 6.0845e+06 5.99217e+06 1.1905e+07 5.99127e+06 5.79337e+06 5.77892e+06 5.69175e+06 5.65862e+06 5.60878e+06 5.2747e+06 5.26737e+06 5.70666e+06 4.7946e+06 4.69835e+06 4.57297e+06 4.54459e+06 4.43459e+06 4.38938e+06 4.11951e+06 3.93848e+06 3.80144e+06 3.78049e+06 3.75197e+06 3.62336e+06 3.56752e+06 3.53999e+06 3.51146e+06 3.4789e+06 3.45649e+06 3.44771e+06 3.72641e+06 3.44624e+06 3.3846e+06 4.49808e+06 3.34959e+06 3.34007e+06 9.19582e+06 1.21254e+07 3.13715e+06 3.12327e+06 3.02704e+06 3.60645e+06 2.98452e+06 3.00938e+06 2.96771e+06 2.9416e+06 2.93882e+06 2.89558e+06 4.5224e+06 2.898e+06 2.89062e+06 2.8859e+06 2.84982e+06 2.97622e+06 2.93992e+06 2.66894e+06 2.66763e+06 2.55675e+06 2.51679e+06 2.49432e+06 2.49365e+06 2.47832e+06 2.32863e+06 2.0947e+06 2.08657e+06 1.99234e+06 1.97599e+06 1.94277e+06 2.03755e+06 1.89278e+06 1.6792e+06 1.6532e+06 1.56485e+06 1.52776e+06 1.51297e+06 1.48282e+06 1.45684e+06 1.39586e+06 1.39093e+06 1.38749e+06 1.3398e+06 1.29963e+06 1.28908e+06 1.27079e+06 1.26469e+06 1.22302e+06 1.14736e+06 1.13601e+06 1.12626e+06 1.03263e+06 967872 953672 913411 897807 1.31006e+06 851431 842257 827675 822032 779914 767643 756270 735148 733578 730554 727222 725335 683312 674049 672132 668207 667183 638907 607942 586573 578067 565054 561430 552754 552071 523414 499358 482720 458200 455272 446991 826709 436307 431331 546122 428459 395798 393078 392256 388000 378441 362195 346923 291915 251352 244371 242981 236607 220415 250280 109916 104977 66994.4 62184.5 52788.7 5866.43 1008.47
threshold=1975.5000000000002 739.25000000000011 738.25000000000011 2479.0000000000005 2471.0000000000005 2469.0000000000005 2469.0000000000005 2471.0000000000005 2641.0000000000005 2469.0000000000005 743.25000000000011 1554.5000000000002 740.75000000000011 2457.0000000000005 2461.0000000000005 735.25000000000011 2703.0000000000005 1514.0000000000002 2471.0000000000005 2057.0000000000005 2557.0000000000005 1900.5000000000002 2471.0000000000005 2079.0000000000005 3253.0000000000005 742.25000000000011 2641.0000000000005 2911.0000000000005 1971.5000000000002 1912.5000000000002 1885.5000000000002 2905.0000000000005 2901.0000000000005 2905.0000000000005 3243.0000000000005 738.25000000000011 1679.5000000000002 2081.0000000000005 763.50000000000011 3227.0000000000005 2209.0000000000005 3243.0000000000005 731.25000000000011 1143.5000000000002 2785.0000000000005 2527.0000000000005 2359.0000000000005 2081.0000000000005 766.25000000000011 2309.0000000000005 715.25000000000011 2791.0000000000005 2799.0000000000005 738.25000000000011 1645.5000000000002 2205.0000000000005 2557.0000000000005 2081.0000000000005 445.25000000000006 2785.0000000000005 2075.0000000000005 797.25000000000011 2911.0000000000005 561.25000000000011 2065.0000000000005 2635.0000000000005 806.25000000000011 2785.0000000000005 1961.5000000000002 2437.0000000000005 275.75000000000006 2081.0000000000005 2901.0000000000005 2525.0000000000005 1885.5000000000002 1524.5000000000002 464.25000000000006 2359.0000000000005 440.25000000000006 796.75000000000011 2333.0000000000005 2525.0000000000005 426.75000000000006 2799.0000000000005 2529.0000000000005 581.25000000000011 1979.0000000000002 632.25000000000011 2085.0000000000005 2205.0000000000005 2323.0000000000005 2042.5000000000002 2527.0000000000005 2359.0000000000005 2529.0000000000005 2343.0000000000005 2525.0000000000005 1139.5000000000002 2213.0000000000005 2469.0000000000005 2309.0000000000005 2225.0000000000005 424.75000000000006 479.25000000000006 2345.0000000000005 2349.0000000000005 398.25000000000006 2309.0000000000005 2517.0000000000005 2557.0000000000005 1523.5000000000002 2527.0000000000005 695.25000000000011 2461.0000000000005 356.25000000000006 532.25000000000011 2523.0000000000005 2899.0000000000005 537.25000000000011 575.25000000000011 2445.0000000000005 2469.0000000000005 830.75000000000011 774.25000000000011 2791.0000000000005 745.25000000000011 1514.5000000000002 2079.0000000000005 774.25000000000011 766.25000000000011 764.25000000000011 475.25000000000006 334.25000000000006 282.25000000000006 2469.0000000000005 370.25000000000006 2065.0000000000005 855.50000000000011 583.25000000000011 2593.0000000000005 2451.0000000000005 2557.0000000000005 264.25000000000006 2791.0000000000005 2559.0000000000005 293.25000000000006 445.25000000000006 422.75000000000006 2898.0000000000005 554.25000000000011 504.25000000000006 1222.5000000000002 2793.0000000000005 588.75000000000011 2333.0000000000005 484.25000000000006 2525.0000000000005 2213.0000000000005 846.25000000000011 713.75000000000011 647.25000000000011 1514.0000000000002 837.25000000000011 715.25000000000011 2791.0000000000005 767.25000000000011 612.75000000000011 625.25000000000011 2465.0000000000005 478.25000000000006 561.25000000000011 2525.0000000000005 2225.0000000000005 2705.0000000000005 2463.0000000000005 336.25000000000006 674.25000000000011 550.75000000000011 516.25000000000011 774.25000000000011 695.25000000000011 569.25000000000011 2217.0000000000005 503.25000000000006 1950.5000000000002 2075.0000000000005 2085.0000000000005 1201.5000000000002 2527.0000000000005 679.75000000000011 669.25000000000011 455.25000000000006 2469.0000000000005 1961.5000000000002 1723.5000000000002 629.25000000000011 917.50000000000011 582.25000000000011 2553.0000000000005 837.25000000000011 333.25000000000006 743.25000000000011 563.25000000000011 574.75000000000011 2225.0000000000005 2597.0000000000005 2529.0000000000005 1133.5000000000002 640.25000000000011 668.25000000000011 1961.5000000000002 2785.0000000000005 1222.5000000000002 587.75000000000011 251.75000000000003 1436.5000000000002 435.75000000000006 452.25000000000006 469.25000000000006 341.25000000000006 253.25000000000003 704.25000000000011 1568.5000000000002 809.25000000000011 695.25000000000011 475.25000000000006 568.25000000000011 532.25000000000011 526.25000000000011 602.25000000000011 1665.0000000000002 2079.0000000000005 336.25000000000006 1987.5000000000002 492.25000000000006 747.25000000000011 642.25000000000011 680.25000000000011 578.25000000000011 2793.0000000000005 745.25000000000011 815.25000000000011 1514.5000000000002 587.75000000000011 2521.0000000000005 2557.0000000000005 2069.0000000000005 2213.0000000000005 2527.0000000000005 854.75000000000011 1878.5000000000002 700.25000000000011 681.25000000000011 843.25000000000011 744.25000000000011 855.50000000000011 334.25000000000006 419.75000000000006 495.25000000000006 1892.5000000000002 634.25000000000011 523.25000000000011 482.25000000000006 217.25000000000003 482.25000000000006 731.25000000000011 1639.0000000000002 679.25000000000011 403.75000000000006 1891.5000000000002 248.25000000000003 513.25000000000011 2521.0000000000005 906.25000000000011 2105.0000000000005 352.75000000000006 563.25000000000011 465.25000000000006 642.25000000000011 569.25000000000011 2341.0000000000005 2085.0000000000005 2593.0000000000005 2225.0000000000005 796.75000000000011 773.50000000000011 499.25000000000006 1289.5000000000002 220.75000000000003 475.25000000000006 238.25000000000003 487.25000000000006 612.25000000000011 685.75000000000011 1289.5000000000002 644.25000000000011 594.25000000000011 773.50000000000011 567.25000000000011 557.25000000000011 855.50000000000011 318.25000000000006 566.25000000000011 2221.0000000000005 568.25000000000011 2079.0000000000005 632.25000000000011 468.25000000000006 2561.0000000000005 679.25000000000011 248.25000000000003 1289.5000000000002 407.25000000000006 714.25000000000011 1575.5000000000002 759.25000000000011 2633.0000000000005 574.25000000000011 928.50000000000011 640.25000000000011 920.25000000000011 715.25000000000011 797.25000000000011 699.50000000000011 651.25000000000011 755.75000000000011 744.25000000000011 843.25000000000011 443.75000000000006 797.25000000000011 1222.5000000000002 843.25000000000011 623.75000000000011 537.25000000000011 964.50000000000011 634.25000000000011 563.25000000000011 263.25000000000006 537.25000000000011 629.25000000000011 632.25000000000011 766.25000000000011 738.50000000000011 504.25000000000006 790.50000000000011 860.50000000000011 482.25000000000006 617.25000000000011 411.25000000000006 474.25000000000006 295.25000000000006 854.75000000000011 238.25000000000003 902.25000000000011 592.25000000000011 434.25000000000006 550.25000000000011 434.25000000000006 2085.0000000000005 518.25000000000011 1222.5000000000002 469.25000000000006 650.25000000000011 642.25000000000011 920.25000000000011 810.25000000000011 810.25000000000011 328.25000000000006 195.75000000000003 680.25000000000011 854.75000000000011 1987.5000000000002 781.25000000000011 763.25000000000011 612.75000000000011 714.25000000000011 796.75000000000011 510.25000000000006 323.25000000000006 558.75000000000011 1180.5000000000002 603.25000000000011 377.25000000000006 906.25000000000011 802.25000000000011 1146.5000000000002 860.50000000000011 353.75000000000006 546.25000000000011 2201.0000000000005 358.25000000000006 2059.0000000000005 545.25000000000011 2525.0000000000005 1575.5000000000002 358.75000000000006 443.25000000000006 2641.0000000000005
decision_type=2 2 2 2 2 2 2 2 2 2 2 2 2 2 2 2 2 2 2 2 2 2 2 2 2 2 2 2 2 2 2 2 2 2 2 2 2 2 2 2 2 2 2 2 2 2 2 2 2 2 2 2 2 2 2 2 2 2 2 2 2 2 2 2 2 2 2 2 2 2 2 2 2 2 2 2 2 2 2 2 2 2 2 2 2 2 2 2 2 2 2 2 2 2 2 2 2 2 2 2 2 2 2 2 2 2 2 2 2 2 2 2 2 2 2 2 2 2 2 2 2 2 2 2 2 2 2 2 2 2 2 2 2 2 2 2 2 2 2 2 2 2 2 2 2 2 2 2 2 2 2 2 2 2 2 2 2 2 2 2 2 2 2 2 2 2 2 2 2 2 2 2 2 2 2 2 2 2 2 2 2 2 2 2 2 2 2 2 2 2 2 2 2 2 2 2 2 2 2 2 2 2 2 2 2 2 2 2 2 2 2 2 2 2 2 2 2 2 2 2 2 2 2 2 2 2 2 2 2 2 2 2 2 2 2 2 2 2 2 2 2 2 2 2 2 2 2 2 2 2 2 2 2 2 2 2 2 2 2 2 2 2 2 2 2 2 2 2 2 2 2 2 2 2 2 2 2 2 2 2 2 2 2 2 2 2 2 2 2 2 2 2 2 2 2 2 2 2 2 2 2 2 2 2 2 2 2 2 2 2 2 2 2 2 2 2 2 2 2 2 2 2 2 2 2 2 2 2 2 2 2 2 2 2 2 2 2 2 2 2 2 2 2 2 2 2 2 2 2 2 2 2 2 2 2 2 2 2 2 2 2 2 2 2 2 2 2 2 2 2 2 2 2 2 2 2 2 2 2 2 2 2 2 2 2 2 2 2 2 2 2 2 2 2 2 2 2 2
left_child=12 10 15 5 30 7 28 9 16 13 35 44 25 14 18 42 22 52 -4 37 40 98 168 75 -25 50 -24 73 -6 -7 -5 90 -16 49 94 55 71 54 48 45 -10 121 80 104 57 46 272 -23 125 -15 63 74 68 159 66 166 69 60 78 169 -12 165 -42 85 127 -66 87 88 -17 140 108 -37 139 77 -40 -22 119 280 144 126 105 133 102 103 100 138 -75 190 -55 171 233 -90 93 -93 95 303 -73 -50 210 -100 101 186 111 -84 -44 214 -94 -92 -71 154 128 -83 223 -72 -115 160 -48 118 -61 225 -102 206 -76 -70 -85 237 179 185 153 155 -131 205 197 142 135 -135 187 199 170 -18 157 -86 263 184 145 -58 275 316 149 150 204 -124 193 177 -91 -130 -123 -57 221 245 189 162 -59 178 -149 180 229 -168 -8 -60 202 172 274 -171 -97 -136 358 -68 -148 224 181 238 -49 239 -96 222 -19 196 -88 215 253 209 -79 -47 195 -169 -112 -121 -146 -138 -134 250 232 317 -45 -111 -30 243 -119 -192 -21 212 264 -139 -3 -78 -205 220 278 -155 368 -114 242 241 270 262 227 228 271 281 -53 -189 -1 -11 -178 -159 355 247 304 -69 -165 -89 -56 -172 -163 -13 -224 378 -249 259 315 -202 324 310 301 -160 257 -222 -193 273 -199 -204 307 -82 -212 266 348 347 -207 285 -27 -181 -31 345 -38 276 -117 -258 279 -219 -9 350 283 -283 312 329 287 380 352 343 -110 377 -269 295 -295 -162 308 -240 320 354 -301 -216 338 -32 -52 -256 -226 -65 -196 -191 -14 337 -227 360 334 326 -143 -183 -225 -287 332 -308 -164 -293 356 -197 341 -267 -291 344 -304 363 -228 351 376 -277 -209 -275 389 340 -272 -63 -339 -290 -167 374 395 -254 392 -284 -2 -229 -140 -321 -300 393 -182 -230 -125 -336 383 -150 -264 -317 -335 -350 -332 -333 -87 -341 -255 372 -329 -323 379 -376 -315 -220 -39 -81 382 -328 -251 -288 -280 -385 -384 -322 -347 394 -391 -352 -203 -173 -128 397 -396 -247
right_child=1 2 3 4 6 29 8 27 20 31 11 53 19 33 32 17 72 84 -20 21 23 47 26 24 -26 79 -28 -29 41 39 34 -33 -34 -35 -36 36 89 38 51 -41 62 -43 43 148 -46 152 116 182 97 -51 61 230 -54 67 64 56 58 161 59 117 -62 201 -64 76 65 -67 110 183 123 70 113 96 -74 86 122 -77 115 192 -80 249 81 82 83 124 141 217 188 112 91 109 107 92 106 -95 143 174 -98 -99 99 -101 120 -103 -104 -105 -106 -107 -108 -109 290 131 136 -113 158 114 -116 146 -118 208 -120 132 -122 156 151 176 -126 -127 302 -129 129 130 -132 -133 200 134 175 -137 137 213 288 -141 -142 147 -144 -145 198 -147 163 164 361 -151 -152 -153 -154 219 -156 -157 -158 235 255 -161 293 244 322 240 -166 269 167 194 -170 173 207 236 -174 -175 -176 -177 234 -179 -180 226 252 203 -184 -185 -186 -187 -188 231 -190 309 191 258 -194 -195 296 325 -198 260 -200 -201 251 265 261 216 -206 268 -208 336 -210 -211 211 -213 -214 -215 254 -217 -218 218 291 -221 256 -223 246 318 306 284 298 333 357 -231 -232 -233 -234 -235 -236 -237 -238 -239 297 -241 -242 -243 -244 -245 -246 346 -248 248 -250 286 -252 -253 267 370 305 -257 277 -259 -260 -261 -262 -263 362 -265 -266 327 -268 292 -270 -271 339 -273 -274 311 -276 335 -278 -279 384 -281 -282 282 349 -285 -286 319 313 -289 289 328 -292 323 -294 294 -296 -297 -298 -299 299 300 -302 -303 330 -305 -306 -307 321 -309 -310 -311 -312 -313 -314 314 -316 331 -318 -319 -320 353 387 373 -324 -325 -326 -327 381 371 -330 -331 366 367 -334 364 359 -337 -338 342 -340 369 -342 -343 -344 -345 -346 388 -348 -349 365 -351 391 -353 -354 -355 -356 -357 -358 -359 -360 -361 -362 -363 -364 -365 -366 -367 -368 -369 -370 -371 -372 -373 -374 -375 375 -377 -378 -379 -380 -381 -382 -383 386 385 -386 -387 -388 -389 -390 390 -392 -393 -394 -395 396 -397 -398 -399
leaf_value=16.510532305583677 30.655808155796581 74.949766207114777 153.2432334662517 257.51241694964062 190.5661324664656 265.17943656078421 472.32563701935817 627.47311816649494 272.89089568368297 612.02770261548528 273.08411254982138 59.097261368129956 30.228001629060316 653.58818275800343 578.35715476623113 420.67507354199705 643.29087104786061 48.386940161943997 456.47512357278714 56.445031770950649 169.73305392249966 299.37164235076028 135.39165249312416 257.19231214939964 406.07991074671202 26.998975158466706 306.67828393570898 205.20224119306005 651.52419594982143 665.06870707102871 650.5871647946833 178.86770001631589 142.7946507997099 161.85831650633537 271.26247103605482 282.34945052850543 23.166469046375404 32.973481617856493 173.72026480481605 277.31920384500302 655.28376438477335 331.17568755729309 530.50941339311623 45.801524287704467 261.25519220781882 628.99607624259477 457.23673805041943 631.39097327661705 350.98951578804247 459.85264568230673 23.666150638100575 103.84856317312928 266.12877913032554 83.482263273029815 59.928439086723209 138.52813287694937 26.501787789471113 579.84530461766258 201.7819516202681 52.0524662070098 566.49110878047225 43.765336961594969 433.08519724375662 21.863854563561638 300.12221021354145 27.710058837264803 48.55318130766932 90.351386018694825 521.88818134368921 153.85447302115591 178.36513703421912 555.88492177568696 387.94278981774767 550.1560008523744 277.59121432771047 63.891624801616977 32.275496882049211 463.3767327630178 189.88009120706789 61.948696592100305 41.456532553106513 131.47256761661006 157.92933626662284 174.73887067507013 192.29336374376675 18.645556760477319 661.1345916114783 56.212168535066056 375.89152356815208 119.94157425447065 661.26302555417624 174.57161653510053 101.29925182574412 375.81701121902694 630.06078823144037 518.3169849705647 367.67156113146609 163.67441121249379 301.83034262545425 98.036611185240176 369.08895091237662 292.38382672960159 172.9461982390423 278.97013604950871 339.50095607225694 176.11972609041186 249.29490916879251 515.55033587403329 18.084751697652816 104.43989274250147 94.605095171056831 29.763511587470422 59.662303632262322 225.45456402538878 376.50981157522301 49.366331729781507 598.16137988609421 33.180188553797215 257.42864837061671 50.485320287280246 213.03811564272138 587.33846529179175 345.57301867233826 679.08087132095568 53.192076996417505 163.93447056474395 20.428411169382748 110.14038490171617 53.185483278948226 69.757268793920076 46.49811748987608 162.40301056374989 97.364741922233677 215.0176507455966 204.64476730262703 71.720265495959325 33.539648937697955 84.009492578336307 18.696489486031314 529.46352536192535 159.94771215348641 59.132302954253319 190.00034832248366 608.9673526809097 80.679515966192099 165.54995422633692 49.53484829661393 187.35972000784255 34.985573501087693 203.3216945818059 196.02782324121091 456.19700963113644 612.08743076924338 62.185757514245282 230.24597433871389 80.899734697014154 664.49385251785895 38.001947533934029 46.550747282370423 126.6838864397083 64.267509641350216 606.66737590173989 711.6593584366633 28.826967202478532 86.165776197170288 40.270789157841691 140.0371195092271 142.55758647408601 570.12011089938392 239.69302114008605 20.124986390857757 22.194784890614812 186.25425762156726 337.443865562648 593.9618705639524 288.95430102369801 624.67999770821996 69.986374575840358 19.087923376329229 30.191567544672552 30.95659824492073 58.375245675133094 550.14774053879103 135.46666971940692 692.41720342255553 82.838974592533575 131.56270302669725 23.984482647712209 699.5319703946908 75.320085952886814 59.694912472583994 88.004747484155445 539.3430973986741 687.14892008611287 37.959357491997089 22.703642632493217 38.580282722309711 91.370551684399373 23.742824438987899 89.674520476297886 41.255012364539333 79.554819700381529 28.266304336105993 89.161523594925342 99.793656573747128 26.063056631368557 702.74212286572799 17.514814329925041 79.569434816273684 118.72771182747994 123.96865873154611 51.83360700796338 167.58344551891031 149.00797907032876 47.213682398980765 19.38640287853233 38.043415017821509 56.379527119982662 40.753818893126386 79.291617380224039 54.726475436900607 24.511233950462792 19.224249624366905 105.9667368036926 50.08246974234924 50.792054398394207 77.199762532272473 68.467132012309236 76.873412497818151 70.013106104543652 38.695852318290399 69.939789669243879 17.208471155210017 665.11577150443975 561.36827148257828 86.17080589325532 67.888158535025013 83.050116276876992 39.858193048860642 34.181977487938632 48.992563583033103 92.796892601631583 25.706583977905449 26.227636608507002 554.7075687881038 16.346235911101253 51.206975785017896 77.966939819645802 37.487999367087646 93.605825258742499 31.87530552445525 69.084873630549907 35.947751834088777 71.776496822976227 30.783714376461095 70.157953731377305 43.002686604657598 89.173596775462585 59.55717928359747 41.046283491499935 118.10993919361434 20.506696568350495 39.845155116479617 86.953509789104956 83.517712330844915 72.358207677515225 45.642422396009074 27.581265829393626 64.403030150906631 31.992727841989613 53.947971237394086 47.214993610690115 698.21455218401786 91.644873713162426 60.302533564507172 40.453075951251165 84.003474702647225 66.311486813707361 39.06647907999573 92.744635602924276 669.06829632344397 23.959839323376897 18.118881631426262 53.602612513637823 62.994503697824101 79.14012069540054 77.779990618912109 116.71800067999483 47.240482398887494 46.083396518611096 49.852639981068847 26.892003724766944 20.709237627257636 70.67011385205133 34.929569338915094 35.600635003056084 54.819464894301618 68.839196721761411 67.056829994877631 45.479308475881652 62.986569998389626 22.654325861627331 48.733213433942261 683.72479003108447 44.06033885450281 60.974680382768852 41.57736057774116 36.291574530546271 21.188471655338965 51.598230816745847 53.316731033198721 95.081633917713006 35.682355110085005 68.199830652206941 55.243208536873013 68.906687892352338 34.024467800732893 80.430240935656485 80.320217125125595 54.127325406539512 88.557569017666154 21.202975841173171 678.07647685425184 43.993331184225489 54.982305817104226 48.578160729295682 60.215326482975847 88.124289211196839 32.86770584202219 61.155652062587109 22.880844611557315 84.922080754176619 65.586126488321355 58.176346637587031 73.574448089827598 59.032523570398538 25.109264728508258 72.073442614801792 34.610649010278678 43.750194081265292 72.316846681491086 61.837703025101113 78.917449965215582 60.002821586125656 54.998155012222696 78.984645879042503 34.167305328268974 53.457183526618849 63.393020033333215 26.268154664825698 16.747781639958433 83.977207919819122 35.753868656052283 70.594503759197693 78.142430708795644 31.787909162916758 46.370613128641047 62.188157286019575 651.48335679317358 83.697759704872766 94.049190949449354 51.982868374650288 54.43809789286064 52.366251349622843 64.841072307663154 78.18374996094505 37.326240421210429 71.997072036105692 32.220598450211853 58.216045437729456 86.745747248405905 96.573476533493604 78.210231775072543 31.692148520909864 64.844981568516857 51.464840512316457 76.34534009538686 53.270773994643221 21.725127829400556 73.204665237716284 94.716177925245887 73.708754695309096 79.671510653307621 84.266454008388649 50.151376529267061 92.63027474651345 86.361164074832473 78.540580205528215 69.671005061956578 18.301658337219628 29.124340339321165 21.78073026331516 86.77260487912767 17.316073531973728 16.660734186174448 20.759460416820261 18.008913024249562 17.128112710780002
leaf_weight=9612223 579 725 41783 777 734 913 551 611 725 550 564 809 617 2714 3857 746 715 603 3934 894 2519 845 75186 62562 15252 529 5986 829 870 1845 594 719 681 718 581 640 872 529 650 546 2267 580 747 766 633 642 2721 984 631 2520 9806 546 561 747 1396 590 828 633 584 1418 807 1013 616 9914 581 684 10612 630 888 957 1003 966 797 1003 816 3899 44425 845 663 857 529 1070 1577 543 676 882 3112 8055 550 559 699 1075 1342 960 677 911 568 829 669 548 556 526 677 1663 573 578 788 1908 1563 592 903 15567 1172 1054 942 699 559 3814 695 708 849 1450 772 571 7076 526 806 925 8190 21010 50343 924 711 536 641 1210 2594 534 908 1580 736 744 548 968 590 651 2709 632 538 681 550 754 959 5553 1039 18128 1505 2747 4172 538 811 908 632 31321 791 1446 645 547 842 556 41370 538 580 608 1089 977 662 12115 427554 4221 1101 620 636 773 12680 597 717 13332 3240 922 585 1016 596 13290 1906 580 1787 1521 16623 752 7466 569 13718 621 2765 932 3923 92629 979 2375 586 554 568 1079 642 11226 6101 1535 964 40673 1351 42364 52249 646 725 1638 1803 1842 874 571 535 561 3031956 2206 531 553 624 548 1756 550 2424 726 1672 56424 605 528 812 1210 5070 614 845 1159 866 547 624 1832 2821 1242 3700 582 1994 39014 1055 619 807 956 683 13327 543 841 959 2689 791 550 549 1134 1040 1223 768 652 732 4353 8058 3234 934 960 969 620 3940 1375 529 11070 22489 3031 565 1142 621 627 1530 1731 5075 8080 654 1653 887 897 736 1909 2676 1098 3587 865 4022 1284 541 526 691 1759 642 913 690 2593 579 681 782 536 594 5133 3568 1009 778 536 3163 2463 986 624 2313 4347 532 563 1152 537 5537 828 788 600 539 538 695 1821 7168 526 531 542 1445 752 576 804 574 4458 962 539 540 586 5316 674 595 1682 586 621 562 588 1470 671 967 718 2791 526 1982 826 726 538 1240 2912 549 603 1953 656 1000 634 525 636 597 1282 3045 751 525 530
leaf_count=9612223 579 725 41783 777 734 913 551 611 725 550 564 809 617 2714 3857 746 715 603 3934 894 2519 845 75186 62562 15252 529 5986 829 870 1845 594 719 681 718 581 640 872 529 650 546 2267 580 747 766 633 642 2721 984 631 2520 9806 546 561 747 1396 590 828 633 584 1418 807 1013 616 9914 581 684 10612 630 888 957 1003 966 797 1003 816 3899 44425 845 663 857 529 1070 1577 543 676 882 3112 8055 550 559 699 1075 1342 960 677 911 568 829 669 548 556 526 677 1663 573 578 788 1908 1563 592 903 15567 1172 1054 942 699 559 3814 695 708 849 1450 772 571 7076 526 806 925 8190 21010 50343 924 711 536 641 1210 2594 534 908 1580 736 744 548 968 590 651 2709 632 538 681 550 754 959 5553 1039 18128 1505 2747 4172 538 811 908 632 31321 791 1446 645 547 842 556 41370 538 580 608 1089 977 662 12115 427554 4221 1101 620 636 773 12680 597 717 13332 3240 922 585 1016 596 13290 1906 580 1787 1521 16623 752 7466 569 13718 621 2765 932 3923 92629 979 2375 586 554 568 1079 642 11226 6101 1535 964 40673 1351 42364 52249 646 725 1638 1803 1842 874 571 535 561 3031956 2206 531 553 624 548 1756 550 2424 726 1672 56424 605 528 812 1210 5070 614 845 1159 866 547 624 1832 2821 1242 3700 582 1994 39014 1055 619 807 956 683 13327 543 841 959 2689 791 550 549 1134 1040 1223 768 652 732 4353 8058 3234 934 960 969 620 3940 1375 529 11070 22489 3031 565 1142 621 627 1530 1731 5075 8080 654 1653 887 897 736 1909 2676 1098 3587 865 4022 1284 541 526 691 1759 642 913 690 2593 579 681 782 536 594 5133 3568 1009 778 536 3163 2463 986 624 2313 4347 532 563 1152 537 5537 828 788 600 539 538 695 1821 7168 526 531 542 1445 752 576 804 574 4458 962 539 540 586 5316 674 595 1682 586 621 562 588 1470 671 967 718 2791 526 1982 826 726 538 1240 2912 549 603 1953 656 1000 634 525 636 597 1282 3045 751 525 530
internal_value=25.7375 244.284 284.627 318.905 284.325 392.206 245.301 322.001 226.365 272.206 100.046 265.448 18.5246 241.541 209.472 123.135 167.671 304.721 179.34 57.5335 283.6 253.112 154.497 272.591 286.377 17.5478 148.024 604.775 607.826 623.179 641.773 555.573 513.007 512.283 657.358 67.8323 147.681 53.3944 120.925 638.482 540.577 644.594 83.5637 166.969 536.012 647.956 567.685 496.736 73.6448 560.343 17.2506 252.374 529.643 134.879 50.1416 54.6802 75.9174 572.778 57.5446 105.587 445.877 40.8007 607.858 17.0994 25.7567 152.864 55.651 179.471 566.839 124.126 160.931 426.293 519.41 637.439 317.669 105.438 23.2797 569.928 36.0629 62.9052 70.2285 81.2829 67.639 109.071 154.436 16.8296 662.968 41.2689 210.595 85.7754 606.065 230.728 211.533 269.549 669.432 620.726 486.281 244.685 123.271 210.108 204.13 150.265 41.6522 220.075 447.691 38.4095 156.076 554.693 66.222 125.86 61.1998 36.3068 34.7488 257.204 296.789 21.9058 481.308 66.2122 119.629 44.9999 274.857 668.042 357.594 600.596 61.8606 48.3249 51.4928 22.967 63.8693 58.4476 53.347 90.6759 63.9888 157.242 183.022 115.738 40.5517 72.6244 16.7828 565.008 76.0017 108.709 106.089 683.858 30.6043 87.7227 20.3668 88.9218 103.487 117.053 102.644 400.312 679.834 71.5489 191.687 72.2757 626.7 60.1091 28.8875 45.3892 33.286 624.559 656.087 20.0793 131.136 32.1914 30.4684 49.3527 531.55 261.114 16.7622 50.3766 80.6493 290.824 559.591 255.596 630.417 59.979 19.2796 56.6323 29.8522 38.3063 599.606 92.409 689.271 21.545 93.5813 30.9598 680.753 30.823 71.19 81.6478 494.905 684.483 40.8287 70.4839 57.3931 97.1502 25.6954 46.1607 48.9867 73.0958 16.7022 51.1137 88.0837 58.5958 693.488 20.7169 42.6585 107.066 92.2566 104.981 119.989 127.506 31.1482 29.6755 42.7687 41.1284 35.8059 77.237 52.124 25.4578 20.8927 63.5855 41.3283 32.1336 60.3887 54.9742 43.2717 25.0996 71.6172 25.8411 16.6779 654.591 596.653 46.079 31.4195 41.8088 29.3918 64.1802 30.2757 59.2393 41.2802 23.646 586.008 31.5265 19.7138 39.236 45.2896 78.5656 60.3091 44.9962 25.127 56.0786 28.0464 53.756 58.3301 71.2319 65.6897 73.4304 106.546 22.5253 26.6424 65.9988 100.553 80.8094 69.9366 23.9981 40.1827 54.454 54.9536 36.8169 675.096 74.5887 37.5185 58.5108 70.0879 50.0545 58.3851 67.2292 650.294 24.1069 26.9947 36.5959 43.307 57.792 82.7529 90.4616 40.5768 42.8862 26.1203 29.8301 23.2663 58.8819 65.0559 47.5092 31.348 47.4883 66.6914 62.7677 58.535 24.4628 23.9493 675.056 25.3584 48.5923 30.3 24.1937 28.1651 62.4319 49.9287 78.1466 40.0563 80.1898 77.1631 64.305 47.0466 74.6876 93.2002 67.7774 72.7692 26.7127 695.781 27.8835 42.2128 35.1338 57.0464 85.1021 36.545 50.3527 35.4657 70.1475 69.8058 64.8778 78.4079 47.0527 17.6998 76.7405 20.1013 59.441 63.9777 50.0328 75.9091 49.4589 45.4691 66.494 22.0237 42.662 76.4788 19.621 18.0902 71.9198 24.9916 60.2701 72.4464 22.5675 36.2538 69.8455 665.426 81.8672 85.7775 43.4974 44.7905 60.2005 62.7323 70.6856 29.1421 75.1287 24.0647 51.3442 79.3779 86.7941 85.9198 23.3597 63.3164 59.1496 73.7823 45.1776 24.0955 67.4811 86.8642 66.6401 85.3611 83.9981 43.6921 85.7073 83.769 83.6894 73.1737 18.7063 23.2037 17.1578 83.2663 18.7574 17.5154 18.4046 16.8583 16.7352
internal_weight=0 462313 361268 298012 202489 95523 182559 73257 173497 62289 101045 16471 1.40077e+07 56207 50255 63256 85657 11318 45717 342169 87840 7091 82565 84232 77814 1.36655e+07 81172 10968 9062 22266 19930 6082 4538 5952 19153 84574 11960 335078 15398 21353 3608 8328 51938 7159 5361 20807 5916 2465 11325 5234 1.35765e+07 4073 4533 11110 319680 72614 38683 4728 28009 8654 1371 86577 2883 1.34899e+07 58916 1265 260764 7415 3972 10674 6048 2174 3092 10139 2992 6418 564296 2784 19355 88979 44779 33233 28173 10859 6785 1.29256e+07 7355 72598 5462 9786 5363 4715 4165 2035 18572 4247 1534 1460 4626 1217 3251 1846 17314 3240 1320 11546 2130 2607 3049 4589 188166 16637 59609 2999 1996 530725 3280 6906 2113 33571 1405 7748 2342 3226 7619 9865 51471 57651 166624 97671 71353 2991 13559 5060 3364 1746 21542 4959 1.29008e+07 2295 4626 3534 1696 14325 18692 1479 467505 2858 5839 4762 4081 1526 14891 68953 1598 26318 2955 3890 49540 3695 63220 3357 1844 464008 1423 68355 33931 7511 1393 1748 1.28896e+07 5197 2001 1164 2000 1618 2338 22727 430263 43377 61856 22177 1620 1953 13357 56726 1320 16583 6352 57671 12989 7676 1441 13932 6866 1663 2690 4223 17213 3346 9336 18222 1.26969e+07 9101 3531 2067 4793 192736 4793 2960 3409 2515 1961 1613 10968 55651 6722 24850 16745 46226 8105 43536 56129 10069 8549 20012 34828 18735 8588 26420 1081 13893 1.26442e+07 2756 1193 3300 3196 9339 13076 1180 33745 8781 3068 97794 1513 3157 53061 8791 6280 37508 6857 8625 39679 5313 10243 6004 6637 2593 4716 16849 3515 52732 13418 1148 1393 11365 3218 37220 1475 6499 3824 6910 2636 16267 1421 3497 1739 4044 3504 2187 1343 25849 17466 7587 6594 5658 20659 5153 11150 9711 2092 13241 35816 5549 3596 1953 5203 2383 16093 9781 6806 8722 8094 2247 10693 1521 4725 11823 4582 2020 4204 11299 5660 15506 10060 6012 1435 2379 1288 2415 6312 4000 1211 11751 2459 1116 2682 8147 4943 3243 2027 3330 4966 10147 9519 1758 94942 10434 6067 3295 2111 1550 9884 4768 2234 4968 2348 1404 2535 9879 8383 2368 1439 1455 2975 2572 1677 1678 1145 5444 5446 1077 1595 1112 7779 1369 1373 2218 1468 1184 1109 7191 6603 3264 3368 1685 4075 1490 2511 1683 4533 1132 3807 4484 1317 3515 3193 1346 1600 5535 1159 7804 1166 1820 4376 1809 3570 1058
internal_count=14469981 462313 361268 298012 202489 95523 182559 73257 173497 62289 101045 16471 14007668 56207 50255 63256 85657 11318 45717 342169 87840 7091 82565 84232 77814 13665499 81172 10968 9062 22266 19930 6082 4538 5952 19153 84574 11960 335078 15398 21353 3608 8328 51938 7159 5361 20807 5916 2465 11325 5234 13576520 4073 4533 11110 319680 72614 38683 4728 28009 8654 1371 86577 2883 13489943 58916 1265 260764 7415 3972 10674 6048 2174 3092 10139 2992 6418 564296 2784 19355 88979 44779 33233 28173 10859 6785 12925647 7355 72598 5462 9786 5363 4715 4165 2035 18572 4247 1534 1460 4626 1217 3251 1846 17314 3240 1320 11546 2130 2607 3049 4589 188166 16637 59609 2999 1996 530725 3280 6906 2113 33571 1405 7748 2342 3226 7619 9865 51471 57651 166624 97671 71353 2991 13559 5060 3364 1746 21542 4959 12900797 2295 4626 3534 1696 14325 18692 1479 467505 2858 5839 4762 4081 1526 14891 68953 1598 26318 2955 3890 49540 3695 63220 3357 1844 464008 1423 68355 33931 7511 1393 1748 12889647 5197 2001 1164 2000 1618 2338 22727 430263 43377 61856 22177 1620 1953 13357 56726 1320 16583 6352 57671 12989 7676 1441 13932 6866 1663 2690 4223 17213 3346 9336 18222 12696911 9101 3531 2067 4793 192736 4793 2960 3409 2515 1961 1613 10968 55651 6722 24850 16745 46226 8105 43536 56129 10069 8549 20012 34828 18735 8588 26420 1081 13893 12644179 2756 1193 3300 3196 9339 13076 1180 33745 8781 3068 97794 1513 3157 53061 8791 6280 37508 6857 8625 39679 5313 10243 6004 6637 2593 4716 16849 3515 52732 13418 1148 1393 11365 3218 37220 1475 6499 3824 6910 2636 16267 1421 3497 1739 4044 3504 2187 1343 25849 17466 7587 6594 5658 20659 5153 11150 9711 2092 13241 35816 5549 3596 1953 5203 2383 16093 9781 6806 8722 8094 2247 10693 1521 4725 11823 4582 2020 4204 11299 5660 15506 10060 6012 1435 2379 1288 2415 6312 4000 1211 11751 2459 1116 2682 8147 4943 3243 2027 3330 4966 10147 9519 1758 94942 10434 6067 3295 2111 1550 9884 4768 2234 4968 2348 1404 2535 9879 8383 2368 1439 1455 2975 2572 1677 1678 1145 5444 5446 1077 1595 1112 7779 1369 1373 2218 1468 1184 1109 7191 6603 3264 3368 1685 4075 1490 2511 1683 4533 1132 3807 4484 1317 3515 3193 1346 1600 5535 1159 7804 1166 1820 4376 1809 3570 1058
shrinkage=1


Tree=1
num_leaves=368
num_cat=0
split_feature=9 0 18 3 2 2 1 1 3 1 2 0 8 2 0 4 2 5 6 0 17 3 10 9 0 17 17 5 9 2 3 5 2 0 17 1 0 2 2 11 3 1 9 8 17 16 2 2 16 10 7 8 1 2 8 4 18 3 4 18 12 0 11 12 7 18 6 9 16 17 15 6 13 1 7 18 18 1 9 3 17 7 7 3 9 15 13 9 17 0 18 8 4 1 8 17 8 18 8 17 17 0 16 1 7 9 11 9 3 0 8 12 0 10 1 0 8 4 8 18 17 6 9 18 0 17 3 4 15 10 10 17 9 11 1 18 12 13 13 0 18 18 16 18 0 6 17 15 18 7 11 10 1 8 7 8 1 4 9 18 2 7 3 17 14 0 1 7 14 1 2 18 17 11 10 17 10 11 2 7 3 7 3 7 18 5 10 16 13 0 0 17 16 18 7 17 10 15 3 18 8 6 7 16 5 11 8 17 15 11 18 0 1 1 1 0 16 17 2 16 6 0 0 5 6 6 14 11 2 7 17 8 0 16 14 10 17 8 7 3 7 4 1 16 15 14 11 3 17 7 7 15 8 1 11 7 15 18 11 4 4 1 6 9 18 17 10 7 1 10 7 7 17 2 8 12 8 6 16 6 7 4 16 17 11 10 11 4 11 1 15 5 2 16 6 5 6 10 17 4 0 1 6 5 14 6 18 5 11 6 10 4 6 1 18 7 15 6 2 13 8 8 5 14 3 5 8 0 17 5 8 1 0 3 1 9 6 0 15 16 11 17 1 10 18 15 18 2 11 15 7 5 12 1 4 11 9 15 18 14 3 5 4 11 12 4 1
split_gain=6.80429e+10 8.0387e+09 5.97962e+09 2.59228e+09 7.70084e+09 4.29766e+09 3.24526e+09 3.17524e+09 2.51392e+09 1.63505e+09 1.86038e+09 1.60521e+09 1.60317e+09 1.54541e+09 1.44529e+09 1.24104e+09 1.21206e+09 1.11125e+09 1.03894e+09 9.04963e+08 8.69273e+08 1.06989e+09 8.34336e+08 6.49238e+08 6.40096e+08 6.28911e+08 7.38691e+08 5.75003e+08 5.60381e+08 5.55674e+08 5.4298e+08 4.66547e+08 3.84132e+08 3.5508e+08 3.48356e+08 3.45165e+08 2.9878e+08 2.98233e+08 7.2005e+08 2.34373e+08 2.31841e+08 2.21815e+08 2.10078e+08 2.07449e+08 3.48821e+08 2.55261e+08 1.9628e+08 1.9058e+08 1.89938e+08 1.86247e+08 1.61543e+08 1.53976e+08 1.47413e+08 1.37075e+08 1.36268e+08 1.36031e+08 1.32367e+08 1.32005e+08 1.2022e+08 1.14452e+08 1.96195e+08 1.20514e+08 2.61926e+08 1.02728e+08 9.87651e+07 9.4793e+07 9.2934e+07 8.6366e+07 1.19835e+08 1.96388e+08 1.39302e+08 8.2573e+07 7.82127e+07 9.18296e+07 7.81727e+07 7.78239e+07 9.20989e+07 1.64841e+08 7.37126e+07 7.36621e+07 7.27087e+07 7.14059e+07 7.13549e+07 7.00576e+07 6.69616e+07 6.37261e+07 6.13351e+07 5.77262e+07 1.13085e+08 6.0296e+07 5.7121e+07 5.66747e+07 5.50247e+07 5.39943e+07 5.10114e+07 5.02797e+07 5.01493e+07 5.98527e+07 4.96292e+07 5.71729e+07 4.71766e+07 4.69972e+07 4.35293e+07 4.17534e+07 4.16084e+07 4.0473e+07 1.27479e+08 8.92634e+07 7.23523e+07 6.62129e+07 4.95413e+07 3.99307e+07 3.90757e+07 9.70511e+07 7.29934e+07 3.69432e+07 3.60947e+07 3.54981e+07 3.41842e+07 3.41706e+07 3.24845e+07 3.3078e+07 3.08648e+07 3.03885e+07 3.02816e+07 3.01792e+07 2.7422e+07 2.02929e+08 2.71198e+07 2.55499e+07 2.50932e+07 2.49864e+07 2.48871e+07 2.44309e+07 2.29692e+07 2.2613e+07 2.25217e+07 4.08592e+07 2.40273e+07 2.09358e+07 2.04061e+07 2.03131e+07 1.97722e+07 1.89143e+07 1.87908e+07 1.86088e+07 1.77179e+07 1.76057e+07 1.75399e+07 2.38668e+07 1.73266e+07 1.63598e+07 1.54008e+07 1.52774e+07 1.37247e+07 1.57188e+07 1.37246e+07 1.34891e+07 1.32469e+07 1.47571e+07 1.6071e+07 1.30442e+07 1.29473e+07 1.28026e+07 1.26358e+07 1.26034e+07 1.30574e+07 1.24725e+07 1.24421e+07 1.24791e+07 1.1765e+07 1.12705e+07 1.86016e+07 1.9638e+07 1.55285e+07 1.48696e+07 1.12029e+07 1.10833e+07 1.08905e+07 1.05804e+07 1.01667e+07 9.7394e+06 9.37896e+06 1.09327e+07 9.24816e+06 9.11955e+06 9.04418e+06 8.96747e+06 8.70566e+06 8.48129e+06 8.47118e+06 8.40534e+06 8.26357e+06 7.52927e+06 7.5137e+06 7.50122e+06 2.99323e+07 7.29498e+06 7.26994e+06 6.96624e+06 6.8028e+06 6.7972e+06 1.17282e+07 6.58571e+06 6.54995e+06 6.48266e+06 6.31867e+06 1.57886e+07 7.76993e+06 6.28953e+06 6.24632e+06 5.9888e+06 5.8208e+06 5.70022e+06 5.445e+06 5.42539e+06 5.28986e+06 5.2614e+06 5.16987e+06 5.15738e+06 5.00163e+06 4.92759e+06 7.02198e+06 4.89361e+06 4.86033e+06 4.83832e+06 4.81089e+06 4.8041e+06 4.5187e+06 4.44987e+06 4.44261e+06 4.22554e+06 4.17526e+06 4.17511e+06 3.91947e+06 3.78578e+06 4.85777e+06 3.7846e+06 3.78406e+06 3.96465e+06 3.73792e+06 3.70717e+06 3.64876e+06 3.56117e+06 3.42358e+06 3.39862e+06 3.37232e+06 3.32821e+06 3.30891e+06 3.2038e+06 3.52342e+06 3.15659e+06 3.10498e+06 3.02111e+06 2.86003e+06 2.83997e+06 2.83702e+06 2.79067e+06 2.74747e+06 2.26462e+06 1.04111e+07 3.32981e+06 2.23354e+06 3.87856e+06 3.46535e+06 2.17443e+06 2.16431e+06 4.64685e+06 3.67295e+06 2.2762e+06 2.14778e+06 2.13369e+06 2.08101e+06 2.07019e+06 2.06109e+06 2.01821e+06 1.84709e+06 9.78352e+06 1.84523e+06 1.80104e+06 1.77613e+06 1.76767e+06 1.73904e+06 1.72928e+06 1.72596e+06 1.71648e+06 3.5572e+06 1.69519e+06 1.6527e+06 1.59149e+06 1.53356e+06 1.52287e+06 1.51106e+06 1.3737e+06 1.32305e+06 1.65175e+06 1.50718e+06 1.31563e+06 1.79336e+06 1.30057e+06 1.26721e+06 1.68312e+06 1.24745e+06 1.24325e+06 1.22658e+06 1.20467e+06 1.20265e+06 1.2009e+06 1.18515e+06 1.15734e+06 1.16161e+06 2.13304e+06 1.10136e+06 1.1005e+06 1.09998e+06 1.06087e+06 1.03193e+06 1.02163e+06 1.01654e+06 1.00481e+06 992266 983765 915181 902218 835881 805927 798308 711972 711459 719654 663327 630849 616045 612760 602237 576158 545077 490063 486415 470978 464014 445324 443109 437053 422529 400615 350873 332686 303737 285743 259193 247723 243745 242980 214256 213103 196556 145688 110316 232721 95829.3 72923.2 72454.6 66302 57604.4 29882.3 29401.6
threshold=1975.5000000000002 766.25000000000011 679.25000000000011 2527.0000000000005 2469.0000000000005 2595.0000000000005 2595.0000000000005 2469.0000000000005 2641.0000000000005 773.50000000000011 1554.5000000000002 2591.0000000000005 770.25000000000011 2709.0000000000005 1500.5000000000002 2597.0000000000005 2561.0000000000005 2593.0000000000005 2593.0000000000005 2525.0000000000005 2207.0000000000005 3227.0000000000005 2057.0000000000005 1900.5000000000002 2707.0000000000005 679.75000000000011 1132.5000000000002 2901.0000000000005 774.25000000000011 3205.0000000000005 2915.0000000000005 2901.0000000000005 2898.0000000000005 2899.0000000000005 2629.0000000000005 1976.5000000000002 2899.0000000000005 764.25000000000011 1168.5000000000002 2525.0000000000005 1979.0000000000002 2221.0000000000005 2791.0000000000005 2081.0000000000005 797.25000000000011 790.50000000000011 1893.5000000000002 1554.5000000000002 2199.0000000000005 679.25000000000011 2789.0000000000005 1568.5000000000002 1226.5000000000002 2898.0000000000005 2081.0000000000005 2641.0000000000005 764.25000000000011 2797.0000000000005 2359.0000000000005 2325.0000000000005 2525.0000000000005 358.75000000000006 2589.0000000000005 2635.0000000000005 796.75000000000011 2519.0000000000005 2911.0000000000005 2901.0000000000005 542.25000000000011 539.25000000000011 540.25000000000011 1892.5000000000002 2785.0000000000005 474.25000000000006 2065.0000000000005 2783.0000000000005 2451.0000000000005 206.25000000000003 2349.0000000000005 2097.0000000000005 1512.5000000000002 2709.0000000000005 2709.0000000000005 2097.0000000000005 920.25000000000011 2345.0000000000005 766.25000000000011 517.25000000000011 407.25000000000006 440.25000000000006 529.25000000000011 2461.0000000000005 2359.0000000000005 365.75000000000006 539.25000000000011 1512.5000000000002 2791.0000000000005 621.25000000000011 859.25000000000011 694.75000000000011 372.25000000000006 739.25000000000011 2059.0000000000005 2089.0000000000005 843.25000000000011 2225.0000000000005 2525.0000000000005 2525.0000000000005 2561.0000000000005 475.25000000000006 2081.0000000000005 408.25000000000006 479.25000000000006 2321.0000000000005 445.25000000000006 579.25000000000011 2081.0000000000005 2797.0000000000005 1969.5000000000002 2205.0000000000005 596.25000000000011 614.25000000000011 1222.5000000000002 764.25000000000011 651.75000000000011 844.25000000000011 775.25000000000011 1723.5000000000002 863.50000000000011 1146.5000000000002 1514.5000000000002 763.25000000000011 2901.0000000000005 1159.5000000000002 432.25000000000006 2553.0000000000005 2097.0000000000005 2785.0000000000005 2061.0000000000005 328.25000000000006 2589.0000000000005 543.25000000000011 2059.0000000000005 2519.0000000000005 906.75000000000011 2217.0000000000005 1132.5000000000002 398.25000000000006 435.75000000000006 667.25000000000011 529.25000000000011 2521.0000000000005 920.25000000000011 682.25000000000011 1523.5000000000002 1889.5000000000002 631.25000000000011 2529.0000000000005 718.25000000000011 506.25000000000006 596.25000000000011 2209.0000000000005 683.25000000000011 735.25000000000011 2309.0000000000005 2633.0000000000005 2711.0000000000005 622.25000000000011 2893.0000000000005 2469.0000000000005 603.25000000000011 381.25000000000006 844.25000000000011 849.25000000000011 736.25000000000011 375.25000000000006 2593.0000000000005 1159.5000000000002 714.25000000000011 680.25000000000011 2797.0000000000005 964.50000000000011 2469.0000000000005 2523.0000000000005 580.25000000000011 765.25000000000011 965.50000000000011 629.25000000000011 528.25000000000011 2525.0000000000005 579.25000000000011 1132.5000000000002 790.50000000000011 587.75000000000011 1523.5000000000002 2323.0000000000005 2521.0000000000005 2225.0000000000005 775.25000000000011 764.25000000000011 525.25000000000011 2341.0000000000005 2523.0000000000005 332.25000000000006 554.25000000000011 667.75000000000011 288.25000000000006 284.25000000000006 284.25000000000006 2465.0000000000005 574.25000000000011 2557.0000000000005 454.75000000000006 370.25000000000006 520.25000000000011 665.25000000000011 837.25000000000011 2703.0000000000005 533.25000000000011 790.50000000000011 2641.0000000000005 2337.0000000000005 2899.0000000000005 1560.5000000000002 556.25000000000011 854.25000000000011 440.25000000000006 1159.5000000000002 374.25000000000006 521.25000000000011 581.25000000000011 633.75000000000011 1500.5000000000002 650.25000000000011 1436.5000000000002 2785.0000000000005 844.25000000000011 668.25000000000011 319.25000000000006 341.25000000000006 2333.0000000000005 333.25000000000006 1226.5000000000002 537.25000000000011 286.25000000000006 550.75000000000011 368.25000000000006 860.50000000000011 2453.0000000000005 1878.5000000000002 1523.5000000000002 535.25000000000011 3241.0000000000005 2793.0000000000005 568.25000000000011 545.25000000000011 656.25000000000011 533.25000000000011 320.25000000000006 781.25000000000011 1289.5000000000002 698.25000000000011 745.25000000000011 855.50000000000011 596.25000000000011 2207.0000000000005 434.25000000000006 287.25000000000006 432.25000000000006 289.25000000000006 545.25000000000011 964.50000000000011 653.25000000000011 411.75000000000006 1201.5000000000002 745.25000000000011 2213.0000000000005 2561.0000000000005 629.25000000000011 700.25000000000011 843.25000000000011 815.25000000000011 2317.0000000000005 352.75000000000006 965.50000000000011 2201.0000000000005 1575.5000000000002 460.25000000000006 370.25000000000006 854.75000000000011 583.25000000000011 765.25000000000011 443.25000000000006 442.75000000000006 634.25000000000011 641.25000000000011 1630.5000000000002 2453.0000000000005 305.25000000000006 522.25000000000011 447.25000000000006 332.25000000000006 1892.5000000000002 765.25000000000011 636.25000000000011 292.25000000000006 543.25000000000011 713.25000000000011 1159.5000000000002 1218.0000000000002 907.25000000000011 599.25000000000011 305.25000000000006 640.25000000000011 2079.0000000000005 2557.0000000000005 370.25000000000006 669.25000000000011 640.25000000000011 2785.0000000000005 330.25000000000006 493.25000000000006 359.75000000000006 491.25000000000006 404.25000000000006 276.75000000000006 2525.0000000000005 462.75000000000006 844.25000000000011 587.25000000000011 525.25000000000011 978.75000000000011 906.75000000000011 860.50000000000011 773.50000000000011 990.50000000000011 256.25000000000006 640.25000000000011 302.25000000000006 320.25000000000006 2899.0000000000005 575.25000000000011 743.25000000000011 907.25000000000011 543.25000000000011 669.25000000000011 960.25000000000011 297.75000000000006 680.25000000000011 926.50000000000011 1180.5000000000002 845.25000000000011 685.25000000000011 2563.0000000000005 423.75000000000006 2213.0000000000005 2085.0000000000005 810.25000000000011 2205.0000000000005 2699.0000000000005 389.25000000000006 543.25000000000011 528.25000000000011 575.25000000000011 1904.5000000000002 522.25000000000011 255.25000000000003
decision_type=2 2 2 2 2 2 2 2 2 2 2 2 2 2 2 2 2 2 2 2 2 2 2 2 2 2 2 2 2 2 2 2 2 2 2 2 2 2 2 2 2 2 2 2 2 2 2 2 2 2 2 2 2 2 2 2 2 2 2 2 2 2 2 2 2 2 2 2 2 2 2 2 2 2 2 2 2 2 2 2 2 2 2 2 2 2 2 2 2 2 2 2 2 2 2 2 2 2 2 2 2 2 2 2 2 2 2 2 2 2 2 2 2 2 2 2 2 2 2 2 2 2 2 2 2 2 2 2 2 2 2 2 2 2 2 2 2 2 2 2 2 2 2 2 2 2 2 2 2 2 2 2 2 2 2 2 2 2 2 2 2 2 2 2 2 2 2 2 2 2 2 2 2 2 2 2 2 2 2 2 2 2 2 2 2 2 2 2 2 2 2 2 2 2 2 2 2 2 2 2 2 2 2 2 2 2 2 2 2 2 2 2 2 2 2 2 2 2 2 2 2 2 2 2 2 2 2 2 2 2 2 2 2 2 2 2 2 2 2 2 2 2 2 2 2 2 2 2 2 2 2 2 2 2 2 2 2 2 2 2 2 2 2 2 2 2 2 2 2 2 2 2 2 2 2 2 2 2 2 2 2 2 2 2 2 2 2 2 2 2 2 2 2 2 2 2 2 2 2 2 2 2 2 2 2 2 2 2 2 2 2 2 2 2 2 2 2 2 2 2 2 2 2 2 2 2 2 2 2 2 2 2 2 2 2 2 2 2 2 2 2 2 2 2 2 2 2 2 2 2 2 2 2 2 2 2 2 2 2 2 2 2 2 2 2 2 2
left_child=12 9 14 5 30 6 11 29 13 37 42 15 28 19 47 17 57 18 -4 34 48 -22 43 116 -21 67 55 117 49 35 46 -19 40 83 -9 -6 79 59 63 103 -7 -32 52 51 45 123 65 54 -18 87 71 98 118 81 -3 125 163 176 -34 126 75 93 140 91 120 -5 105 68 69 90 -70 -46 73 -64 136 76 139 -78 100 -13 102 -15 86 -8 95 -80 -76 94 167 153 92 -39 -16 151 150 -73 97 187 99 158 -72 213 -28 -25 130 110 107 164 -108 -110 -58 200 114 -114 157 -74 235 -17 -11 -118 121 227 171 186 133 -27 195 -128 -47 193 225 -56 141 185 270 -79 138 -138 154 -61 -63 142 -82 180 178 -81 -86 -136 149 293 188 -62 170 162 155 -53 303 -99 247 160 -160 -85 179 233 -107 182 217 206 169 189 -120 175 174 -174 -173 181 -10 210 -103 -90 -37 -100 248 -184 279 198 201 297 214 -48 319 355 194 230 309 259 -197 -171 -122 -186 348 306 -203 -151 224 -155 305 229 -209 -145 -131 -163 -169 273 218 -215 226 -167 -1 -127 -156 -69 -223 -133 284 238 -150 243 -153 -208 -124 283 -146 353 255 236 -24 -187 239 241 -141 347 -216 299 -233 266 -202 312 -42 250 278 -161 340 -68 -252 -190 -254 -251 320 261 -261 282 264 -264 -260 276 267 336 323 -269 -113 307 -164 -101 -179 -195 356 -278 325 -158 300 -226 -2 -214 -152 286 289 290 -177 332 -206 -245 -270 -123 295 358 -296 -40 -299 -51 301 -247 322 330 342 338 -45 -238 321 310 311 -66 -14 -312 -105 -198 -302 354 -249 -98 -240 -196 335 -268 -289 -106 -262 -321 329 -306 -126 346 -194 -218 349 357 -96 -333 -89 -241 -224 -341 351 -291 -84 -330 -324 -30 -91 -327 -336 -280 -344 -12 -135 -154 -129 -227 363 -360 -317 366 -236 -132 -355 -365 -229
right_child=1 2 3 4 7 32 33 8 16 10 56 36 22 53 25 27 20 31 -20 24 21 -23 23 39 -26 26 80 -29 104 -31 41 -33 58 -35 -36 143 -38 38 96 -41 165 -43 -44 44 50 128 168 -49 -50 64 -52 74 -54 -55 131 -57 66 -59 -60 60 61 62 72 -65 192 -67 253 221 70 -71 78 84 115 -75 82 -77 77 135 85 145 132 -83 344 161 146 -87 -88 88 89 111 -92 -93 -94 -95 245 -97 190 112 122 101 -102 144 -104 314 249 106 108 -109 109 -111 -112 134 113 -115 -116 -117 119 -119 152 -121 124 148 129 -125 156 219 127 265 -130 177 294 223 -134 317 147 -137 137 -139 -140 240 -142 -143 -144 209 232 -147 -148 -149 216 203 204 228 191 205 220 -157 184 -159 159 251 -162 211 272 -165 -166 166 -168 212 -170 197 -172 172 173 -175 -176 288 -178 274 -180 -181 -182 -183 183 -185 199 237 -188 -189 234 -191 -192 -193 285 275 308 196 315 -199 -200 -201 246 202 -204 -205 287 -207 207 208 -210 -211 -212 -213 231 215 242 -217 333 -219 -220 -221 -222 222 252 -225 281 302 -228 361 -230 -231 -232 244 -234 -235 362 -237 271 -239 258 339 -242 -243 -244 291 -246 280 -248 318 -250 257 254 -253 256 -255 -256 -257 -258 -259 262 260 326 -263 263 -265 -266 -267 268 269 292 -271 -272 -273 -274 -275 -276 -277 277 -279 304 -281 -282 -283 -284 -285 -286 -287 -288 324 -290 343 -292 -293 -294 -295 296 -297 -298 298 -300 -301 316 -303 -304 -305 328 -307 -308 -309 -310 -311 313 -313 -314 -315 -316 360 -318 -319 -320 327 -322 -323 331 -325 -326 334 -328 -329 345 -331 -332 337 -334 -335 350 -337 -338 -339 -340 341 -342 -343 352 -345 -346 -347 -348 -349 -350 -351 -352 -353 -354 364 -356 -357 -358 -359 359 -361 -362 -363 -364 365 -366 -367 -368
leaf_value=-5.8150606791869217 -3.7934605735751576 211.80911028119417 147.91781020151311 379.4226938691844 187.99861168459626 212.93696176950712 358.23402948223344 147.34622095403753 538.82096170203681 319.98605672525366 1.9754028578850011 309.15589375950771 6.1058436872997399 358.11540421079366 -6.7437177326650479 435.89909319738405 15.649512595123136 416.07559674800797 344.12523328709841 32.519236176880156 146.34213808257155 256.44643991280424 22.305746823498154 298.35364655628848 289.47537636720494 285.46862490347826 224.74284612719484 60.219938933731051 -7.5772998851688484 67.276020525714927 19.994563471688227 112.32621696212381 104.71077677434238 161.99867127917125 431.41190390427153 419.64679132029187 136.77057137403332 265.80718781974696 -21.1121073225777 89.721133825672041 464.48449062821635 314.85357923214121 138.3226942033364 -2.7526978693339608 64.433512713068055 247.49555057366348 405.31341587066839 127.87900836806052 166.50534889684323 -1.2618096657966906 17.428453655685182 22.745543310584353 211.33722674135703 210.98393709876856 339.05329321206091 157.12373894290909 -8.0978137411192623 302.50138197536381 325.91660023921361 109.22061691220769 54.606479142610247 159.0594327570052 40.136274179090648 136.33194179824605 36.996231436042706 166.71274523010939 27.917257421135112 -34.477861952185059 250.20031005832001 231.97072302918687 128.4017129500136 224.96350542253387 0.47699317160145011 165.84124546346521 39.468740752772213 -18.35854271590296 -1.876259289908127 183.19467425035327 152.01501578763632 485.87263951630376 -6.4502280178197786 514.43114765669429 -10.341310912354595 502.35417655533416 326.08157653205052 61.392732003257777 179.11627222923974 -6.2908929681611818 7.5378014992988005 14.466099231670698 127.58053628347911 408.35463226682435 28.927595102725522 99.865377776714809 -5.2399933822273921 72.752653628229965 1.2637578386355177 64.593474643824791 18.536963407186178 -6.6768756446938067 10.497003777410253 31.971353655471781 80.139780899023094 394.61959477488546 42.646404570635163 194.59168422309355 173.25709521177239 328.10780820032772 10.51533093122908 160.10657474515494 129.2624984010412 17.250201674160582 47.717413919686877 255.53514063235087 182.54520010915698 51.927126874194151 37.374819256256757 345.09598968038051 409.29603800267415 153.59763350925394 13.080495690362577 0.71107315210069011 1.4314827056056552 95.047438119526873 10.263090568625767 408.39413284232177 239.11855597319047 -11.90999204506978 134.76729507543396 0.52664831326172634 -1.5808071883806276 457.01960110752805 1.4002518234995671 -5.6694761877460964 38.224146012935527 270.057169724125 124.1197355050994 -12.362402050625279 68.479613109943301 45.410504627719234 251.78939427196826 125.2681078165495 66.183820244773273 473.26943389871877 30.793985103645067 427.52123421001562 240.85086425798173 -4.2865496419025355 44.178241854343703 81.277980652956572 -0.35660930872803548 -8.7690474770727995 439.17441774365096 73.106294554023322 -3.652604025553992 -5.6762418990641423 9.1972976975843146 14.929047313862272 7.9512873065212775 45.641134658381347 70.099358736554748 465.45556223438092 51.611460329388116 64.266377794643773 118.35083389422341 456.34145843988347 383.84419256883064 9.9938562354138227 377.51309332924058 418.68116586605538 335.20311542756406 27.471154888515851 34.118970830009985 19.892346958269513 42.227491345098109 37.661134888252633 470.83531567574687 7.2580786519635447 -1.3939063768947917 42.3526613252141 363.37017390948114 -7.4876030080280032 456.21079729762147 525.61820665998255 -4.8068089536065788 23.143544227840113 -42.030358390286608 45.964776900644559 -0.41265041711972461 433.41862143519177 38.71214288939823 398.63537757289868 28.88829970275949 28.056022160966887 19.840011383307509 94.586230431411352 10.102182348117143 448.87774393191 45.107216751717381 4.0508341345988939 74.748161019085714 54.327557772427845 7.5986590013867676 48.129391530315765 12.955720828270282 20.394396482504597 25.725619305235405 55.254247494556424 10.829713657980001 435.34862899638716 36.068429273721158 437.73103974828786 35.109058862308586 38.715216703053621 -2.2341258334348133 21.192250124432313 32.229081547337145 412.74594228564786 0.47700446099102739 360.06192260857671 -35.654395880238724 26.099647699039 -7.1937095273056491 408.05393543327915 9.2509722077474486 33.957847753568728 11.082518468666343 -5.732605770223282 25.873688172433425 50.286570210510362 30.229791979341144 67.086691132468019 10.759750898516824 31.519279966263397 -5.4705438918249225 15.399197791780468 61.377507596822426 56.495143799007799 27.077015237779616 16.288969785968899 4.9511674737807212 21.686732777219571 -5.6890916327033478 11.894315432396862 41.119978886281757 10.675917115186785 40.535350080040779 44.280333049855024 447.53874395983951 -3.2758638545890517 64.245658025994402 25.15844298365327 -4.1018789260238453 -7.8230213354832188 34.883461671884739 10.584367683667296 26.136476476466292 29.71150577276304 15.018841070019759 51.335609034023598 4.427658729186839 -31.93608713552263 4.8452365776456006 25.72965648004071 26.549440340987424 22.437965578890303 13.61207397699733 27.29715410778789 19.6940124375162 12.411442198386046 36.240750970800164 76.658792286650126 25.386916076902217 20.358422521291793 -8.7850492226947399 42.998082361372632 50.813846064015486 -2.6090278185724851 26.539657080802414 33.396615205798973 34.776631541663797 32.030187451917293 7.6007008599578274 12.884056001010347 -5.1354877452125463 56.046041326217548 5.8034491784043523 20.062757255333409 26.201686821593299 34.072440750947571 34.415843219502122 30.440808211978641 -0.45091958390586528 23.521942541787602 18.359991374343227 16.494318440005486 -5.4597449526528505 -13.053657300012672 16.348343768502787 10.133800945439432 24.553905849351484 29.937532024502143 11.173421231755089 39.811926719956368 51.787315365347887 16.180382841019963 -19.338446667212377 36.741660288484042 -9.9723753775584019 13.803682552189056 23.711380384595863 15.19584450384429 19.040620547880746 37.68767507859453 422.07875858422193 -9.1010602711626785 8.9411506965431311 11.701134045048178 26.924098297545349 -8.603359305539156 45.109197928089614 -0.54324432820603941 23.37002681500142 31.356325479834446 5.6096584756126937 24.02647320740763 -5.4401456375168618 -24.384597197437916 39.874240395271798 39.724695889843673 24.424901942289786 40.780058051329597 41.802945720286239 48.882645657798847 31.145456642321058 42.05749003878114 7.803017056504097 28.660624730701354 6.5234343508300467 35.801907361527803 -14.970549931751203 20.879168854194795 31.655940403024111 41.345878323404918 2.7370923707010326 33.619418273645408 28.349070790229238 2.4569703873566264 25.04320165399049 29.802022883512311 38.291903311717768 33.144360397817898 37.41480376417158 -2.9304900069522413 -2.2177455780887101 457.90745855443788 -3.1739431224186427 25.912873304100309 3.0596117079643563 -6.8793595697348247 -3.1204570271863301 -3.4453320650177557 -2.5956503376132702 -5.5601231956278223 -7.2635166943909928 -8.4483775994963946 -8.3368587520530166
leaf_weight=12271672 20880 671 83884 551 924 558 968 7649 736 784 913 636 1097 1054 7828 3081 6746 3225 3793 53305 63142 14615 712 832 1336 581 581 715 1876 766 644 862 539 623 628 2864 548 936 541 557 4093 734 657 1534 549 577 2956 645 1346 5276 907 5980 753 588 525 623 701 614 855 547 593 667 2875 530 938 578 559 691 565 611 525 658 7497 1073 839 675 683 1660 1640 1071 604 632 648 1058 573 2870 853 1638 25567 997 675 630 22611 689 1801 525 792 1351 4802 695 3476 1364 541 543 677 529 890 578 1567 533 711 1579 710 526 554 2503 536 723 600 932 21523 1054 1752 526 655 704 550 906 574 1166 529 679 1038 7672 1312 535 541 648 660 557 617 634 3041 1192 3307 2542 785 754539 647 1481 35704 14001 527 774 57553 4652 696 1614 680 1307 3160 3664 1087 544 659 1767 582 990 606 1435 585 16718 21471 33262 22500 1965 645 1277 36749 1230 532 3237 625 661 85171 841 529 602 40440 3111 616 847 3499 2130 568 550 787 5668 997 13886 568 823 5885 1773 1339 528 1755 556 10959 1355 1547 1645 1485 6300 96554 3817 621 527 17585 578 664 1022 1660 537 2314 560 6750 720 525 2285 1223 979 2425 581 23497 620 526 1005 941 708 684 958 71575 4080 2267 1068 1224 802 3164 538 988 4488 1287 737 816 3425 617 960 5964 579 2030 540 3122 1938 8506 840 1335 1959 534 4687 1627 573 652 842 6862 2841 565 2497 1873 1020 676 571 1971 690 14206 550 533 617 12284 1406 673 697 7957 535 919 540 584 587 531 1808 672 1424 663 531 751 540 953 543 741 783 1120 1694 4593 2357 527 850 3721 543 1051 1002 731 724 6774 542 4197 2666 2412 624 2051 6090 1390 550 581 576 4478 833 566 2491 526 549 2730 531 1706 5516 681 4287 2662 582 578 2049 814 1307 2417 712 3532 541 561 679 673 598 626 582 1242 3757 983 554 3139
leaf_count=12271672 20880 671 83884 551 924 558 968 7649 736 784 913 636 1097 1054 7828 3081 6746 3225 3793 53305 63142 14615 712 832 1336 581 581 715 1876 766 644 862 539 623 628 2864 548 936 541 557 4093 734 657 1534 549 577 2956 645 1346 5276 907 5980 753 588 525 623 701 614 855 547 593 667 2875 530 938 578 559 691 565 611 525 658 7497 1073 839 675 683 1660 1640 1071 604 632 648 1058 573 2870 853 1638 25567 997 675 630 22611 689 1801 525 792 1351 4802 695 3476 1364 541 543 677 529 890 578 1567 533 711 1579 710 526 554 2503 536 723 600 932 21523 1054 1752 526 655 704 550 906 574 1166 529 679 1038 7672 1312 535 541 648 660 557 617 634 3041 1192 3307 2542 785 754539 647 1481 35704 14001 527 774 57553 4652 696 1614 680 1307 3160 3664 1087 544 659 1767 582 990 606 1435 585 16718 21471 33262 22500 1965 645 1277 36749 1230 532 3237 625 661 85171 841 529 602 40440 3111 616 847 3499 2130 568 550 787 5668 997 13886 568 823 5885 1773 1339 528 1755 556 10959 1355 1547 1645 1485 6300 96554 3817 621 527 17585 578 664 1022 1660 537 2314 560 6750 720 525 2285 1223 979 2425 581 23497 620 526 1005 941 708 684 958 71575 4080 2267 1068 1224 802 3164 538 988 4488 1287 737 816 3425 617 960 5964 579 2030 540 3122 1938 8506 840 1335 1959 534 4687 1627 573 652 842 6862 2841 565 2497 1873 1020 676 571 1971 690 14206 550 533 617 12284 1406 673 697 7957 535 919 540 584 587 531 1808 672 1424 663 531 751 540 953 543 741 783 1120 1694 4593 2357 527 850 3721 543 1051 1002 731 724 6774 542 4197 2666 2412 624 2051 6090 1390 550 581 576 4478 833 566 2491 526 549 2730 531 1706 5516 681 4287 2662 582 578 2049 814 1307 2417 712 3532 541 561 679 673 598 626 582 1242 3757 983 554 3139
internal_value=0 138.416 164.17 185.463 157.081 226.491 202.429 132.727 121.213 47.6265 153.363 184.677 -4.56787 66.6555 59.3146 174.361 161.702 165.121 156.407 55.9208 155.134 167.038 21.7832 147.829 38.8036 46.3026 135.804 361.965 -5.15191 363.549 397.379 352.025 422.705 427.892 168.915 396.593 391.706 27.2726 80.5043 298.988 443.913 177.09 332.478 18.8526 60.2971 27.6155 417.741 305.021 40.7481 -5.33633 153.508 16.585 359.976 363.617 352.368 305.577 68.6685 444.249 240.43 18.4787 33.0975 21.9265 45.2034 275.996 6.05793 270.603 96.8641 29.9356 36.769 26.1389 73.924 193.445 30.611 74.3116 2.18717 98.0142 114.849 155.454 62.2129 424.573 70.2453 416.798 59.951 450.468 221.307 94.3548 109.891 -5.49772 -2.51041 -3.27174 22.0946 323.226 19.754 -0.502735 -5.69121 157.453 39.7256 56.7593 21.6949 13.9684 25.9773 8.24618 155.062 360.246 24.6646 115.619 131.806 209.92 85.651 48.5018 61.0825 -3.90461 80.1134 136.201 60.4025 13.3562 64.1345 418.672 388.773 111.18 3.11342 14.1165 25.8533 9.2259 0.767093 355.184 4.16001 27.044 191.332 12.0669 17.8824 406.492 52.3389 9.90811 -4.08136 204.403 -0.281404 49.7544 -1.13753 49.474 203.671 64.6945 54.1484 429.013 2.74455 444.86 276.882 -4.21274 27.5869 45.2354 -5.72533 -5.07873 406.134 12.8992 -1.80521 10.3099 -2.42705 37.5632 32.4552 41.4655 59.0956 464.472 11.1264 12.289 152.344 455.193 433.774 21.9391 429.793 432.189 372.82 28.0827 29.8415 25.4734 35.9374 20.6685 507.186 0.498403 -0.199559 9.13632 410.866 8.05798 462.387 492.009 -3.10272 16.5306 4.58055 7.64009 -5.75501 419.747 0.333939 426.683 29.7707 27.8656 21.3067 -0.17811 17.884 442.797 14.499 -3.56512 35.9395 7.26352 13.3341 63.223 0.511161 51.7404 17.0528 19.8969 12.9762 453.153 20.7951 456.892 35.854 28.9439 -5.7777 32.1049 17.6401 446.386 -5.80606 386.699 -4.0178 -4.88518 -2.08873 435.51 -0.870902 21.5269 13.9791 3.01304 -7.51644 39.6201 13.2722 40.5758 22.3193 3.41678 -1.63547 40.903 47.6172 41.3075 18.5254 9.66397 23.1177 2.34058 -3.70496 6.86493 48.9575 10.248 51.3911 20.9447 457.117 34.458 35.2116 29.7804 -6.66698 7.59585 50.9729 0.446074 5.69977 17.8661 20.7003 -1.96657 5.09947 -3.48339 19.4782 12.8452 21.7974 5.30605 7.67528 11.8314 4.06205 16.8003 26.8903 58.5861 41.7857 8.13478 -6.26771 36.5979 2.12719 7.25288 34.2988 23.5851 16.8419 13.7625 -2.81057 28.0613 -1.71686 36.0208 35.0644 11.2001 27.7828 36.4818 20.1384 14.6023 0.816699 8.39448 -0.719406 -2.93998 9.1055 -6.273 0.911667 1.64694 15.0795 21.685 26.7366 24.0021 36.3379 0.691321 -9.10992 48.8786 1.71606 27.0852 28.7867 22.9687 16.5474 33.1883 408.267 -0.768593 11.3311 -3.82848 34.4425 -9.44701 34.9679 8.42054 27.4455 18.7404 7.4633 30.3887 -0.930552 -14.6633 38.4525 41.0513 19.8913 26.2585 30.7305 40.2539 29.5581 34.5883 -2.12049 30.8567 -3.17563 23.6525 -12.0306 28.4733 32.5204 39.8702 -3.6407 35.6454 24.7756 -5.2014 18.3521 26.5382 32.247 29.2573 35.0346 -2.84691 -4.58143 448.799 -8.57065 29.5569 -4.65808 -1.61719 -6.56581 -7.27435 -5.32625 -5.45647 -5.4443 -5.93189 -7.85149
internal_weight=0 462313 360151 299361 176952 122409 109038 160669 153036 102162 16491 101080 1.40077e+07 65192 60790 96283 87844 91764 87677 62918 85849 77757 303732 6901 54641 57733 8925 4519 1.37039e+07 7633 16283 4087 13371 7958 8277 6867 4797 85671 12146 2459 11977 1378 5294 296831 15398 11401 14905 3057 8092 1.36197e+07 3997 281433 4637 2274 2412 2486 11197 1995 1394 73525 36381 31040 15232 2096 190211 1129 7464 48808 40801 31725 9076 3090 13948 3948 73719 5341 4666 2878 8511 4249 6439 1686 3021 7335 2541 4510 1692 1.34295e+07 816932 792262 31114 1566 30439 15808 1.26126e+07 1183 10050 7016 207714 72677 4001 55499 1122 1902 84240 6168 4756 1766 2990 2100 1412 762424 4755 1236 3519 10000 4442 3804 3884 1468 169201 29739 135037 10250 139462 1863 37144 5919 1151 18798 49772 1741 5317 36113 759057 2195 70698 1189 69509 1788 1284 4279 3645 5943 43845 3613 1358 755851 13437 4843 1.25856e+07 15119 3100 29838 68849 10632 103349 2965 17178 9635 3840 6367 28536 3733 1188 11419 2876 24670 13776 13170 1185 116239 93951 54733 39218 22288 1381 10852 38113 26797 3396 8039 8543 1286 100773 24366 9724 2261 1.2526e+07 6067 3034 1915 21010 7946 8925 31225 2813 7103 22520 99057 3367 9195 6708 3254 59621 1302 18259 15555 11515 2547 2713 5309 6411 11654 1.24574e+07 10117 8594 2294 1.22893e+07 1282 58217 8007 7316 1216 52795 41618 7397 16302 14526 4040 2975 5421 5732 3189 68604 2974 2354 1846 26406 5204 1241 3416 168129 11861 3246 26942 1792 7543 7257 34468 32970 5795 6294 1296 1804 43865 1904 1498 21202 28412 5021 23391 19530 5060 14470 5369 19381 9013 10368 6646 3206 1642 1739 1537 8139 4971 4529 3062 31166 1716 7561 2885 22851 2175 49910 12085 11535 6826 14249 11002 2012 4777 8491 1589 8154 6651 1503 1659 1118 7084 6885 2492 15212 2576 20482 2704 2487 1069 2033 6892 6109 2632 5690 3477 1070 2263 4393 11747 1853 2418 1672 1292 14549 1877 4814 10684 4442 1626 13179 6841 2045 12477 4080 1197 10007 2072 2367 3041 2164 1788 4390 1080 7303 6922 1329 6338 9436 2458 1575 4715 5292 3180 4123 2608 11204 1068 1467 1239 6111 1271 1476 4441 24739 4840 1695 4311 3859
internal_count=14469981 462313 360151 299361 176952 122409 109038 160669 153036 102162 16491 101080 14007668 65192 60790 96283 87844 91764 87677 62918 85849 77757 303732 6901 54641 57733 8925 4519 13703936 7633 16283 4087 13371 7958 8277 6867 4797 85671 12146 2459 11977 1378 5294 296831 15398 11401 14905 3057 8092 13619696 3997 281433 4637 2274 2412 2486 11197 1995 1394 73525 36381 31040 15232 2096 190211 1129 7464 48808 40801 31725 9076 3090 13948 3948 73719 5341 4666 2878 8511 4249 6439 1686 3021 7335 2541 4510 1692 13429485 816932 792262 31114 1566 30439 15808 12612553 1183 10050 7016 207714 72677 4001 55499 1122 1902 84240 6168 4756 1766 2990 2100 1412 762424 4755 1236 3519 10000 4442 3804 3884 1468 169201 29739 135037 10250 139462 1863 37144 5919 1151 18798 49772 1741 5317 36113 759057 2195 70698 1189 69509 1788 1284 4279 3645 5943 43845 3613 1358 755851 13437 4843 12585611 15119 3100 29838 68849 10632 103349 2965 17178 9635 3840 6367 28536 3733 1188 11419 2876 24670 13776 13170 1185 116239 93951 54733 39218 22288 1381 10852 38113 26797 3396 8039 8543 1286 100773 24366 9724 2261 12525990 6067 3034 1915 21010 7946 8925 31225 2813 7103 22520 99057 3367 9195 6708 3254 59621 1302 18259 15555 11515 2547 2713 5309 6411 11654 12457386 10117 8594 2294 12289257 1282 58217 8007 7316 1216 52795 41618 7397 16302 14526 4040 2975 5421 5732 3189 68604 2974 2354 1846 26406 5204 1241 3416 168129 11861 3246 26942 1792 7543 7257 34468 32970 5795 6294 1296 1804 43865 1904 1498 21202 28412 5021 23391 19530 5060 14470 5369 19381 9013 10368 6646 3206 1642 1739 1537 8139 4971 4529 3062 31166 1716 7561 2885 22851 2175 49910 12085 11535 6826 14249 11002 2012 4777 8491 1589 8154 6651 1503 1659 1118 7084 6885 2492 15212 2576 20482 2704 2487 1069 2033 6892 6109 2632 5690 3477 1070 2263 4393 11747 1853 2418 1672 1292 14549 1877 4814 10684 4442 1626 13179 6841 2045 12477 4080 1197 10007 2072 2367 3041 2164 1788 4390 1080 7303 6922 1329 6338 9436 2458 1575 4715 5292 3180 4123 2608 11204 1068 1467 1239 6111 1271 1476 4441 24739 4840 1695 4311 3859
shrinkage=0.366703


Tree=2
num_leaves=411
num_cat=0
split_feature=8 18 0 6 7 7 8 8 11 10 9 6 12 8 10 17 16 1 8 7 10 9 2 7 11 9 7 8 18 11 7 6 7 10 7 2 16 11 0 10 16 16 6 0 12 2 6 0 9 7 9 7 9 8 9 13 9 18 0 1 5 1 4 17 2 1 18 0 16 17 13 1 3 2 3 8 18 10 6 12 17 6 7 8 0 5 17 6 0 18 6 17 9 9 0 9 13 12 11 0 1 1 16 12 12 12 7 9 11 4 8 4 18 18 5 1 4 1 2 2 4 11 8 3 4 8 3 7 16 15 0 10 0 10 11 10 0 1 18 1 11 5 4 0 5 18 9 5 7 2 8 0 18 0 7 17 6 2 15 14 6 16 15 18 10 13 15 1 0 13 9 0 12 7 9 11 9 18 18 6 17 0 12 11 10 1 0 5 0 7 5 0 8 4 2 17 2 0 0 9 0 13 14 2 9 1 1 9 4 12 7 2 11 13 14 10 14 1 15 14 18 9 7 12 16 4 6 10 2 2 3 8 0 12 16 8 17 16 16 0 11 15 8 4 14 7 16 9 8 7 5 15 14 8 5 8 6 0 9 0 1 2 3 3 14 12 18 6 15 1 17 11 5 12 10 7 0 6 2 17 15 15 7 16 14 5 2 10 16 10 4 11 16 13 2 0 10 11 5 8 10 5 9 15 2 8 10 9 18 1 0 0 3 8 8 11 4 16 17 6 1 8 18 16 10 10 0 1 7 0 7 16 12 6 1 17 7 7 2 15 1 2 5 10 9 8 6 2 3 6 11 16 11 16 12 8 8 7 9 13 6 0 1 2 10 10 11 7 4 3 4 8 9 9 9 14 18 6 8 0 9 4 5 16 1 14 1 18 3 10 18 8 2 17 6 18 4 11 11 7 13 8 13 11 7 2 15 9 1 6
split_gain=2.75173e+10 3.62701e+09 2.15562e+09 1.09685e+09 4.07287e+09 2.44963e+09 2.30868e+09 1.61746e+09 1.3221e+09 1.68252e+09 1.13098e+09 1.09063e+09 9.35295e+08 8.49961e+08 8.47854e+08 8.09043e+08 1.04146e+09 7.04457e+08 6.70067e+08 6.34862e+08 6.09471e+08 5.89105e+08 5.64597e+08 5.13395e+08 5.03423e+08 4.64965e+08 4.18793e+08 5.73547e+08 3.26357e+08 2.91938e+08 2.74942e+08 2.71614e+08 2.48116e+08 2.2922e+08 2.21428e+08 1.67209e+08 1.57881e+08 1.50434e+08 1.46248e+08 1.42639e+08 1.35797e+08 4.91717e+08 1.11545e+08 8.98739e+07 8.3478e+07 8.14724e+07 7.7355e+07 9.73245e+07 6.96558e+07 6.63126e+07 6.54467e+07 2.91701e+08 2.86314e+08 8.68129e+07 8.00375e+07 6.5343e+07 6.1534e+07 5.89213e+07 6.131e+07 5.41008e+07 5.29292e+07 5.27586e+07 9.60889e+07 8.99425e+07 1.31677e+08 6.58264e+07 7.54096e+07 6.18237e+07 5.44182e+07 5.22934e+07 5.12215e+07 4.73068e+07 1.72667e+08 4.70994e+07 1.80376e+08 4.68464e+07 4.67057e+07 7.19488e+07 4.63456e+07 5.79566e+07 4.47833e+07 4.32046e+07 4.17603e+07 4.17211e+07 4.16112e+07 4.10254e+07 4.06577e+07 3.90773e+07 3.82362e+07 6.65174e+07 3.56939e+07 4.05595e+07 3.2512e+07 3.10236e+07 2.85326e+07 4.44998e+07 2.8153e+07 2.77014e+07 5.2054e+07 1.0028e+08 1.02335e+08 7.24449e+07 5.39839e+07 4.53247e+07 2.66757e+07 8.21085e+07 1.16859e+08 2.88649e+07 2.80663e+07 2.63931e+07 7.2394e+07 3.69018e+07 3.55849e+07 2.61098e+07 4.52371e+07 2.46224e+07 2.3667e+07 2.33506e+07 2.29269e+07 2.25188e+07 2.24832e+07 2.22869e+07 2.25353e+07 2.15027e+07 3.51845e+07 2.10261e+07 2.05828e+07 2.02803e+07 1.94992e+07 2.12176e+07 1.93356e+07 1.89617e+07 1.86542e+07 1.7563e+07 2.06768e+07 1.72664e+07 1.70633e+07 2.44142e+07 2.96367e+07 2.38679e+07 1.66854e+07 1.59531e+07 2.18695e+07 1.52963e+07 3.63341e+07 1.52078e+07 1.51687e+07 1.46607e+07 1.44904e+07 2.12456e+07 1.43483e+07 1.40314e+07 1.3883e+07 1.3764e+07 1.36878e+07 1.73317e+07 1.23643e+07 1.23491e+07 1.1998e+07 5.54716e+07 1.19148e+07 1.18548e+07 1.18292e+07 1.13867e+07 1.11541e+07 1.11171e+07 1.1029e+07 1.09465e+07 1.05109e+07 1.04535e+07 9.93635e+06 9.54895e+06 8.98396e+06 8.34655e+06 8.23909e+06 8.20648e+06 9.21342e+06 8.15104e+06 8.11387e+06 8.10513e+06 1.21903e+07 1.56634e+07 9.19363e+06 8.08508e+06 8.039e+06 7.79879e+06 7.88875e+06 7.7398e+06 7.24876e+06 7.21928e+06 6.93449e+06 6.89048e+06 6.86144e+06 6.71131e+06 6.61799e+06 6.56261e+06 6.73312e+06 6.60753e+06 6.53304e+06 6.3113e+06 6.26847e+06 6.15894e+06 6.12181e+06 6.05204e+06 6.03533e+06 5.9554e+06 5.93789e+06 6.54227e+06 5.91158e+06 6.0552e+06 5.75888e+06 5.75837e+06 5.63149e+06 5.5682e+06 5.48724e+06 5.44978e+06 6.46477e+06 5.39781e+06 5.36967e+06 5.54501e+06 5.19597e+06 5.18629e+06 5.14505e+06 5.06913e+06 5.0584e+06 4.99359e+06 4.82676e+06 4.73926e+06 4.72693e+06 4.70449e+06 4.66711e+06 2.1061e+07 4.59697e+06 4.52188e+06 4.50775e+06 4.47991e+06 4.46433e+06 9.38192e+06 7.98959e+06 4.35988e+06 4.18364e+06 4.18023e+06 4.09982e+06 4.04914e+06 3.98865e+06 3.85666e+06 3.83456e+06 3.82665e+06 3.78154e+06 4.47769e+06 3.72588e+06 3.71785e+06 3.51279e+06 3.37291e+06 3.32991e+06 3.21934e+06 8.50014e+06 3.20125e+06 3.15389e+06 3.11851e+06 3.04413e+06 3.0392e+06 3.07854e+06 2.99461e+06 2.97972e+06 2.90815e+06 3.15028e+06 2.89738e+06 2.88186e+06 2.88074e+06 2.74732e+06 2.56138e+06 2.49301e+06 2.47291e+06 2.39794e+06 3.66656e+06 3.45972e+06 3.43824e+06 2.32477e+06 2.16225e+06 1.88042e+06 1.82129e+06 1.81874e+06 1.80968e+06 1.78552e+06 1.77051e+06 1.75812e+06 1.71715e+06 1.71595e+06 1.71421e+06 1.67141e+06 1.63717e+06 1.62422e+06 3.95847e+06 1.74461e+06 1.6147e+06 1.61001e+06 1.57971e+06 1.5256e+06 1.74449e+06 1.51646e+06 1.49432e+06 1.43963e+06 1.42916e+06 1.33485e+06 1.33051e+06 1.26021e+06 1.20384e+06 1.17588e+06 1.15303e+06 1.09697e+06 1.08018e+06 1.02625e+06 996742 944719 924825 1.00118e+06 924387 919921 916281 898788 896697 879708 856176 857191 825169 760769 753642 751662 723143 688659 672679 672423 672124 652856 651676 633246 628009 688315 603153 599418 592909 589688 587066 582381 573759 560282 514422 562035 487756 470120 465110 432437 426729 626983 825547 420495 418820 411656 409761 402761 395700 391245 379748 1.02393e+06 416972 379197 378874 358557 493771 841121 423389 353052 350973 340438 325878 314152 300021 299122 294455 293992 272280 266680 263759 262728 262443 244839 237912 231936 225312 224641 221337 191240 187173 185587 166115 139972 135623 127549 124963 122352 117724 116899 98608.7 90476.3 83747 76586.9 52966.3 43851.1 40531.6
threshold=1969.5000000000002 764.25000000000011 558.25000000000011 2527.0000000000005 2457.0000000000005 2591.0000000000005 2461.0000000000005 2593.0000000000005 2589.0000000000005 2593.0000000000005 2593.0000000000005 2641.0000000000005 2591.0000000000005 2561.0000000000005 2709.0000000000005 763.25000000000011 1514.0000000000002 562.25000000000011 2905.0000000000005 2905.0000000000005 2521.0000000000005 699.25000000000011 1554.5000000000002 2591.0000000000005 3213.0000000000005 2525.0000000000005 2065.0000000000005 1889.5000000000002 2205.0000000000005 2589.0000000000005 2635.0000000000005 3253.0000000000005 3233.0000000000005 714.25000000000011 1878.5000000000002 2221.0000000000005 2791.0000000000005 2635.0000000000005 2789.0000000000005 2899.0000000000005 759.25000000000011 1143.5000000000002 2079.0000000000005 2213.0000000000005 2525.0000000000005 2637.0000000000005 1971.5000000000002 1500.5000000000002 1222.5000000000002 2591.0000000000005 2225.0000000000005 843.25000000000011 2901.0000000000005 539.25000000000011 1645.5000000000002 1961.5000000000002 855.50000000000011 612.25000000000011 619.25000000000011 1226.5000000000002 845.25000000000011 2529.0000000000005 2359.0000000000005 367.75000000000006 2709.0000000000005 2711.0000000000005 538.75000000000011 2557.0000000000005 367.75000000000006 434.25000000000006 2517.0000000000005 2221.0000000000005 2469.0000000000005 567.25000000000011 1679.5000000000002 699.50000000000011 282.25000000000006 2453.0000000000005 2799.0000000000005 2635.0000000000005 1132.5000000000002 745.25000000000011 2457.0000000000005 770.25000000000011 766.25000000000011 2557.0000000000005 844.25000000000011 2469.0000000000005 1500.5000000000002 1524.5000000000002 1971.5000000000002 2453.0000000000005 2525.0000000000005 2471.0000000000005 308.25000000000006 2225.0000000000005 479.25000000000006 2705.0000000000005 2337.0000000000005 331.25000000000006 330.25000000000006 336.25000000000006 2517.0000000000005 2465.0000000000005 2097.0000000000005 2785.0000000000005 738.75000000000011 1975.5000000000002 2075.0000000000005 2529.0000000000005 2333.0000000000005 2359.0000000000005 372.75000000000006 472.25000000000006 2901.0000000000005 717.25000000000011 2529.0000000000005 773.50000000000011 620.75000000000011 2221.0000000000005 2597.0000000000005 588.25000000000011 604.75000000000011 2223.0000000000005 2529.0000000000005 562.25000000000011 2527.0000000000005 3233.0000000000005 1514.0000000000002 2089.0000000000005 572.25000000000011 2201.0000000000005 739.25000000000011 965.50000000000011 965.50000000000011 2593.0000000000005 2337.0000000000005 2529.0000000000005 377.75000000000006 2793.0000000000005 2465.0000000000005 2557.0000000000005 2529.0000000000005 328.25000000000006 2703.0000000000005 352.75000000000006 2349.0000000000005 2525.0000000000005 2709.0000000000005 2561.0000000000005 974.25000000000011 2337.0000000000005 482.25000000000006 2525.0000000000005 654.25000000000011 453.25000000000006 1630.5000000000002 515.75000000000011 774.25000000000011 1436.5000000000002 2469.0000000000005 558.75000000000011 774.25000000000011 843.25000000000011 965.50000000000011 2553.0000000000005 2553.0000000000005 698.25000000000011 714.25000000000011 2061.0000000000005 605.25000000000011 364.25000000000006 592.25000000000011 2333.0000000000005 2349.0000000000005 2589.0000000000005 2471.0000000000005 332.25000000000006 2451.0000000000005 806.25000000000011 763.25000000000011 846.25000000000011 703.25000000000011 1159.5000000000002 843.25000000000011 588.75000000000011 594.25000000000011 1560.5000000000002 739.25000000000011 738.75000000000011 435.25000000000006 411.25000000000006 3241.0000000000005 1912.5000000000002 554.25000000000011 390.25000000000006 695.25000000000011 462.75000000000006 342.25000000000006 2713.0000000000005 1137.5000000000002 2701.0000000000005 273.25000000000006 567.25000000000011 3241.0000000000005 391.25000000000006 2221.0000000000005 2225.0000000000005 546.25000000000011 380.25000000000006 2523.0000000000005 2221.0000000000005 2635.0000000000005 737.75000000000011 381.25000000000006 1514.5000000000002 481.25000000000006 1639.0000000000002 644.25000000000011 636.25000000000011 367.75000000000006 1900.5000000000002 964.50000000000011 775.25000000000011 1514.0000000000002 599.25000000000011 2799.0000000000005 596.75000000000011 561.25000000000011 679.25000000000011 350.25000000000006 377.25000000000006 2557.0000000000005 2345.0000000000005 1874.5000000000002 770.25000000000011 519.25000000000011 522.25000000000011 522.25000000000011 1500.5000000000002 1575.5000000000002 683.25000000000011 1201.5000000000002 337.25000000000006 513.25000000000011 488.25000000000006 558.75000000000011 597.75000000000011 1568.5000000000002 1523.5000000000002 554.25000000000011 701.25000000000011 599.25000000000011 2593.0000000000005 666.25000000000011 2711.0000000000005 2341.0000000000005 1137.5000000000002 597.75000000000011 450.25000000000006 520.25000000000011 665.25000000000011 683.25000000000011 1249.5000000000002 707.25000000000011 1655.0000000000002 2325.0000000000005 773.75000000000011 2089.0000000000005 2905.0000000000005 249.25000000000003 802.25000000000011 2593.0000000000005 860.75000000000011 679.25000000000011 293.25000000000006 602.25000000000011 298.25000000000006 611.75000000000011 480.25000000000006 327.25000000000006 551.25000000000011 545.25000000000011 790.50000000000011 576.25000000000011 507.75000000000006 738.25000000000011 843.25000000000011 592.25000000000011 1146.5000000000002 445.25000000000006 431.75000000000006 414.25000000000006 2517.0000000000005 652.25000000000011 257.25000000000006 965.50000000000011 802.25000000000011 549.25000000000011 269.25000000000006 1514.5000000000002 560.25000000000011 531.25000000000011 513.25000000000011 588.25000000000011 974.25000000000011 410.25000000000006 597.75000000000011 561.25000000000011 355.75000000000006 469.25000000000006 479.25000000000006 460.25000000000006 568.25000000000011 1201.5000000000002 343.75000000000006 346.75000000000006 629.25000000000011 398.25000000000006 309.25000000000006 454.75000000000006 974.25000000000011 506.25000000000006 676.25000000000011 2453.0000000000005 843.25000000000011 337.25000000000006 920.25000000000011 715.25000000000011 565.25000000000011 2523.0000000000005 759.25000000000011 685.25000000000011 1218.0000000000002 920.25000000000011 322.25000000000006 569.25000000000011 575.75000000000011 907.25000000000011 683.25000000000011 698.25000000000011 538.25000000000011 695.75000000000011 907.25000000000011 318.25000000000006 555.25000000000011 551.75000000000011 968.50000000000011 860.50000000000011 546.25000000000011 2075.0000000000005 709.25000000000011 716.25000000000011 2199.0000000000005 2559.0000000000005 320.25000000000006 1568.5000000000002 323.25000000000006 382.25000000000006 766.25000000000011 976.25000000000011 799.25000000000011 653.25000000000011 574.25000000000011 554.75000000000011 588.25000000000011 1159.5000000000002 1180.5000000000002 1289.5000000000002 721.25000000000011 751.25000000000011 1201.5000000000002 407.25000000000006 258.25000000000006 445.25000000000006 526.25000000000011 370.25000000000006 589.75000000000011 1201.5000000000002 335.25000000000006 200.25000000000003 557.25000000000011 967.25000000000011 350.25000000000006 653.25000000000011 689.25000000000011 2343.0000000000005 796.75000000000011 261.25000000000006 319.25000000000006 318.25000000000006 919.50000000000011 490.25000000000006 388.75000000000006 583.25000000000011 738.25000000000011 577.25000000000011 218.25000000000003 2589.0000000000005 906.25000000000011 2201.0000000000005 1201.5000000000002 910.25000000000011 316.25000000000006 2065.0000000000005 843.25000000000011 926.50000000000011 475.25000000000006 568.25000000000011 1971.5000000000002
decision_type=2 2 2 2 2 2 2 2 2 2 2 2 2 2 2 2 2 2 2 2 2 2 2 2 2 2 2 2 2 2 2 2 2 2 2 2 2 2 2 2 2 2 2 2 2 2 2 2 2 2 2 2 2 2 2 2 2 2 2 2 2 2 2 2 2 2 2 2 2 2 2 2 2 2 2 2 2 2 2 2 2 2 2 2 2 2 2 2 2 2 2 2 2 2 2 2 2 2 2 2 2 2 2 2 2 2 2 2 2 2 2 2 2 2 2 2 2 2 2 2 2 2 2 2 2 2 2 2 2 2 2 2 2 2 2 2 2 2 2 2 2 2 2 2 2 2 2 2 2 2 2 2 2 2 2 2 2 2 2 2 2 2 2 2 2 2 2 2 2 2 2 2 2 2 2 2 2 2 2 2 2 2 2 2 2 2 2 2 2 2 2 2 2 2 2 2 2 2 2 2 2 2 2 2 2 2 2 2 2 2 2 2 2 2 2 2 2 2 2 2 2 2 2 2 2 2 2 2 2 2 2 2 2 2 2 2 2 2 2 2 2 2 2 2 2 2 2 2 2 2 2 2 2 2 2 2 2 2 2 2 2 2 2 2 2 2 2 2 2 2 2 2 2 2 2 2 2 2 2 2 2 2 2 2 2 2 2 2 2 2 2 2 2 2 2 2 2 2 2 2 2 2 2 2 2 2 2 2 2 2 2 2 2 2 2 2 2 2 2 2 2 2 2 2 2 2 2 2 2 2 2 2 2 2 2 2 2 2 2 2 2 2 2 2 2 2 2 2 2 2 2 2 2 2 2 2 2 2 2 2 2 2 2 2 2 2 2 2 2 2 2 2 2 2 2 2 2 2 2 2 2 2 2 2 2 2 2 2 2 2 2 2 2 2 2 2 2 2 2 2 2 2 2 2 2 2 2 2 2 2
left_child=21 15 17 5 31 7 32 8 9 10 12 14 -4 78 20 40 38 73 90 46 29 33 36 37 44 -22 50 88 -25 -8 55 34 131 75 -5 127 94 -15 48 45 43 49 192 158 116 -16 47 -7 -17 96 54 60 53 -53 56 -29 57 154 198 -24 132 62 162 68 67 -66 -67 -65 153 -69 -46 119 -73 97 -75 121 93 82 79 -13 86 -55 -78 117 187 -74 -50 141 89 193 91 -9 126 -64 278 -96 -42 98 174 100 103 -101 -103 -100 107 106 245 169 115 110 112 -112 -86 166 -115 203 -10 183 267 191 178 122 170 205 -125 -62 -11 -21 129 -43 167 -6 230 179 172 146 206 -138 335 -140 224 142 -48 295 -145 227 -122 165 149 -89 189 188 -82 -63 280 157 213 -156 236 -160 -149 -117 218 -120 273 -92 -111 190 194 215 185 -87 252 -57 265 176 -133 -79 226 182 184 -182 254 223 -181 186 225 212 -88 -136 290 -61 -20 -28 307 197 -197 -192 251 -143 228 -99 -95 -109 255 -76 207 279 244 247 -209 -12 -18 242 -196 216 -56 287 219 -45 -168 -107 -152 246 296 -1 -36 318 -187 -97 243 -232 -177 -180 -233 -200 237 303 -238 283 288 253 274 357 315 -106 281 389 289 346 -184 -59 -135 -240 -58 256 -203 -188 331 302 326 262 394 -263 -157 -3 -267 -60 -114 -155 -229 332 -217 314 275 277 -276 -77 -19 -130 319 345 304 -170 -272 -277 353 341 -219 327 320 349 293 -161 -294 -126 330 310 299 -172 -174 377 -246 311 352 351 -303 -147 -278 -257 -248 -2 379 -301 337 388 -317 347 384 -23 -123 -282 -296 366 -325 329 -189 344 361 -284 -90 375 356 -202 380 -139 -261 392 373 -299 381 -119 -327 -290 -166 -35 -250 348 -289 -291 -242 383 -225 400 355 -355 376 -52 -316 -283 -346 -319 -249 364 -353 -365 -293 -330 369 370 -307 -371 405 -339 -292 -169 404 -211 393 -206 -275 -300 -345 402 -132 -343 -241 -374 -124 -210 -295 396 -85 -336 -244 -395 -382 -394 -356 -385 408 -378 -215 -393 -158 -329 -340 409 -185 -358
right_child=1 2 3 4 6 19 11 18 24 92 211 13 -14 23 39 16 84 22 42 35 25 26 59 28 -26 -27 27 30 -30 -31 -32 -33 -34 83 120 -37 -38 -39 -40 -41 41 128 -44 61 70 -47 87 -49 80 -51 51 52 -54 81 104 173 133 58 118 71 125 63 76 64 65 66 -68 69 -70 -71 -72 72 85 74 123 156 77 177 -80 -81 152 -83 -84 164 109 171 151 148 140 -91 147 -93 -94 202 95 229 -98 201 99 101 -102 102 -104 -105 105 221 -108 108 -110 113 111 -113 268 114 -116 161 -118 217 163 -121 135 130 208 124 143 -127 -128 -129 136 -131 145 175 -134 134 150 -137 137 138 139 -141 -142 199 -144 144 -146 168 -148 160 -150 -151 222 -153 -154 269 155 264 271 -159 159 292 -162 -163 -164 -165 248 -167 220 258 239 -171 298 -173 300 -175 -176 232 -178 -179 233 180 181 -183 250 286 -186 200 257 260 -190 -191 195 -193 -194 -195 214 196 -198 -199 235 -201 333 204 -204 -205 312 -207 -208 210 209 301 -212 -213 -214 305 -216 272 -218 240 -220 -221 -222 -223 -224 282 -226 -227 -228 270 -230 -231 231 234 -234 -235 -236 -237 238 -239 241 386 350 -243 261 -245 259 -247 297 362 249 -251 -252 -253 -254 -255 -256 309 -258 -259 -260 336 -262 263 -264 -265 -266 266 -268 -269 -270 -271 284 -273 -274 334 276 285 308 -279 -280 -281 321 359 325 -285 -286 -287 -288 317 343 291 374 323 294 390 322 -297 -298 339 340 313 -302 306 -304 -305 -306 368 -308 -309 -310 -311 -312 -313 -314 -315 358 316 -318 328 -320 -321 -322 -323 -324 324 -326 342 -328 372 367 -331 -332 -333 -334 -335 378 -337 -338 338 406 -341 -342 385 -344 382 360 -347 -348 -349 -350 -351 -352 363 -354 354 398 -357 407 -359 -360 -361 -362 -363 -364 365 -366 -367 -368 -369 -370 371 -372 -373 387 -375 -376 -377 401 -379 -380 -381 391 -383 -384 399 -386 -387 -388 -389 -390 -391 -392 403 397 395 -396 -397 -398 -399 -400 -401 -402 -403 -404 -405 -406 -407 -408 -409 -410 -411
leaf_value=-3.6646691147294956 -5.3207835923644939 16.800053425245643 74.182794148782222 56.228512173363946 249.2606884780395 307.24147352594156 100.1097012749026 306.4037296647524 369.03113229463497 378.90161826186073 293.88683980581703 302.64224566254194 283.45736688904208 161.45604118797957 209.1293545469469 133.41751086446249 42.756208960143695 341.71124050537111 19.272221631757152 58.361489948255141 124.60878573964605 -5.289305283576649 158.68906656665672 18.365378285829138 35.596623846250267 3.7496317687601897 -3.5048733055750065 207.46352920277312 94.656158410419906 343.62327178820601 24.353271795207053 43.996192659615275 57.689116056315548 -4.9574647699601311 297.82791882851268 208.54801022342485 65.909024068048623 325.07636391267198 43.674200250771896 114.01068408534643 319.98494572630574 105.63024714494946 186.52477966728401 -7.2285963429834457 322.01908165588509 364.11227551419478 343.54132395568183 107.27825260040066 187.33771656686375 103.19683502044106 -10.293721700028556 336.61422718156308 -79.158108341860867 246.03661418672786 -3.5006483806920969 386.67002308228308 11.737725091558845 22.766971488772388 18.902235566278584 -0.72550759102887252 137.12527835559061 35.508616093813266 99.305407331721185 193.26455314755952 135.11102916023529 -12.911965936783584 43.382885415636046 32.664229995015013 101.50945340893146 118.20420168340029 189.4397926413404 209.47098132735164 99.748187295345573 191.90683675216587 7.9741595392869371 -10.084917228183324 2.631108588802614 126.30800457752346 241.83873369876832 450.67660714186741 151.34711275140745 114.4248471796723 120.08588489480863 20.788418121715065 106.67293518268667 -23.881052610465641 342.93750421150781 344.83536352606461 18.927255608848135 174.77770987680927 346.52743645194579 173.07266688990927 279.79033544651355 -20.68847836993756 161.00617084878408 261.56989955433892 215.37211037631332 29.003956566367101 97.554195116063454 198.4672535839764 154.52511172760069 -7.0622613055870822 82.177199366629196 -7.9061518979770913 22.627081066830186 -13.425846121568522 175.86893508931092 -10.784386722479891 40.770603547390103 45.700842811964868 208.16862748055414 83.294959778329471 -20.095525774156961 139.75893229563573 -1.3590905697952371 -31.350289357029503 301.54074831834214 22.238218492494553 -1.9748122507560475 53.566688440566367 240.67637348397901 -2.9043143166286427 -3.6055288401662291 94.773452361542866 -34.318374041173136 34.110649023845959 308.528118724487 -34.972636864668374 -18.432491856165885 12.378683899612698 4.9219992207491989 293.8913099044405 -48.472874425121809 -1.3672045807793312 5.0039109191860582 223.2564907427151 94.336439992267586 -38.863219049489835 95.620378590866949 9.4463345145703457 -57.751653323395544 295.42723587181689 298.08014020566031 99.532211065231579 -6.5378074125631391 6.9201278919441007 300.90991525422447 291.26076881719234 316.55253498590378 438.88300304752289 13.258206066788508 242.96209696218099 234.44086529050026 -18.508478938617067 -0.74288823615485533 15.258069778374477 -12.239694459834167 48.360398983144812 115.74263302852007 25.043779006476381 341.24060638588486 -83.952057843373723 48.27672525743597 8.8631357581518326 29.924320573337301 292.05153512853173 -28.98736383658737 6.739513225250211 7.4364499292331843 43.984932089630007 -1.195069575955878 24.321506680016217 25.751019079323783 326.47041158652019 37.039261697139693 307.20050247757104 329.85445065577022 181.47030536382644 300.25882949570808 18.405353191708084 24.297558876173586 7.2565408489545309 17.740124257539552 -5.845498881747174 35.425549640449518 6.047133619105165 4.2959999303993053 -13.993586161282392 294.45297605921223 23.666921325039574 6.397927683658259 -56.605862294891047 -36.97408557593014 45.581505891022694 29.773242271580095 4.3038071297942828 30.513293152424509 46.664324768952611 21.562423220619831 255.03473613370642 -2.9049044336440448 -21.930040089716488 30.508067982524416 -52.870562283538987 0.028232490906862938 -41.486698192042894 25.427844323295016 33.928331612985978 12.067776724201696 7.4651789765873486 -7.7301099869204988 334.70715453028106 -3.1175683382322186 10.948281147925936 -3.3733280569483366 -3.7311003073960674 16.230025005314548 4.5093575621541131 -38.001586161229916 34.144854285977239 11.027328949434343 -56.832459976995018 -5.9735748249710099 8.3420480824794119 40.072917770072138 1.9259782235432257 261.89017400691631 46.288313843507417 -0.42690035311430069 305.53780648275921 79.778897036459 -19.69455625189994 266.86747357825027 323.79771820873026 10.117966457277527 35.101059069720598 21.719219069845344 40.767555967509622 -22.516801352883014 -2.592974266432408 -12.288793317978863 -43.363490249121369 -18.270505576783325 24.579275599614377 29.076792824100782 -18.853471497229439 13.112786684313926 30.790041412540837 69.014224862328078 21.963127558727159 29.62047686147676 0.6270865535883311 16.791230321375362 -2.0105608021758621 21.086270287092102 -5.5302298208635881 41.093399166826053 -2.5162298287859657 42.633530787802279 10.57470398305365 -36.341147559386457 22.757363968423075 12.337767668379058 -8.7094452785569025 27.08833290051918 -7.893995727709763 -36.35585085045733 38.159523112751337 13.081546728373954 -4.6653014675863327 7.6468454642700516 12.547713867496103 -23.062806684462004 25.761555312048955 24.53819210021182 16.661672676233792 15.77165584942389 12.020626345218739 305.44347385228406 -47.580739245219135 11.65648176552215 5.4450416531598833 23.593604018464308 19.561523922049481 31.347792826337379 9.5897987830180327 12.568956148719993 17.235013999061831 14.150731781878919 53.801798321826617 5.8276600014215765 27.794908081571776 1.2412746815025659 -10.834136219610182 -10.31717248176173 -7.0857582289099286 -13.587871894478118 13.777864746635204 6.1543937943754194 13.200667667980701 40.125036048644013 17.248799635503239 54.931311828367797 9.5063018042911658 22.644987819928772 11.140237419303803 -0.44387938950702688 20.873674709792795 -1.9531460306289998 -14.982892720760132 5.0565012991122682 -10.663321483226358 21.495671918452807 29.346884284665986 31.406127900885433 26.141489467795399 8.494992850586355 38.626051759141674 14.012310137974175 9.0509273250309867 10.090850120735613 23.28101148355498 -30.81123488177241 35.685972589229465 20.067722266005166 22.560582250925371 3.1731812171802933 36.615642799937135 24.465199301823002 5.0553291834488778 1.3592335381172853 27.34884489708903 2.6849699608864586 -5.4001561824155182 29.861997380667102 -21.365190114343015 23.859816996683083 14.721824432955836 13.965352715508288 29.635143413978465 12.707538033876176 3.0939640384490716 34.911634910775412 22.911137842090298 15.349495200978042 5.2361674757582763 52.540791474849009 9.6045746914939532 29.260308332029485 38.689394688067907 0.83373655472798991 13.199881628961483 -5.6698781370484035 -2.9563471576238021 1.0045171731585698 11.98108621671841 -7.344393090243158 0.43979603998082056 17.242902486155419 16.69614930710857 24.087727319716148 26.706700702010068 44.884859948572675 17.417375874417498 33.874635400475377 8.9614511216441137 16.052563125152567 34.268703381461627 14.016377896290784 22.959327220934078 29.15949882457139 35.535511559812079 21.319954976820028 4.6081608063608739 17.430561888956635 18.219181251974476 -13.760934073577635 17.242518671610458 33.182159003011272 10.96109437923249 21.472581436810746 -0.89488692691327243 33.884583822377166 6.4708293968693384 -5.4860417806491331 13.734780661140867 1.2367867063499525 29.155237067830249 6.3533945165503027 1.4191734178514113 -2.0914801468407389 24.131791283517007 19.997194874014571 20.163193792405554 -10.470422812290021 25.691399932882639 15.281312830277018 13.828359795395796 -4.1362599459045857 12.427353768955085 -0.46741173396611424 -20.486131000740492 17.98452307559203 19.88909840195879 -6.0811154461364039 30.954051265121155 19.292889343491183 -4.1310423950850303 -2.7778353477531441 -10.791194235764197
